<?xml version="1.0"?>
<MethodSetup Method="BDT::BDT">
  <GeneralInfo>
    <Info name="TMVA Release" value="4.2.1 [262657]"/>
    <Info name="ROOT Release" value="6.24/07 [399367]"/>
    <Info name="Creator" value="mstamenk"/>
    <Info name="Date" value="Tue Jan  3 11:06:19 2023"/>
    <Info name="Host" value="Linux cmsbuild18.cern.ch 3.10.0-1160.45.1.el7.x86_64 #1 SMP Wed Oct 13 17:20:51 UTC 2021 x86_64 x86_64 x86_64 GNU/Linux"/>
    <Info name="Dir" value="/isilon/data/users/mstamenk/hhh-6b-producer/CMSSW_12_5_2/src/bdt-framework"/>
    <Info name="Training events" value="1056081"/>
    <Info name="TrainingTime" value="2.86414253e+02"/>
    <Info name="AnalysisType" value="Classification"/>
  </GeneralInfo>
  <Options>
    <Option name="V" modified="Yes">False</Option>
    <Option name="VerbosityLevel" modified="No">Default</Option>
    <Option name="VarTransform" modified="No">None</Option>
    <Option name="H" modified="Yes">False</Option>
    <Option name="CreateMVAPdfs" modified="No">False</Option>
    <Option name="IgnoreNegWeightsInTraining" modified="No">False</Option>
    <Option name="NTrees" modified="Yes">250</Option>
    <Option name="MaxDepth" modified="Yes">2</Option>
    <Option name="MinNodeSize" modified="Yes">9%</Option>
    <Option name="nCuts" modified="Yes">50</Option>
    <Option name="BoostType" modified="Yes">AdaBoost</Option>
    <Option name="AdaBoostR2Loss" modified="No">quadratic</Option>
    <Option name="UseBaggedBoost" modified="No">False</Option>
    <Option name="Shrinkage" modified="No">1.000000e+00</Option>
    <Option name="AdaBoostBeta" modified="Yes">2.000000e-01</Option>
    <Option name="UseRandomisedTrees" modified="No">False</Option>
    <Option name="UseNvars" modified="No">8</Option>
    <Option name="UsePoissonNvars" modified="No">True</Option>
    <Option name="BaggedSampleFraction" modified="No">6.000000e-01</Option>
    <Option name="UseYesNoLeaf" modified="No">True</Option>
    <Option name="NegWeightTreatment" modified="No">inverseboostnegweights</Option>
    <Option name="Css" modified="No">1.000000e+00</Option>
    <Option name="Cts_sb" modified="No">1.000000e+00</Option>
    <Option name="Ctb_ss" modified="No">1.000000e+00</Option>
    <Option name="Cbb" modified="No">1.000000e+00</Option>
    <Option name="NodePurityLimit" modified="No">5.000000e-01</Option>
    <Option name="SeparationType" modified="Yes">giniindex</Option>
    <Option name="RegressionLossFunctionBDTG" modified="No">huber</Option>
    <Option name="HuberQuantile" modified="No">7.000000e-01</Option>
    <Option name="DoBoostMonitor" modified="No">False</Option>
    <Option name="UseFisherCuts" modified="No">False</Option>
    <Option name="MinLinCorrForFisher" modified="No">8.000000e-01</Option>
    <Option name="UseExclusiveVars" modified="No">False</Option>
    <Option name="DoPreselection" modified="No">False</Option>
    <Option name="SigToBkgFraction" modified="No">1.000000e+00</Option>
    <Option name="PruneMethod" modified="Yes">nopruning</Option>
    <Option name="PruneStrength" modified="No">0.000000e+00</Option>
    <Option name="PruningValFraction" modified="No">5.000000e-01</Option>
    <Option name="SkipNormalization" modified="No">False</Option>
    <Option name="nEventsMin" modified="No">0</Option>
    <Option name="UseBaggedGrad" modified="No">False</Option>
    <Option name="GradBaggingFraction" modified="No">6.000000e-01</Option>
    <Option name="UseNTrainEvents" modified="No">0</Option>
    <Option name="NNodesMax" modified="No">0</Option>
  </Options>
  <Variables NVar="62">
    <Variable VarIndex="0" Expression="h_fit_mass" Label="h_fit_mass" Title="h_fit_mass" Unit="" Internal="h_fit_mass" Type="F" Min="2.65428181e+01" Max="1.10568018e+03"/>
    <Variable VarIndex="1" Expression="h1_t3_mass" Label="h1_t3_mass" Title="h1_t3_mass" Unit="" Internal="h1_t3_mass" Type="F" Min="2.45554028e+01" Max="1.53367676e+03"/>
    <Variable VarIndex="2" Expression="h2_t3_mass" Label="h2_t3_mass" Title="h2_t3_mass" Unit="" Internal="h2_t3_mass" Type="F" Min="2.03513165e+01" Max="1.43248547e+03"/>
    <Variable VarIndex="3" Expression="h3_t3_mass" Label="h3_t3_mass" Title="h3_t3_mass" Unit="" Internal="h3_t3_mass" Type="F" Min="1.78184528e+01" Max="1.25678442e+03"/>
    <Variable VarIndex="4" Expression="h1_t3_dRjets" Label="h1_t3_dRjets" Title="h1_t3_dRjets" Unit="" Internal="h1_t3_dRjets" Type="F" Min="3.72843891e-01" Max="5.40685081e+00"/>
    <Variable VarIndex="5" Expression="h2_t3_dRjets" Label="h2_t3_dRjets" Title="h2_t3_dRjets" Unit="" Internal="h2_t3_dRjets" Type="F" Min="0.00000000e+00" Max="5.50801420e+00"/>
    <Variable VarIndex="6" Expression="h3_t3_dRjets" Label="h3_t3_dRjets" Title="h3_t3_dRjets" Unit="" Internal="h3_t3_dRjets" Type="F" Min="3.89838129e-01" Max="5.55441713e+00"/>
    <Variable VarIndex="7" Expression="bcand1Pt" Label="bcand1Pt" Title="bcand1Pt" Unit="" Internal="bcand1Pt" Type="F" Min="4.00312500e+01" Max="2.78800000e+03"/>
    <Variable VarIndex="8" Expression="bcand2Pt" Label="bcand2Pt" Title="bcand2Pt" Unit="" Internal="bcand2Pt" Type="F" Min="2.00156250e+01" Max="1.08700000e+03"/>
    <Variable VarIndex="9" Expression="bcand3Pt" Label="bcand3Pt" Title="bcand3Pt" Unit="" Internal="bcand3Pt" Type="F" Min="4.00312500e+01" Max="2.41800000e+03"/>
    <Variable VarIndex="10" Expression="bcand4Pt" Label="bcand4Pt" Title="bcand4Pt" Unit="" Internal="bcand4Pt" Type="F" Min="2.00156250e+01" Max="1.10200000e+03"/>
    <Variable VarIndex="11" Expression="bcand5Pt" Label="bcand5Pt" Title="bcand5Pt" Unit="" Internal="bcand5Pt" Type="F" Min="4.00312500e+01" Max="1.08800000e+03"/>
    <Variable VarIndex="12" Expression="bcand6Pt" Label="bcand6Pt" Title="bcand6Pt" Unit="" Internal="bcand6Pt" Type="F" Min="2.00156250e+01" Max="5.53000000e+02"/>
    <Variable VarIndex="13" Expression="bcand1Eta" Label="bcand1Eta" Title="bcand1Eta" Unit="" Internal="bcand1Eta" Type="F" Min="1.29197724e-06" Max="2.49951172e+00"/>
    <Variable VarIndex="14" Expression="bcand2Eta" Label="bcand2Eta" Title="bcand2Eta" Unit="" Internal="bcand2Eta" Type="F" Min="3.75730451e-07" Max="2.49951172e+00"/>
    <Variable VarIndex="15" Expression="bcand3Eta" Label="bcand3Eta" Title="bcand3Eta" Unit="" Internal="bcand3Eta" Type="F" Min="2.19966751e-07" Max="2.49951172e+00"/>
    <Variable VarIndex="16" Expression="bcand4Eta" Label="bcand4Eta" Title="bcand4Eta" Unit="" Internal="bcand4Eta" Type="F" Min="9.40286554e-07" Max="2.49951172e+00"/>
    <Variable VarIndex="17" Expression="bcand5Eta" Label="bcand5Eta" Title="bcand5Eta" Unit="" Internal="bcand5Eta" Type="F" Min="5.20958565e-07" Max="2.49951172e+00"/>
    <Variable VarIndex="18" Expression="bcand6Eta" Label="bcand6Eta" Title="bcand6Eta" Unit="" Internal="bcand6Eta" Type="F" Min="3.55951488e-06" Max="2.49951172e+00"/>
    <Variable VarIndex="19" Expression="bcand1Phi" Label="bcand1Phi" Title="bcand1Phi" Unit="" Internal="bcand1Phi" Type="F" Min="-3.14158368e+00" Max="3.14158368e+00"/>
    <Variable VarIndex="20" Expression="bcand2Phi" Label="bcand2Phi" Title="bcand2Phi" Unit="" Internal="bcand2Phi" Type="F" Min="-3.14158368e+00" Max="3.14158368e+00"/>
    <Variable VarIndex="21" Expression="bcand3Phi" Label="bcand3Phi" Title="bcand3Phi" Unit="" Internal="bcand3Phi" Type="F" Min="-3.14158368e+00" Max="3.14158368e+00"/>
    <Variable VarIndex="22" Expression="bcand4Phi" Label="bcand4Phi" Title="bcand4Phi" Unit="" Internal="bcand4Phi" Type="F" Min="-3.14158368e+00" Max="3.14158368e+00"/>
    <Variable VarIndex="23" Expression="bcand5Phi" Label="bcand5Phi" Title="bcand5Phi" Unit="" Internal="bcand5Phi" Type="F" Min="-3.14158368e+00" Max="3.14158368e+00"/>
    <Variable VarIndex="24" Expression="bcand6Phi" Label="bcand6Phi" Title="bcand6Phi" Unit="" Internal="bcand6Phi" Type="F" Min="-3.14158368e+00" Max="3.14158368e+00"/>
    <Variable VarIndex="25" Expression="bcand1DeepFlavB" Label="bcand1DeepFlavB" Title="bcand1DeepFlavB" Unit="" Internal="bcand1DeepFlavB" Type="F" Min="4.90112305e-02" Max="9.99511719e-01"/>
    <Variable VarIndex="26" Expression="bcand2DeepFlavB" Label="bcand2DeepFlavB" Title="bcand2DeepFlavB" Unit="" Internal="bcand2DeepFlavB" Type="F" Min="4.90112305e-02" Max="9.99511719e-01"/>
    <Variable VarIndex="27" Expression="bcand3DeepFlavB" Label="bcand3DeepFlavB" Title="bcand3DeepFlavB" Unit="" Internal="bcand3DeepFlavB" Type="F" Min="4.90112305e-02" Max="9.99511719e-01"/>
    <Variable VarIndex="28" Expression="bcand4DeepFlavB" Label="bcand4DeepFlavB" Title="bcand4DeepFlavB" Unit="" Internal="bcand4DeepFlavB" Type="F" Min="4.90112305e-02" Max="9.99511719e-01"/>
    <Variable VarIndex="29" Expression="bcand5DeepFlavB" Label="bcand5DeepFlavB" Title="bcand5DeepFlavB" Unit="" Internal="bcand5DeepFlavB" Type="F" Min="4.90112305e-02" Max="9.99511719e-01"/>
    <Variable VarIndex="30" Expression="bcand6DeepFlavB" Label="bcand6DeepFlavB" Title="bcand6DeepFlavB" Unit="" Internal="bcand6DeepFlavB" Type="F" Min="4.90112305e-02" Max="9.99511719e-01"/>
    <Variable VarIndex="31" Expression="fatJet1Mass" Label="fatJet1Mass" Title="fatJet1Mass" Unit="" Internal="fatJet1Mass" Type="F" Min="0.00000000e+00" Max="9.96500000e+02"/>
    <Variable VarIndex="32" Expression="fatJet1Pt" Label="fatJet1Pt" Title="fatJet1Pt" Unit="" Internal="fatJet1Pt" Type="F" Min="0.00000000e+00" Max="2.47800000e+03"/>
    <Variable VarIndex="33" Expression="fatJet1Eta" Label="fatJet1Eta" Title="fatJet1Eta" Unit="" Internal="fatJet1Eta" Type="F" Min="-2.39941406e+00" Max="2.39794922e+00"/>
    <Variable VarIndex="34" Expression="fatJet1PNetXbb" Label="fatJet1PNetXbb" Title="fatJet1PNetXbb" Unit="" Internal="fatJet1PNetXbb" Type="F" Min="0.00000000e+00" Max="1.00041378e+00"/>
    <Variable VarIndex="35" Expression="fatJet2Mass" Label="fatJet2Mass" Title="fatJet2Mass" Unit="" Internal="fatJet2Mass" Type="F" Min="0.00000000e+00" Max="6.01000000e+02"/>
    <Variable VarIndex="36" Expression="fatJet2Pt" Label="fatJet2Pt" Title="fatJet2Pt" Unit="" Internal="fatJet2Pt" Type="F" Min="0.00000000e+00" Max="2.19200000e+03"/>
    <Variable VarIndex="37" Expression="fatJet2Eta" Label="fatJet2Eta" Title="fatJet2Eta" Unit="" Internal="fatJet2Eta" Type="F" Min="-2.38964844e+00" Max="2.39453125e+00"/>
    <Variable VarIndex="38" Expression="fatJet2PNetXbb" Label="fatJet2PNetXbb" Title="fatJet2PNetXbb" Unit="" Internal="fatJet2PNetXbb" Type="F" Min="0.00000000e+00" Max="9.99514818e-01"/>
    <Variable VarIndex="39" Expression="fatJet3Mass" Label="fatJet3Mass" Title="fatJet3Mass" Unit="" Internal="fatJet3Mass" Type="F" Min="0.00000000e+00" Max="4.85750000e+02"/>
    <Variable VarIndex="40" Expression="fatJet3Pt" Label="fatJet3Pt" Title="fatJet3Pt" Unit="" Internal="fatJet3Pt" Type="F" Min="0.00000000e+00" Max="1.49200000e+03"/>
    <Variable VarIndex="41" Expression="fatJet3Eta" Label="fatJet3Eta" Title="fatJet3Eta" Unit="" Internal="fatJet3Eta" Type="F" Min="-2.36035156e+00" Max="2.34667969e+00"/>
    <Variable VarIndex="42" Expression="fatJet3PNetXbb" Label="fatJet3PNetXbb" Title="fatJet3PNetXbb" Unit="" Internal="fatJet3PNetXbb" Type="F" Min="0.00000000e+00" Max="9.99046266e-01"/>
    <Variable VarIndex="43" Expression="fatJet1PNetQCD" Label="fatJet1PNetQCD" Title="fatJet1PNetQCD" Unit="" Internal="fatJet1PNetQCD" Type="F" Min="0.00000000e+00" Max="1.99829102e-01"/>
    <Variable VarIndex="44" Expression="fatJet2PNetQCD" Label="fatJet2PNetQCD" Title="fatJet2PNetQCD" Unit="" Internal="fatJet2PNetQCD" Type="F" Min="0.00000000e+00" Max="1.99951172e-01"/>
    <Variable VarIndex="45" Expression="fatJet3PNetQCD" Label="fatJet3PNetQCD" Title="fatJet3PNetQCD" Unit="" Internal="fatJet3PNetQCD" Type="F" Min="0.00000000e+00" Max="1.99340820e-01"/>
    <Variable VarIndex="46" Expression="jet7Pt" Label="jet7Pt" Title="jet7Pt" Unit="" Internal="jet7Pt" Type="F" Min="0.00000000e+00" Max="2.74000000e+03"/>
    <Variable VarIndex="47" Expression="jet7Eta" Label="jet7Eta" Title="jet7Eta" Unit="" Internal="jet7Eta" Type="F" Min="-2.49951172e+00" Max="2.49951172e+00"/>
    <Variable VarIndex="48" Expression="jet7Phi" Label="jet7Phi" Title="jet7Phi" Unit="" Internal="jet7Phi" Type="F" Min="-3.14160156e+00" Max="3.14160156e+00"/>
    <Variable VarIndex="49" Expression="jet7DeepFlavB" Label="jet7DeepFlavB" Title="jet7DeepFlavB" Unit="" Internal="jet7DeepFlavB" Type="F" Min="0.00000000e+00" Max="9.95117188e-01"/>
    <Variable VarIndex="50" Expression="jet8Pt" Label="jet8Pt" Title="jet8Pt" Unit="" Internal="jet8Pt" Type="F" Min="0.00000000e+00" Max="1.97100000e+03"/>
    <Variable VarIndex="51" Expression="jet8Eta" Label="jet8Eta" Title="jet8Eta" Unit="" Internal="jet8Eta" Type="F" Min="-2.49951172e+00" Max="2.49951172e+00"/>
    <Variable VarIndex="52" Expression="jet8Phi" Label="jet8Phi" Title="jet8Phi" Unit="" Internal="jet8Phi" Type="F" Min="-3.14160156e+00" Max="3.14160156e+00"/>
    <Variable VarIndex="53" Expression="jet8DeepFlavB" Label="jet8DeepFlavB" Title="jet8DeepFlavB" Unit="" Internal="jet8DeepFlavB" Type="F" Min="0.00000000e+00" Max="9.82910156e-01"/>
    <Variable VarIndex="54" Expression="jet9Pt" Label="jet9Pt" Title="jet9Pt" Unit="" Internal="jet9Pt" Type="F" Min="0.00000000e+00" Max="1.80900000e+03"/>
    <Variable VarIndex="55" Expression="jet9Eta" Label="jet9Eta" Title="jet9Eta" Unit="" Internal="jet9Eta" Type="F" Min="-2.49951172e+00" Max="2.49951172e+00"/>
    <Variable VarIndex="56" Expression="jet9Phi" Label="jet9Phi" Title="jet9Phi" Unit="" Internal="jet9Phi" Type="F" Min="-3.14160156e+00" Max="3.14160156e+00"/>
    <Variable VarIndex="57" Expression="jet9DeepFlavB" Label="jet9DeepFlavB" Title="jet9DeepFlavB" Unit="" Internal="jet9DeepFlavB" Type="F" Min="0.00000000e+00" Max="9.36035156e-01"/>
    <Variable VarIndex="58" Expression="jet10Pt" Label="jet10Pt" Title="jet10Pt" Unit="" Internal="jet10Pt" Type="F" Min="0.00000000e+00" Max="1.30200000e+03"/>
    <Variable VarIndex="59" Expression="jet10Eta" Label="jet10Eta" Title="jet10Eta" Unit="" Internal="jet10Eta" Type="F" Min="-2.49951172e+00" Max="2.49951172e+00"/>
    <Variable VarIndex="60" Expression="jet10Phi" Label="jet10Phi" Title="jet10Phi" Unit="" Internal="jet10Phi" Type="F" Min="-3.14160156e+00" Max="3.14160156e+00"/>
    <Variable VarIndex="61" Expression="jet10DeepFlavB" Label="jet10DeepFlavB" Title="jet10DeepFlavB" Unit="" Internal="jet10DeepFlavB" Type="F" Min="0.00000000e+00" Max="6.78710938e-01"/>
  </Variables>
  <Spectators NSpec="0"/>
  <Classes NClass="2">
    <Class Name="Signal" Index="0"/>
    <Class Name="Background" Index="1"/>
  </Classes>
  <Transformations NTransformations="0"/>
  <MVAPdfs/>
  <Weights NTrees="250" AnalysisType="0">
    <BinaryTree type="DecisionTree" boostWeight="2.3283877824791360e-01" itree="0">
      <Node pos="s" depth="0" NCoef="0" IVar="28" Cut="5.3358012437820435e-01" cType="0" res="-9.9000000000000000e+01" rms="0.0000000000000000e+00" purity="5.0000000000000000e-01" nType="0">
        <Node pos="l" depth="1" NCoef="0" IVar="-1" Cut="3.0993294715881348e-01" cType="0" res="-9.9000000000000000e+01" rms="0.0000000000000000e+00" purity="7.5928950309753418e-01" nType="1"/>
        <Node pos="r" depth="1" NCoef="0" IVar="26" Cut="6.6404098272323608e-01" cType="0" res="-9.9000000000000000e+01" rms="0.0000000000000000e+00" purity="2.9477879405021667e-01" nType="0">
          <Node pos="l" depth="2" NCoef="0" IVar="-1" Cut="0.0000000000000000e+00" cType="1" res="-9.9000000000000000e+01" rms="0.0000000000000000e+00" purity="5.9338331222534180e-01" nType="1"/>
          <Node pos="r" depth="2" NCoef="0" IVar="-1" Cut="0.0000000000000000e+00" cType="1" res="-9.9000000000000000e+01" rms="0.0000000000000000e+00" purity="1.5657365322113037e-01" nType="-1"/>
        </Node>
      </Node>
    </BinaryTree>
    <BinaryTree type="DecisionTree" boostWeight="1.9851367792749486e-01" itree="1">
      <Node pos="s" depth="0" NCoef="0" IVar="26" Cut="4.0311926603317261e-01" cType="0" res="-9.9000000000000000e+01" rms="0.0000000000000000e+00" purity="4.8538869619369507e-01" nType="0">
        <Node pos="l" depth="1" NCoef="0" IVar="27" Cut="4.5903104543685913e-01" cType="0" res="-9.9000000000000000e+01" rms="0.0000000000000000e+00" purity="6.7939245700836182e-01" nType="0">
          <Node pos="l" depth="2" NCoef="0" IVar="-1" Cut="0.0000000000000000e+00" cType="1" res="-9.9000000000000000e+01" rms="0.0000000000000000e+00" purity="8.1356424093246460e-01" nType="1"/>
          <Node pos="r" depth="2" NCoef="0" IVar="-1" Cut="0.0000000000000000e+00" cType="1" res="-9.9000000000000000e+01" rms="0.0000000000000000e+00" purity="4.3428915739059448e-01" nType="-1"/>
        </Node>
        <Node pos="r" depth="1" NCoef="0" IVar="30" Cut="5.5221736431121826e-01" cType="0" res="-9.9000000000000000e+01" rms="0.0000000000000000e+00" purity="2.6632204651832581e-01" nType="0">
          <Node pos="l" depth="2" NCoef="0" IVar="-1" Cut="0.0000000000000000e+00" cType="1" res="-9.9000000000000000e+01" rms="0.0000000000000000e+00" purity="5.0015759468078613e-01" nType="1"/>
          <Node pos="r" depth="2" NCoef="0" IVar="-1" Cut="0.0000000000000000e+00" cType="1" res="-9.9000000000000000e+01" rms="0.0000000000000000e+00" purity="1.4570355415344238e-01" nType="-1"/>
        </Node>
      </Node>
    </BinaryTree>
    <BinaryTree type="DecisionTree" boostWeight="1.8907112626700739e-01" itree="2">
      <Node pos="s" depth="0" NCoef="0" IVar="28" Cut="3.6584472656250000e-01" cType="0" res="-9.9000000000000000e+01" rms="0.0000000000000000e+00" purity="4.8442912101745605e-01" nType="0">
        <Node pos="l" depth="1" NCoef="0" IVar="26" Cut="3.4720745682716370e-01" cType="0" res="-9.9000000000000000e+01" rms="0.0000000000000000e+00" purity="6.7844057083129883e-01" nType="0">
          <Node pos="l" depth="2" NCoef="0" IVar="-1" Cut="0.0000000000000000e+00" cType="1" res="-9.9000000000000000e+01" rms="0.0000000000000000e+00" purity="7.9911619424819946e-01" nType="1"/>
          <Node pos="r" depth="2" NCoef="0" IVar="-1" Cut="0.0000000000000000e+00" cType="1" res="-9.9000000000000000e+01" rms="0.0000000000000000e+00" purity="4.4884014129638672e-01" nType="-1"/>
        </Node>
        <Node pos="r" depth="1" NCoef="0" IVar="-1" Cut="4.5903104543685913e-01" cType="0" res="-9.9000000000000000e+01" rms="0.0000000000000000e+00" purity="2.7273964881896973e-01" nType="-1"/>
      </Node>
    </BinaryTree>
    <BinaryTree type="DecisionTree" boostWeight="1.8906119019419004e-01" itree="3">
      <Node pos="s" depth="0" NCoef="0" IVar="29" Cut="4.4039377570152283e-01" cType="0" res="-9.9000000000000000e+01" rms="0.0000000000000000e+00" purity="4.9928978085517883e-01" nType="0">
        <Node pos="l" depth="1" NCoef="0" IVar="25" Cut="4.2175650596618652e-01" cType="0" res="-9.9000000000000000e+01" rms="0.0000000000000000e+00" purity="6.5934139490127563e-01" nType="0">
          <Node pos="l" depth="2" NCoef="0" IVar="-1" Cut="0.0000000000000000e+00" cType="1" res="-9.9000000000000000e+01" rms="0.0000000000000000e+00" purity="7.8688895702362061e-01" nType="1"/>
          <Node pos="r" depth="2" NCoef="0" IVar="-1" Cut="0.0000000000000000e+00" cType="1" res="-9.9000000000000000e+01" rms="0.0000000000000000e+00" purity="4.2638808488845825e-01" nType="-1"/>
        </Node>
        <Node pos="r" depth="1" NCoef="0" IVar="28" Cut="5.3358012437820435e-01" cType="0" res="-9.9000000000000000e+01" rms="0.0000000000000000e+00" purity="2.6936876773834229e-01" nType="0">
          <Node pos="l" depth="2" NCoef="0" IVar="-1" Cut="0.0000000000000000e+00" cType="1" res="-9.9000000000000000e+01" rms="0.0000000000000000e+00" purity="5.0313413143157959e-01" nType="1"/>
          <Node pos="r" depth="2" NCoef="0" IVar="-1" Cut="0.0000000000000000e+00" cType="1" res="-9.9000000000000000e+01" rms="0.0000000000000000e+00" purity="1.5207040309906006e-01" nType="-1"/>
        </Node>
      </Node>
    </BinaryTree>
    <BinaryTree type="DecisionTree" boostWeight="1.5788582026000089e-01" itree="4">
      <Node pos="s" depth="0" NCoef="0" IVar="29" Cut="4.5903104543685913e-01" cType="0" res="-9.9000000000000000e+01" rms="0.0000000000000000e+00" purity="4.9747782945632935e-01" nType="0">
        <Node pos="l" depth="1" NCoef="0" IVar="27" Cut="7.9450178146362305e-01" cType="0" res="-9.9000000000000000e+01" rms="0.0000000000000000e+00" purity="6.5401238203048706e-01" nType="0">
          <Node pos="l" depth="2" NCoef="0" IVar="-1" Cut="0.0000000000000000e+00" cType="1" res="-9.9000000000000000e+01" rms="0.0000000000000000e+00" purity="8.3355838060379028e-01" nType="1"/>
          <Node pos="r" depth="2" NCoef="0" IVar="-1" Cut="0.0000000000000000e+00" cType="1" res="-9.9000000000000000e+01" rms="0.0000000000000000e+00" purity="4.9093803763389587e-01" nType="-1"/>
        </Node>
        <Node pos="r" depth="1" NCoef="0" IVar="-1" Cut="5.5221736431121826e-01" cType="0" res="-9.9000000000000000e+01" rms="0.0000000000000000e+00" purity="2.7842843532562256e-01" nType="-1"/>
      </Node>
    </BinaryTree>
    <BinaryTree type="DecisionTree" boostWeight="1.5253946800667495e-01" itree="5">
      <Node pos="s" depth="0" NCoef="0" IVar="30" Cut="5.5221736431121826e-01" cType="0" res="-9.9000000000000000e+01" rms="0.0000000000000000e+00" purity="5.1545602083206177e-01" nType="0">
        <Node pos="l" depth="1" NCoef="0" IVar="-1" Cut="6.2676644325256348e-01" cType="0" res="-9.9000000000000000e+01" rms="0.0000000000000000e+00" purity="7.1645289659500122e-01" nType="1"/>
        <Node pos="r" depth="1" NCoef="0" IVar="29" Cut="4.5903104543685913e-01" cType="0" res="-9.9000000000000000e+01" rms="0.0000000000000000e+00" purity="3.5161843895912170e-01" nType="0">
          <Node pos="l" depth="2" NCoef="0" IVar="-1" Cut="0.0000000000000000e+00" cType="1" res="-9.9000000000000000e+01" rms="0.0000000000000000e+00" purity="5.0517886877059937e-01" nType="1"/>
          <Node pos="r" depth="2" NCoef="0" IVar="-1" Cut="0.0000000000000000e+00" cType="1" res="-9.9000000000000000e+01" rms="0.0000000000000000e+00" purity="1.8277198076248169e-01" nType="-1"/>
        </Node>
      </Node>
    </BinaryTree>
    <BinaryTree type="DecisionTree" boostWeight="1.6157314708078932e-01" itree="6">
      <Node pos="s" depth="0" NCoef="0" IVar="26" Cut="4.0311926603317261e-01" cType="0" res="-9.9000000000000000e+01" rms="0.0000000000000000e+00" purity="4.9729472398757935e-01" nType="0">
        <Node pos="l" depth="1" NCoef="0" IVar="30" Cut="4.2175650596618652e-01" cType="0" res="-9.9000000000000000e+01" rms="0.0000000000000000e+00" purity="6.6265916824340820e-01" nType="0">
          <Node pos="l" depth="2" NCoef="0" IVar="-1" Cut="0.0000000000000000e+00" cType="1" res="-9.9000000000000000e+01" rms="0.0000000000000000e+00" purity="8.1515812873840332e-01" nType="1"/>
          <Node pos="r" depth="2" NCoef="0" IVar="-1" Cut="0.0000000000000000e+00" cType="1" res="-9.9000000000000000e+01" rms="0.0000000000000000e+00" purity="4.6818733215332031e-01" nType="-1"/>
        </Node>
        <Node pos="r" depth="1" NCoef="0" IVar="-1" Cut="4.0311926603317261e-01" cType="0" res="-9.9000000000000000e+01" rms="0.0000000000000000e+00" purity="3.0716001987457275e-01" nType="-1"/>
      </Node>
    </BinaryTree>
    <BinaryTree type="DecisionTree" boostWeight="1.4268310218380512e-01" itree="7">
      <Node pos="s" depth="0" NCoef="0" IVar="28" Cut="3.6584472656250000e-01" cType="0" res="-9.9000000000000000e+01" rms="0.0000000000000000e+00" purity="5.1386392116546631e-01" nType="0">
        <Node pos="l" depth="1" NCoef="0" IVar="-1" Cut="8.5041362047195435e-01" cType="0" res="-9.9000000000000000e+01" rms="0.0000000000000000e+00" purity="6.6504728794097900e-01" nType="1"/>
        <Node pos="r" depth="1" NCoef="0" IVar="26" Cut="4.0311926603317261e-01" cType="0" res="-9.9000000000000000e+01" rms="0.0000000000000000e+00" purity="3.3947056531906128e-01" nType="0">
          <Node pos="l" depth="2" NCoef="0" IVar="-1" Cut="0.0000000000000000e+00" cType="1" res="-9.9000000000000000e+01" rms="0.0000000000000000e+00" purity="5.1964217424392700e-01" nType="1"/>
          <Node pos="r" depth="2" NCoef="0" IVar="-1" Cut="0.0000000000000000e+00" cType="1" res="-9.9000000000000000e+01" rms="0.0000000000000000e+00" purity="1.9214968383312225e-01" nType="-1"/>
        </Node>
      </Node>
    </BinaryTree>
    <BinaryTree type="DecisionTree" boostWeight="1.5118937672530763e-01" itree="8">
      <Node pos="s" depth="0" NCoef="0" IVar="27" Cut="4.5903104543685913e-01" cType="0" res="-9.9000000000000000e+01" rms="0.0000000000000000e+00" purity="4.9635940790176392e-01" nType="0">
        <Node pos="l" depth="1" NCoef="0" IVar="25" Cut="7.5722730159759521e-01" cType="0" res="-9.9000000000000000e+01" rms="0.0000000000000000e+00" purity="6.2830823659896851e-01" nType="0">
          <Node pos="l" depth="2" NCoef="0" IVar="-1" Cut="0.0000000000000000e+00" cType="1" res="-9.9000000000000000e+01" rms="0.0000000000000000e+00" purity="7.9759734869003296e-01" nType="1"/>
          <Node pos="r" depth="2" NCoef="0" IVar="-1" Cut="0.0000000000000000e+00" cType="1" res="-9.9000000000000000e+01" rms="0.0000000000000000e+00" purity="4.7004917263984680e-01" nType="-1"/>
        </Node>
        <Node pos="r" depth="1" NCoef="0" IVar="26" Cut="6.6404098272323608e-01" cType="0" res="-9.9000000000000000e+01" rms="0.0000000000000000e+00" purity="3.1366685032844543e-01" nType="0">
          <Node pos="l" depth="2" NCoef="0" IVar="-1" Cut="0.0000000000000000e+00" cType="1" res="-9.9000000000000000e+01" rms="0.0000000000000000e+00" purity="5.3343719244003296e-01" nType="1"/>
          <Node pos="r" depth="2" NCoef="0" IVar="-1" Cut="0.0000000000000000e+00" cType="1" res="-9.9000000000000000e+01" rms="0.0000000000000000e+00" purity="1.9459334015846252e-01" nType="-1"/>
        </Node>
      </Node>
    </BinaryTree>
    <BinaryTree type="DecisionTree" boostWeight="1.4926278350799346e-01" itree="9">
      <Node pos="s" depth="0" NCoef="0" IVar="27" Cut="4.5903104543685913e-01" cType="0" res="-9.9000000000000000e+01" rms="0.0000000000000000e+00" purity="5.0184893608093262e-01" nType="0">
        <Node pos="l" depth="1" NCoef="0" IVar="30" Cut="2.7265840768814087e-01" cType="0" res="-9.9000000000000000e+01" rms="0.0000000000000000e+00" purity="6.3276958465576172e-01" nType="0">
          <Node pos="l" depth="2" NCoef="0" IVar="-1" Cut="0.0000000000000000e+00" cType="1" res="-9.9000000000000000e+01" rms="0.0000000000000000e+00" purity="7.4883371591567993e-01" nType="1"/>
          <Node pos="r" depth="2" NCoef="0" IVar="-1" Cut="0.0000000000000000e+00" cType="1" res="-9.9000000000000000e+01" rms="0.0000000000000000e+00" purity="4.4207444787025452e-01" nType="-1"/>
        </Node>
        <Node pos="r" depth="1" NCoef="0" IVar="-1" Cut="4.7766831517219543e-01" cType="0" res="-9.9000000000000000e+01" rms="0.0000000000000000e+00" purity="3.1915158033370972e-01" nType="-1"/>
      </Node>
    </BinaryTree>
    <BinaryTree type="DecisionTree" boostWeight="1.4498004097057715e-01" itree="10">
      <Node pos="s" depth="0" NCoef="0" IVar="29" Cut="3.6584472656250000e-01" cType="0" res="-9.9000000000000000e+01" rms="0.0000000000000000e+00" purity="5.1244962215423584e-01" nType="0">
        <Node pos="l" depth="1" NCoef="0" IVar="30" Cut="3.0993294715881348e-01" cType="0" res="-9.9000000000000000e+01" rms="0.0000000000000000e+00" purity="6.3135677576065063e-01" nType="0">
          <Node pos="l" depth="2" NCoef="0" IVar="-1" Cut="0.0000000000000000e+00" cType="1" res="-9.9000000000000000e+01" rms="0.0000000000000000e+00" purity="7.4535208940505981e-01" nType="1"/>
          <Node pos="r" depth="2" NCoef="0" IVar="-1" Cut="0.0000000000000000e+00" cType="1" res="-9.9000000000000000e+01" rms="0.0000000000000000e+00" purity="4.6526911854743958e-01" nType="-1"/>
        </Node>
        <Node pos="r" depth="1" NCoef="0" IVar="27" Cut="9.2496263980865479e-01" cType="0" res="-9.9000000000000000e+01" rms="0.0000000000000000e+00" purity="3.0827832221984863e-01" nType="0">
          <Node pos="l" depth="2" NCoef="0" IVar="-1" Cut="0.0000000000000000e+00" cType="1" res="-9.9000000000000000e+01" rms="0.0000000000000000e+00" purity="5.1027274131774902e-01" nType="1"/>
          <Node pos="r" depth="2" NCoef="0" IVar="-1" Cut="0.0000000000000000e+00" cType="1" res="-9.9000000000000000e+01" rms="0.0000000000000000e+00" purity="2.2297437489032745e-01" nType="-1"/>
        </Node>
      </Node>
    </BinaryTree>
    <BinaryTree type="DecisionTree" boostWeight="1.5078897092692212e-01" itree="11">
      <Node pos="s" depth="0" NCoef="0" IVar="29" Cut="3.6584472656250000e-01" cType="0" res="-9.9000000000000000e+01" rms="0.0000000000000000e+00" purity="5.1395642757415771e-01" nType="0">
        <Node pos="l" depth="1" NCoef="0" IVar="28" Cut="1.7947208881378174e-01" cType="0" res="-9.9000000000000000e+01" rms="0.0000000000000000e+00" purity="6.2757468223571777e-01" nType="0">
          <Node pos="l" depth="2" NCoef="0" IVar="-1" Cut="0.0000000000000000e+00" cType="1" res="-9.9000000000000000e+01" rms="0.0000000000000000e+00" purity="7.1390742063522339e-01" nType="1"/>
          <Node pos="r" depth="2" NCoef="0" IVar="-1" Cut="0.0000000000000000e+00" cType="1" res="-9.9000000000000000e+01" rms="0.0000000000000000e+00" purity="4.0987026691436768e-01" nType="-1"/>
        </Node>
        <Node pos="r" depth="1" NCoef="0" IVar="-1" Cut="4.9630558490753174e-01" cType="0" res="-9.9000000000000000e+01" rms="0.0000000000000000e+00" purity="3.1775638461112976e-01" nType="-1"/>
      </Node>
    </BinaryTree>
    <BinaryTree type="DecisionTree" boostWeight="1.4165642503852408e-01" itree="12">
      <Node pos="s" depth="0" NCoef="0" IVar="26" Cut="6.6404098272323608e-01" cType="0" res="-9.9000000000000000e+01" rms="0.0000000000000000e+00" purity="5.1794540882110596e-01" nType="0">
        <Node pos="l" depth="1" NCoef="0" IVar="25" Cut="3.0993294715881348e-01" cType="0" res="-9.9000000000000000e+01" rms="0.0000000000000000e+00" purity="6.7519927024841309e-01" nType="0">
          <Node pos="l" depth="2" NCoef="0" IVar="-1" Cut="0.0000000000000000e+00" cType="1" res="-9.9000000000000000e+01" rms="0.0000000000000000e+00" purity="7.6865082979202271e-01" nType="1"/>
          <Node pos="r" depth="2" NCoef="0" IVar="-1" Cut="0.0000000000000000e+00" cType="1" res="-9.9000000000000000e+01" rms="0.0000000000000000e+00" purity="4.6544411778450012e-01" nType="-1"/>
        </Node>
        <Node pos="r" depth="1" NCoef="0" IVar="27" Cut="7.9450178146362305e-01" cType="0" res="-9.9000000000000000e+01" rms="0.0000000000000000e+00" purity="4.0115314722061157e-01" nType="0">
          <Node pos="l" depth="2" NCoef="0" IVar="-1" Cut="0.0000000000000000e+00" cType="1" res="-9.9000000000000000e+01" rms="0.0000000000000000e+00" purity="5.6434810161590576e-01" nType="1"/>
          <Node pos="r" depth="2" NCoef="0" IVar="-1" Cut="0.0000000000000000e+00" cType="1" res="-9.9000000000000000e+01" rms="0.0000000000000000e+00" purity="2.9224950075149536e-01" nType="-1"/>
        </Node>
      </Node>
    </BinaryTree>
    <BinaryTree type="DecisionTree" boostWeight="1.0756788659502808e-01" itree="13">
      <Node pos="s" depth="0" NCoef="0" IVar="28" Cut="5.5221736431121826e-01" cType="0" res="-9.9000000000000000e+01" rms="0.0000000000000000e+00" purity="5.1661324501037598e-01" nType="0">
        <Node pos="l" depth="1" NCoef="0" IVar="-1" Cut="5.3358012437820435e-01" cType="0" res="-9.9000000000000000e+01" rms="0.0000000000000000e+00" purity="6.6283977031707764e-01" nType="1"/>
        <Node pos="r" depth="1" NCoef="0" IVar="29" Cut="3.0993294715881348e-01" cType="0" res="-9.9000000000000000e+01" rms="0.0000000000000000e+00" purity="3.9520579576492310e-01" nType="0">
          <Node pos="l" depth="2" NCoef="0" IVar="-1" Cut="0.0000000000000000e+00" cType="1" res="-9.9000000000000000e+01" rms="0.0000000000000000e+00" purity="5.0027632713317871e-01" nType="1"/>
          <Node pos="r" depth="2" NCoef="0" IVar="-1" Cut="0.0000000000000000e+00" cType="1" res="-9.9000000000000000e+01" rms="0.0000000000000000e+00" purity="2.3112085461616516e-01" nType="-1"/>
        </Node>
      </Node>
    </BinaryTree>
    <BinaryTree type="DecisionTree" boostWeight="1.1569336698186711e-01" itree="14">
      <Node pos="s" depth="0" NCoef="0" IVar="26" Cut="1.9810934364795685e-01" cType="0" res="-9.9000000000000000e+01" rms="0.0000000000000000e+00" purity="5.0122475624084473e-01" nType="0">
        <Node pos="l" depth="1" NCoef="0" IVar="30" Cut="5.1494282484054565e-01" cType="0" res="-9.9000000000000000e+01" rms="0.0000000000000000e+00" purity="5.9018534421920776e-01" nType="0">
          <Node pos="l" depth="2" NCoef="0" IVar="-1" Cut="0.0000000000000000e+00" cType="1" res="-9.9000000000000000e+01" rms="0.0000000000000000e+00" purity="7.2377169132232666e-01" nType="1"/>
          <Node pos="r" depth="2" NCoef="0" IVar="-1" Cut="0.0000000000000000e+00" cType="1" res="-9.9000000000000000e+01" rms="0.0000000000000000e+00" purity="4.7340577840805054e-01" nType="-1"/>
        </Node>
        <Node pos="r" depth="1" NCoef="0" IVar="-1" Cut="8.3177632093429565e-01" cType="0" res="-9.9000000000000000e+01" rms="0.0000000000000000e+00" purity="3.1222841143608093e-01" nType="-1"/>
      </Node>
    </BinaryTree>
    <BinaryTree type="DecisionTree" boostWeight="1.1683303621271526e-01" itree="15">
      <Node pos="s" depth="0" NCoef="0" IVar="28" Cut="5.5221736431121826e-01" cType="0" res="-9.9000000000000000e+01" rms="0.0000000000000000e+00" purity="5.1198506355285645e-01" nType="0">
        <Node pos="l" depth="1" NCoef="0" IVar="25" Cut="5.3358012437820435e-01" cType="0" res="-9.9000000000000000e+01" rms="0.0000000000000000e+00" purity="6.4811980724334717e-01" nType="0">
          <Node pos="l" depth="2" NCoef="0" IVar="-1" Cut="0.0000000000000000e+00" cType="1" res="-9.9000000000000000e+01" rms="0.0000000000000000e+00" purity="7.6457852125167847e-01" nType="1"/>
          <Node pos="r" depth="2" NCoef="0" IVar="-1" Cut="0.0000000000000000e+00" cType="1" res="-9.9000000000000000e+01" rms="0.0000000000000000e+00" purity="4.9353480339050293e-01" nType="-1"/>
        </Node>
        <Node pos="r" depth="1" NCoef="0" IVar="8" Cut="4.7073837280273438e+01" cType="0" res="-9.9000000000000000e+01" rms="0.0000000000000000e+00" purity="3.9850729703903198e-01" nType="0">
          <Node pos="l" depth="2" NCoef="0" IVar="-1" Cut="0.0000000000000000e+00" cType="1" res="-9.9000000000000000e+01" rms="0.0000000000000000e+00" purity="5.3429365158081055e-01" nType="1"/>
          <Node pos="r" depth="2" NCoef="0" IVar="-1" Cut="0.0000000000000000e+00" cType="1" res="-9.9000000000000000e+01" rms="0.0000000000000000e+00" purity="2.8769093751907349e-01" nType="-1"/>
        </Node>
      </Node>
    </BinaryTree>
    <BinaryTree type="DecisionTree" boostWeight="1.0348284710747511e-01" itree="16">
      <Node pos="s" depth="0" NCoef="0" IVar="28" Cut="5.5221736431121826e-01" cType="0" res="-9.9000000000000000e+01" rms="0.0000000000000000e+00" purity="5.1192820072174072e-01" nType="0">
        <Node pos="l" depth="1" NCoef="0" IVar="-1" Cut="8.5041362047195435e-01" cType="0" res="-9.9000000000000000e+01" rms="0.0000000000000000e+00" purity="6.4664584398269653e-01" nType="1"/>
        <Node pos="r" depth="1" NCoef="0" IVar="27" Cut="4.5903104543685913e-01" cType="0" res="-9.9000000000000000e+01" rms="0.0000000000000000e+00" purity="3.9991605281829834e-01" nType="0">
          <Node pos="l" depth="2" NCoef="0" IVar="-1" Cut="0.0000000000000000e+00" cType="1" res="-9.9000000000000000e+01" rms="0.0000000000000000e+00" purity="5.0881344079971313e-01" nType="1"/>
          <Node pos="r" depth="2" NCoef="0" IVar="-1" Cut="0.0000000000000000e+00" cType="1" res="-9.9000000000000000e+01" rms="0.0000000000000000e+00" purity="2.6529949903488159e-01" nType="-1"/>
        </Node>
      </Node>
    </BinaryTree>
    <BinaryTree type="DecisionTree" boostWeight="9.5886998132727816e-02" itree="17">
      <Node pos="s" depth="0" NCoef="0" IVar="26" Cut="6.6404098272323608e-01" cType="0" res="-9.9000000000000000e+01" rms="0.0000000000000000e+00" purity="4.9868589639663696e-01" nType="0">
        <Node pos="l" depth="1" NCoef="0" IVar="-1" Cut="7.5722730159759521e-01" cType="0" res="-9.9000000000000000e+01" rms="0.0000000000000000e+00" purity="6.3861584663391113e-01" nType="1"/>
        <Node pos="r" depth="1" NCoef="0" IVar="-1" Cut="3.6584472656250000e-01" cType="0" res="-9.9000000000000000e+01" rms="0.0000000000000000e+00" purity="3.9756262302398682e-01" nType="-1"/>
      </Node>
    </BinaryTree>
    <BinaryTree type="DecisionTree" boostWeight="1.2030414661493277e-01" itree="18">
      <Node pos="s" depth="0" NCoef="0" IVar="29" Cut="5.5221736431121826e-01" cType="0" res="-9.9000000000000000e+01" rms="0.0000000000000000e+00" purity="5.0257104635238647e-01" nType="0">
        <Node pos="l" depth="1" NCoef="0" IVar="25" Cut="1.7947208881378174e-01" cType="0" res="-9.9000000000000000e+01" rms="0.0000000000000000e+00" purity="6.0504788160324097e-01" nType="0">
          <Node pos="l" depth="2" NCoef="0" IVar="-1" Cut="0.0000000000000000e+00" cType="1" res="-9.9000000000000000e+01" rms="0.0000000000000000e+00" purity="6.7761999368667603e-01" nType="1"/>
          <Node pos="r" depth="2" NCoef="0" IVar="-1" Cut="0.0000000000000000e+00" cType="1" res="-9.9000000000000000e+01" rms="0.0000000000000000e+00" purity="3.9694306254386902e-01" nType="-1"/>
        </Node>
        <Node pos="r" depth="1" NCoef="0" IVar="25" Cut="7.9450178146362305e-01" cType="0" res="-9.9000000000000000e+01" rms="0.0000000000000000e+00" purity="3.7232926487922668e-01" nType="0">
          <Node pos="l" depth="2" NCoef="0" IVar="-1" Cut="0.0000000000000000e+00" cType="1" res="-9.9000000000000000e+01" rms="0.0000000000000000e+00" purity="5.0306260585784912e-01" nType="1"/>
          <Node pos="r" depth="2" NCoef="0" IVar="-1" Cut="0.0000000000000000e+00" cType="1" res="-9.9000000000000000e+01" rms="0.0000000000000000e+00" purity="2.7236238121986389e-01" nType="-1"/>
        </Node>
      </Node>
    </BinaryTree>
    <BinaryTree type="DecisionTree" boostWeight="1.1404135970618373e-01" itree="19">
      <Node pos="s" depth="0" NCoef="0" IVar="28" Cut="5.5221736431121826e-01" cType="0" res="-9.9000000000000000e+01" rms="0.0000000000000000e+00" purity="4.9614953994750977e-01" nType="0">
        <Node pos="l" depth="1" NCoef="0" IVar="27" Cut="2.9129567742347717e-01" cType="0" res="-9.9000000000000000e+01" rms="0.0000000000000000e+00" purity="6.1979877948760986e-01" nType="0">
          <Node pos="l" depth="2" NCoef="0" IVar="-1" Cut="0.0000000000000000e+00" cType="1" res="-9.9000000000000000e+01" rms="0.0000000000000000e+00" purity="6.8879997730255127e-01" nType="1"/>
          <Node pos="r" depth="2" NCoef="0" IVar="-1" Cut="0.0000000000000000e+00" cType="1" res="-9.9000000000000000e+01" rms="0.0000000000000000e+00" purity="4.5282340049743652e-01" nType="-1"/>
        </Node>
        <Node pos="r" depth="1" NCoef="0" IVar="29" Cut="8.5041362047195435e-01" cType="0" res="-9.9000000000000000e+01" rms="0.0000000000000000e+00" purity="3.9401963353157043e-01" nType="0">
          <Node pos="l" depth="2" NCoef="0" IVar="-1" Cut="0.0000000000000000e+00" cType="1" res="-9.9000000000000000e+01" rms="0.0000000000000000e+00" purity="5.3417283296585083e-01" nType="1"/>
          <Node pos="r" depth="2" NCoef="0" IVar="-1" Cut="0.0000000000000000e+00" cType="1" res="-9.9000000000000000e+01" rms="0.0000000000000000e+00" purity="3.0931559205055237e-01" nType="-1"/>
        </Node>
      </Node>
    </BinaryTree>
    <BinaryTree type="DecisionTree" boostWeight="8.5375714039735914e-02" itree="20">
      <Node pos="s" depth="0" NCoef="0" IVar="30" Cut="5.5221736431121826e-01" cType="0" res="-9.9000000000000000e+01" rms="0.0000000000000000e+00" purity="4.9456101655960083e-01" nType="0">
        <Node pos="l" depth="1" NCoef="0" IVar="-1" Cut="6.2676644325256348e-01" cType="0" res="-9.9000000000000000e+01" rms="0.0000000000000000e+00" purity="6.1597806215286255e-01" nType="1"/>
        <Node pos="r" depth="1" NCoef="0" IVar="-1" Cut="3.2857018709182739e-01" cType="0" res="-9.9000000000000000e+01" rms="0.0000000000000000e+00" purity="4.0304958820343018e-01" nType="-1"/>
      </Node>
    </BinaryTree>
    <BinaryTree type="DecisionTree" boostWeight="9.5370787923937050e-02" itree="21">
      <Node pos="s" depth="0" NCoef="0" IVar="28" Cut="5.5221736431121826e-01" cType="0" res="-9.9000000000000000e+01" rms="0.0000000000000000e+00" purity="4.9753481149673462e-01" nType="0">
        <Node pos="l" depth="1" NCoef="0" IVar="-1" Cut="8.5041362047195435e-01" cType="0" res="-9.9000000000000000e+01" rms="0.0000000000000000e+00" purity="6.1235183477401733e-01" nType="1"/>
        <Node pos="r" depth="1" NCoef="0" IVar="27" Cut="7.9450178146362305e-01" cType="0" res="-9.9000000000000000e+01" rms="0.0000000000000000e+00" purity="4.0256574749946594e-01" nType="0">
          <Node pos="l" depth="2" NCoef="0" IVar="-1" Cut="0.0000000000000000e+00" cType="1" res="-9.9000000000000000e+01" rms="0.0000000000000000e+00" purity="5.2901661396026611e-01" nType="1"/>
          <Node pos="r" depth="2" NCoef="0" IVar="-1" Cut="0.0000000000000000e+00" cType="1" res="-9.9000000000000000e+01" rms="0.0000000000000000e+00" purity="3.1701272726058960e-01" nType="-1"/>
        </Node>
      </Node>
    </BinaryTree>
    <BinaryTree type="DecisionTree" boostWeight="1.0435508813362869e-01" itree="22">
      <Node pos="s" depth="0" NCoef="0" IVar="26" Cut="1.9810934364795685e-01" cType="0" res="-9.9000000000000000e+01" rms="0.0000000000000000e+00" purity="4.8914390802383423e-01" nType="0">
        <Node pos="l" depth="1" NCoef="0" IVar="25" Cut="3.0993294715881348e-01" cType="0" res="-9.9000000000000000e+01" rms="0.0000000000000000e+00" purity="5.5898988246917725e-01" nType="0">
          <Node pos="l" depth="2" NCoef="0" IVar="-1" Cut="0.0000000000000000e+00" cType="1" res="-9.9000000000000000e+01" rms="0.0000000000000000e+00" purity="6.2898135185241699e-01" nType="1"/>
          <Node pos="r" depth="2" NCoef="0" IVar="-1" Cut="0.0000000000000000e+00" cType="1" res="-9.9000000000000000e+01" rms="0.0000000000000000e+00" purity="4.2019340395927429e-01" nType="-1"/>
        </Node>
        <Node pos="r" depth="1" NCoef="0" IVar="-1" Cut="8.3177632093429565e-01" cType="0" res="-9.9000000000000000e+01" rms="0.0000000000000000e+00" purity="3.4033909440040588e-01" nType="-1"/>
      </Node>
    </BinaryTree>
    <BinaryTree type="DecisionTree" boostWeight="1.0194168521512344e-01" itree="23">
      <Node pos="s" depth="0" NCoef="0" IVar="29" Cut="1.9810934364795685e-01" cType="0" res="-9.9000000000000000e+01" rms="0.0000000000000000e+00" purity="4.9151155352592468e-01" nType="0">
        <Node pos="l" depth="1" NCoef="0" IVar="25" Cut="1.4219754934310913e-01" cType="0" res="-9.9000000000000000e+01" rms="0.0000000000000000e+00" purity="5.4916101694107056e-01" nType="0">
          <Node pos="l" depth="2" NCoef="0" IVar="-1" Cut="0.0000000000000000e+00" cType="1" res="-9.9000000000000000e+01" rms="0.0000000000000000e+00" purity="6.0097533464431763e-01" nType="1"/>
          <Node pos="r" depth="2" NCoef="0" IVar="-1" Cut="0.0000000000000000e+00" cType="1" res="-9.9000000000000000e+01" rms="0.0000000000000000e+00" purity="3.7265965342521667e-01" nType="-1"/>
        </Node>
        <Node pos="r" depth="1" NCoef="0" IVar="-1" Cut="0.0000000000000000e+00" cType="1" res="-9.9000000000000000e+01" rms="0.0000000000000000e+00" purity="3.2342189550399780e-01" nType="-1"/>
      </Node>
    </BinaryTree>
    <BinaryTree type="DecisionTree" boostWeight="6.7832251932903140e-02" itree="24">
      <Node pos="s" depth="0" NCoef="0" IVar="27" Cut="2.3538386821746826e-01" cType="0" res="-9.9000000000000000e+01" rms="0.0000000000000000e+00" purity="4.8750093579292297e-01" nType="0">
        <Node pos="l" depth="1" NCoef="0" IVar="28" Cut="9.6223717927932739e-01" cType="0" res="-9.9000000000000000e+01" rms="0.0000000000000000e+00" purity="5.4666829109191895e-01" nType="0">
          <Node pos="l" depth="2" NCoef="0" IVar="-1" Cut="0.0000000000000000e+00" cType="1" res="-9.9000000000000000e+01" rms="0.0000000000000000e+00" purity="7.2150242328643799e-01" nType="1"/>
          <Node pos="r" depth="2" NCoef="0" IVar="-1" Cut="0.0000000000000000e+00" cType="1" res="-9.9000000000000000e+01" rms="0.0000000000000000e+00" purity="4.9558299779891968e-01" nType="-1"/>
        </Node>
        <Node pos="r" depth="1" NCoef="0" IVar="-1" Cut="0.0000000000000000e+00" cType="1" res="-9.9000000000000000e+01" rms="0.0000000000000000e+00" purity="3.4004780650138855e-01" nType="-1"/>
      </Node>
    </BinaryTree>
    <BinaryTree type="DecisionTree" boostWeight="8.0529457080068825e-02" itree="25">
      <Node pos="s" depth="0" NCoef="0" IVar="27" Cut="2.3538386821746826e-01" cType="0" res="-9.9000000000000000e+01" rms="0.0000000000000000e+00" purity="4.9897575378417969e-01" nType="0">
        <Node pos="l" depth="1" NCoef="0" IVar="29" Cut="8.5041362047195435e-01" cType="0" res="-9.9000000000000000e+01" rms="0.0000000000000000e+00" purity="5.5615735054016113e-01" nType="0">
          <Node pos="l" depth="2" NCoef="0" IVar="-1" Cut="0.0000000000000000e+00" cType="1" res="-9.9000000000000000e+01" rms="0.0000000000000000e+00" purity="6.6179728507995605e-01" nType="1"/>
          <Node pos="r" depth="2" NCoef="0" IVar="-1" Cut="0.0000000000000000e+00" cType="1" res="-9.9000000000000000e+01" rms="0.0000000000000000e+00" purity="4.7814515233039856e-01" nType="-1"/>
        </Node>
        <Node pos="r" depth="1" NCoef="0" IVar="-1" Cut="0.0000000000000000e+00" cType="1" res="-9.9000000000000000e+01" rms="0.0000000000000000e+00" purity="3.5543140769004822e-01" nType="-1"/>
      </Node>
    </BinaryTree>
    <BinaryTree type="DecisionTree" boostWeight="9.6860794151274118e-02" itree="26">
      <Node pos="s" depth="0" NCoef="0" IVar="4" Cut="1.5573160648345947e+00" cType="1" res="-9.9000000000000000e+01" rms="0.0000000000000000e+00" purity="5.0692784786224365e-01" nType="0">
        <Node pos="l" depth="1" NCoef="0" IVar="1" Cut="9.9330764770507812e+01" cType="0" res="-9.9000000000000000e+01" rms="0.0000000000000000e+00" purity="5.8953917026519775e-01" nType="0">
          <Node pos="l" depth="2" NCoef="0" IVar="-1" Cut="0.0000000000000000e+00" cType="1" res="-9.9000000000000000e+01" rms="0.0000000000000000e+00" purity="6.6088593006134033e-01" nType="1"/>
          <Node pos="r" depth="2" NCoef="0" IVar="-1" Cut="0.0000000000000000e+00" cType="1" res="-9.9000000000000000e+01" rms="0.0000000000000000e+00" purity="4.5285189151763916e-01" nType="-1"/>
        </Node>
        <Node pos="r" depth="1" NCoef="0" IVar="30" Cut="7.0131546258926392e-01" cType="0" res="-9.9000000000000000e+01" rms="0.0000000000000000e+00" purity="4.1109710931777954e-01" nType="0">
          <Node pos="l" depth="2" NCoef="0" IVar="-1" Cut="0.0000000000000000e+00" cType="1" res="-9.9000000000000000e+01" rms="0.0000000000000000e+00" purity="5.3559672832489014e-01" nType="1"/>
          <Node pos="r" depth="2" NCoef="0" IVar="-1" Cut="0.0000000000000000e+00" cType="1" res="-9.9000000000000000e+01" rms="0.0000000000000000e+00" purity="3.3839324116706848e-01" nType="-1"/>
        </Node>
      </Node>
    </BinaryTree>
    <BinaryTree type="DecisionTree" boostWeight="7.9113786075209747e-02" itree="27">
      <Node pos="s" depth="0" NCoef="0" IVar="26" Cut="6.2676644325256348e-01" cType="0" res="-9.9000000000000000e+01" rms="0.0000000000000000e+00" purity="5.0585603713989258e-01" nType="0">
        <Node pos="l" depth="1" NCoef="0" IVar="1" Cut="1.4533639526367188e+02" cType="1" res="-9.9000000000000000e+01" rms="0.0000000000000000e+00" purity="6.0482400655746460e-01" nType="0">
          <Node pos="l" depth="2" NCoef="0" IVar="-1" Cut="0.0000000000000000e+00" cType="1" res="-9.9000000000000000e+01" rms="0.0000000000000000e+00" purity="6.7674148082733154e-01" nType="1"/>
          <Node pos="r" depth="2" NCoef="0" IVar="-1" Cut="0.0000000000000000e+00" cType="1" res="-9.9000000000000000e+01" rms="0.0000000000000000e+00" purity="4.8234155774116516e-01" nType="-1"/>
        </Node>
        <Node pos="r" depth="1" NCoef="0" IVar="28" Cut="3.4720745682716370e-01" cType="0" res="-9.9000000000000000e+01" rms="0.0000000000000000e+00" purity="4.2940375208854675e-01" nType="0">
          <Node pos="l" depth="2" NCoef="0" IVar="-1" Cut="0.0000000000000000e+00" cType="1" res="-9.9000000000000000e+01" rms="0.0000000000000000e+00" purity="5.1087749004364014e-01" nType="1"/>
          <Node pos="r" depth="2" NCoef="0" IVar="-1" Cut="0.0000000000000000e+00" cType="1" res="-9.9000000000000000e+01" rms="0.0000000000000000e+00" purity="3.4019637107849121e-01" nType="-1"/>
        </Node>
      </Node>
    </BinaryTree>
    <BinaryTree type="DecisionTree" boostWeight="7.9881160547576199e-02" itree="28">
      <Node pos="s" depth="0" NCoef="0" IVar="26" Cut="6.2676644325256348e-01" cType="0" res="-9.9000000000000000e+01" rms="0.0000000000000000e+00" purity="5.0313395261764526e-01" nType="0">
        <Node pos="l" depth="1" NCoef="0" IVar="-1" Cut="7.5722730159759521e-01" cType="0" res="-9.9000000000000000e+01" rms="0.0000000000000000e+00" purity="6.0062009096145630e-01" nType="1"/>
        <Node pos="r" depth="1" NCoef="0" IVar="25" Cut="8.5041362047195435e-01" cType="0" res="-9.9000000000000000e+01" rms="0.0000000000000000e+00" purity="4.2804166674613953e-01" nType="0">
          <Node pos="l" depth="2" NCoef="0" IVar="-1" Cut="0.0000000000000000e+00" cType="1" res="-9.9000000000000000e+01" rms="0.0000000000000000e+00" purity="5.3048074245452881e-01" nType="1"/>
          <Node pos="r" depth="2" NCoef="0" IVar="-1" Cut="0.0000000000000000e+00" cType="1" res="-9.9000000000000000e+01" rms="0.0000000000000000e+00" purity="3.5688483715057373e-01" nType="-1"/>
        </Node>
      </Node>
    </BinaryTree>
    <BinaryTree type="DecisionTree" boostWeight="8.1556478780054231e-02" itree="29">
      <Node pos="s" depth="0" NCoef="0" IVar="27" Cut="2.3538386821746826e-01" cType="0" res="-9.9000000000000000e+01" rms="0.0000000000000000e+00" purity="4.9645292758941650e-01" nType="0">
        <Node pos="l" depth="1" NCoef="0" IVar="4" Cut="1.6560220718383789e+00" cType="1" res="-9.9000000000000000e+01" rms="0.0000000000000000e+00" purity="5.4880392551422119e-01" nType="0">
          <Node pos="l" depth="2" NCoef="0" IVar="-1" Cut="0.0000000000000000e+00" cType="1" res="-9.9000000000000000e+01" rms="0.0000000000000000e+00" purity="6.1645787954330444e-01" nType="1"/>
          <Node pos="r" depth="2" NCoef="0" IVar="-1" Cut="0.0000000000000000e+00" cType="1" res="-9.9000000000000000e+01" rms="0.0000000000000000e+00" purity="4.5457527041435242e-01" nType="-1"/>
        </Node>
        <Node pos="r" depth="1" NCoef="0" IVar="-1" Cut="0.0000000000000000e+00" cType="1" res="-9.9000000000000000e+01" rms="0.0000000000000000e+00" purity="3.6477148532867432e-01" nType="-1"/>
      </Node>
    </BinaryTree>
    <BinaryTree type="DecisionTree" boostWeight="9.0165193360396675e-02" itree="30">
      <Node pos="s" depth="0" NCoef="0" IVar="30" Cut="2.5402113795280457e-01" cType="0" res="-9.9000000000000000e+01" rms="0.0000000000000000e+00" purity="4.9985489249229431e-01" nType="0">
        <Node pos="l" depth="1" NCoef="0" IVar="13" Cut="1.1762415170669556e+00" cType="1" res="-9.9000000000000000e+01" rms="0.0000000000000000e+00" purity="5.6601804494857788e-01" nType="0">
          <Node pos="l" depth="2" NCoef="0" IVar="-1" Cut="0.0000000000000000e+00" cType="1" res="-9.9000000000000000e+01" rms="0.0000000000000000e+00" purity="6.3039314746856689e-01" nType="1"/>
          <Node pos="r" depth="2" NCoef="0" IVar="-1" Cut="0.0000000000000000e+00" cType="1" res="-9.9000000000000000e+01" rms="0.0000000000000000e+00" purity="4.3657979369163513e-01" nType="-1"/>
        </Node>
        <Node pos="r" depth="1" NCoef="0" IVar="27" Cut="9.2496263980865479e-01" cType="0" res="-9.9000000000000000e+01" rms="0.0000000000000000e+00" purity="4.0014442801475525e-01" nType="0">
          <Node pos="l" depth="2" NCoef="0" IVar="-1" Cut="0.0000000000000000e+00" cType="1" res="-9.9000000000000000e+01" rms="0.0000000000000000e+00" purity="5.2242952585220337e-01" nType="1"/>
          <Node pos="r" depth="2" NCoef="0" IVar="-1" Cut="0.0000000000000000e+00" cType="1" res="-9.9000000000000000e+01" rms="0.0000000000000000e+00" purity="3.3852705359458923e-01" nType="-1"/>
        </Node>
      </Node>
    </BinaryTree>
    <BinaryTree type="DecisionTree" boostWeight="8.1488217649757666e-02" itree="31">
      <Node pos="s" depth="0" NCoef="0" IVar="29" Cut="4.0311926603317261e-01" cType="0" res="-9.9000000000000000e+01" rms="0.0000000000000000e+00" purity="4.9825587868690491e-01" nType="0">
        <Node pos="l" depth="1" NCoef="0" IVar="15" Cut="1.2252509593963623e+00" cType="1" res="-9.9000000000000000e+01" rms="0.0000000000000000e+00" purity="5.5856364965438843e-01" nType="0">
          <Node pos="l" depth="2" NCoef="0" IVar="-1" Cut="0.0000000000000000e+00" cType="1" res="-9.9000000000000000e+01" rms="0.0000000000000000e+00" purity="6.1647659540176392e-01" nType="1"/>
          <Node pos="r" depth="2" NCoef="0" IVar="-1" Cut="0.0000000000000000e+00" cType="1" res="-9.9000000000000000e+01" rms="0.0000000000000000e+00" purity="4.3451184034347534e-01" nType="-1"/>
        </Node>
        <Node pos="r" depth="1" NCoef="0" IVar="-1" Cut="7.3515141010284424e-01" cType="1" res="-9.9000000000000000e+01" rms="0.0000000000000000e+00" purity="3.9915558695793152e-01" nType="-1"/>
      </Node>
    </BinaryTree>
    <BinaryTree type="DecisionTree" boostWeight="6.8256822532658343e-02" itree="32">
      <Node pos="s" depth="0" NCoef="0" IVar="28" Cut="7.5722730159759521e-01" cType="0" res="-9.9000000000000000e+01" rms="0.0000000000000000e+00" purity="5.0136935710906982e-01" nType="0">
        <Node pos="l" depth="1" NCoef="0" IVar="-1" Cut="8.5041362047195435e-01" cType="0" res="-9.9000000000000000e+01" rms="0.0000000000000000e+00" purity="6.0085678100585938e-01" nType="1"/>
        <Node pos="r" depth="1" NCoef="0" IVar="30" Cut="3.2857018709182739e-01" cType="0" res="-9.9000000000000000e+01" rms="0.0000000000000000e+00" purity="4.4310125708580017e-01" nType="0">
          <Node pos="l" depth="2" NCoef="0" IVar="-1" Cut="0.0000000000000000e+00" cType="1" res="-9.9000000000000000e+01" rms="0.0000000000000000e+00" purity="5.1686203479766846e-01" nType="1"/>
          <Node pos="r" depth="2" NCoef="0" IVar="-1" Cut="0.0000000000000000e+00" cType="1" res="-9.9000000000000000e+01" rms="0.0000000000000000e+00" purity="3.5840982198715210e-01" nType="-1"/>
        </Node>
      </Node>
    </BinaryTree>
    <BinaryTree type="DecisionTree" boostWeight="5.1036256869909480e-02" itree="33">
      <Node pos="s" depth="0" NCoef="0" IVar="34" Cut="9.6118187904357910e-01" cType="0" res="-9.9000000000000000e+01" rms="0.0000000000000000e+00" purity="4.9429398775100708e-01" nType="0">
        <Node pos="l" depth="1" NCoef="0" IVar="-1" Cut="0.0000000000000000e+00" cType="1" res="-9.9000000000000000e+01" rms="0.0000000000000000e+00" purity="7.1493589878082275e-01" nType="1"/>
        <Node pos="r" depth="1" NCoef="0" IVar="7" Cut="2.9296936035156250e+02" cType="1" res="-9.9000000000000000e+01" rms="0.0000000000000000e+00" purity="4.6846559643745422e-01" nType="0">
          <Node pos="l" depth="2" NCoef="0" IVar="-1" Cut="0.0000000000000000e+00" cType="1" res="-9.9000000000000000e+01" rms="0.0000000000000000e+00" purity="5.0887989997863770e-01" nType="1"/>
          <Node pos="r" depth="2" NCoef="0" IVar="-1" Cut="0.0000000000000000e+00" cType="1" res="-9.9000000000000000e+01" rms="0.0000000000000000e+00" purity="3.0815166234970093e-01" nType="-1"/>
        </Node>
      </Node>
    </BinaryTree>
    <BinaryTree type="DecisionTree" boostWeight="7.8988984389540551e-02" itree="34">
      <Node pos="s" depth="0" NCoef="0" IVar="17" Cut="1.3722811937332153e+00" cType="1" res="-9.9000000000000000e+01" rms="0.0000000000000000e+00" purity="4.8609104752540588e-01" nType="0">
        <Node pos="l" depth="1" NCoef="0" IVar="28" Cut="2.3538386821746826e-01" cType="0" res="-9.9000000000000000e+01" rms="0.0000000000000000e+00" purity="5.3384667634963989e-01" nType="0">
          <Node pos="l" depth="2" NCoef="0" IVar="-1" Cut="0.0000000000000000e+00" cType="1" res="-9.9000000000000000e+01" rms="0.0000000000000000e+00" purity="5.9143090248107910e-01" nType="1"/>
          <Node pos="r" depth="2" NCoef="0" IVar="-1" Cut="0.0000000000000000e+00" cType="1" res="-9.9000000000000000e+01" rms="0.0000000000000000e+00" purity="4.2943865060806274e-01" nType="-1"/>
        </Node>
        <Node pos="r" depth="1" NCoef="0" IVar="-1" Cut="7.0131546258926392e-01" cType="0" res="-9.9000000000000000e+01" rms="0.0000000000000000e+00" purity="3.6973056197166443e-01" nType="-1"/>
      </Node>
    </BinaryTree>
    <BinaryTree type="DecisionTree" boostWeight="7.6237151183409763e-02" itree="35">
      <Node pos="s" depth="0" NCoef="0" IVar="34" Cut="9.6118187904357910e-01" cType="0" res="-9.9000000000000000e+01" rms="0.0000000000000000e+00" purity="4.8769465088844299e-01" nType="0">
        <Node pos="l" depth="1" NCoef="0" IVar="-1" Cut="0.0000000000000000e+00" cType="1" res="-9.9000000000000000e+01" rms="0.0000000000000000e+00" purity="7.0349955558776855e-01" nType="1"/>
        <Node pos="r" depth="1" NCoef="0" IVar="26" Cut="8.1313908100128174e-01" cType="0" res="-9.9000000000000000e+01" rms="0.0000000000000000e+00" purity="4.6263515949249268e-01" nType="0">
          <Node pos="l" depth="2" NCoef="0" IVar="-1" Cut="0.0000000000000000e+00" cType="1" res="-9.9000000000000000e+01" rms="0.0000000000000000e+00" purity="5.6604194641113281e-01" nType="1"/>
          <Node pos="r" depth="2" NCoef="0" IVar="-1" Cut="0.0000000000000000e+00" cType="1" res="-9.9000000000000000e+01" rms="0.0000000000000000e+00" purity="4.1080915927886963e-01" nType="-1"/>
        </Node>
      </Node>
    </BinaryTree>
    <BinaryTree type="DecisionTree" boostWeight="7.5942318147913884e-02" itree="36">
      <Node pos="s" depth="0" NCoef="0" IVar="3" Cut="9.0698806762695312e+01" cType="0" res="-9.9000000000000000e+01" rms="0.0000000000000000e+00" purity="4.9132183194160461e-01" nType="0">
        <Node pos="l" depth="1" NCoef="0" IVar="25" Cut="7.5722730159759521e-01" cType="0" res="-9.9000000000000000e+01" rms="0.0000000000000000e+00" purity="5.2805018424987793e-01" nType="0">
          <Node pos="l" depth="2" NCoef="0" IVar="-1" Cut="0.0000000000000000e+00" cType="1" res="-9.9000000000000000e+01" rms="0.0000000000000000e+00" purity="6.2286257743835449e-01" nType="1"/>
          <Node pos="r" depth="2" NCoef="0" IVar="-1" Cut="0.0000000000000000e+00" cType="1" res="-9.9000000000000000e+01" rms="0.0000000000000000e+00" purity="4.5182618498802185e-01" nType="-1"/>
        </Node>
        <Node pos="r" depth="1" NCoef="0" IVar="-1" Cut="0.0000000000000000e+00" cType="1" res="-9.9000000000000000e+01" rms="0.0000000000000000e+00" purity="3.6310407519340515e-01" nType="-1"/>
      </Node>
    </BinaryTree>
    <BinaryTree type="DecisionTree" boostWeight="5.3952912894520304e-02" itree="37">
      <Node pos="s" depth="0" NCoef="0" IVar="29" Cut="8.5041362047195435e-01" cType="0" res="-9.9000000000000000e+01" rms="0.0000000000000000e+00" purity="4.9713000655174255e-01" nType="0">
        <Node pos="l" depth="1" NCoef="0" IVar="-1" Cut="8.6905086040496826e-01" cType="0" res="-9.9000000000000000e+01" rms="0.0000000000000000e+00" purity="5.7736337184906006e-01" nType="1"/>
        <Node pos="r" depth="1" NCoef="0" IVar="-1" Cut="1.1762415170669556e+00" cType="1" res="-9.9000000000000000e+01" rms="0.0000000000000000e+00" purity="4.4028273224830627e-01" nType="-1"/>
      </Node>
    </BinaryTree>
    <BinaryTree type="DecisionTree" boostWeight="5.7249517154288623e-02" itree="38">
      <Node pos="s" depth="0" NCoef="0" IVar="30" Cut="7.3859000205993652e-01" cType="0" res="-9.9000000000000000e+01" rms="0.0000000000000000e+00" purity="4.9942848086357117e-01" nType="0">
        <Node pos="l" depth="1" NCoef="0" IVar="8" Cut="4.0936885833740234e+01" cType="0" res="-9.9000000000000000e+01" rms="0.0000000000000000e+00" purity="5.9054386615753174e-01" nType="0">
          <Node pos="l" depth="2" NCoef="0" IVar="-1" Cut="0.0000000000000000e+00" cType="1" res="-9.9000000000000000e+01" rms="0.0000000000000000e+00" purity="6.7392969131469727e-01" nType="1"/>
          <Node pos="r" depth="2" NCoef="0" IVar="-1" Cut="0.0000000000000000e+00" cType="1" res="-9.9000000000000000e+01" rms="0.0000000000000000e+00" purity="4.8574554920196533e-01" nType="-1"/>
        </Node>
        <Node pos="r" depth="1" NCoef="0" IVar="27" Cut="2.5402113795280457e-01" cType="0" res="-9.9000000000000000e+01" rms="0.0000000000000000e+00" purity="4.4928270578384399e-01" nType="0">
          <Node pos="l" depth="2" NCoef="0" IVar="-1" Cut="0.0000000000000000e+00" cType="1" res="-9.9000000000000000e+01" rms="0.0000000000000000e+00" purity="5.0193697214126587e-01" nType="1"/>
          <Node pos="r" depth="2" NCoef="0" IVar="-1" Cut="0.0000000000000000e+00" cType="1" res="-9.9000000000000000e+01" rms="0.0000000000000000e+00" purity="3.2906737923622131e-01" nType="-1"/>
        </Node>
      </Node>
    </BinaryTree>
    <BinaryTree type="DecisionTree" boostWeight="5.5689133216120346e-02" itree="39">
      <Node pos="s" depth="0" NCoef="0" IVar="30" Cut="7.3859000205993652e-01" cType="0" res="-9.9000000000000000e+01" rms="0.0000000000000000e+00" purity="4.9522417783737183e-01" nType="0">
        <Node pos="l" depth="1" NCoef="0" IVar="-1" Cut="4.0936885833740234e+01" cType="0" res="-9.9000000000000000e+01" rms="0.0000000000000000e+00" purity="5.8944392204284668e-01" nType="1"/>
        <Node pos="r" depth="1" NCoef="0" IVar="5" Cut="2.1600055694580078e+00" cType="1" res="-9.9000000000000000e+01" rms="0.0000000000000000e+00" purity="4.4351798295974731e-01" nType="0">
          <Node pos="l" depth="2" NCoef="0" IVar="-1" Cut="0.0000000000000000e+00" cType="1" res="-9.9000000000000000e+01" rms="0.0000000000000000e+00" purity="5.0123488903045654e-01" nType="1"/>
          <Node pos="r" depth="2" NCoef="0" IVar="-1" Cut="0.0000000000000000e+00" cType="1" res="-9.9000000000000000e+01" rms="0.0000000000000000e+00" purity="3.4551101922988892e-01" nType="-1"/>
        </Node>
      </Node>
    </BinaryTree>
    <BinaryTree type="DecisionTree" boostWeight="6.7549209188845841e-02" itree="40">
      <Node pos="s" depth="0" NCoef="0" IVar="58" Cut="2.5529411315917969e+01" cType="1" res="-9.9000000000000000e+01" rms="0.0000000000000000e+00" purity="4.8792067170143127e-01" nType="0">
        <Node pos="l" depth="1" NCoef="0" IVar="15" Cut="1.2252509593963623e+00" cType="1" res="-9.9000000000000000e+01" rms="0.0000000000000000e+00" purity="5.1778393983840942e-01" nType="0">
          <Node pos="l" depth="2" NCoef="0" IVar="-1" Cut="0.0000000000000000e+00" cType="1" res="-9.9000000000000000e+01" rms="0.0000000000000000e+00" purity="5.6374579668045044e-01" nType="1"/>
          <Node pos="r" depth="2" NCoef="0" IVar="-1" Cut="0.0000000000000000e+00" cType="1" res="-9.9000000000000000e+01" rms="0.0000000000000000e+00" purity="4.2256754636764526e-01" nType="-1"/>
        </Node>
        <Node pos="r" depth="1" NCoef="0" IVar="-1" Cut="0.0000000000000000e+00" cType="1" res="-9.9000000000000000e+01" rms="0.0000000000000000e+00" purity="3.3973544836044312e-01" nType="-1"/>
      </Node>
    </BinaryTree>
    <BinaryTree type="DecisionTree" boostWeight="5.7294473294415282e-02" itree="41">
      <Node pos="s" depth="0" NCoef="0" IVar="30" Cut="7.3859000205993652e-01" cType="0" res="-9.9000000000000000e+01" rms="0.0000000000000000e+00" purity="4.8577001690864563e-01" nType="0">
        <Node pos="l" depth="1" NCoef="0" IVar="8" Cut="4.0936885833740234e+01" cType="0" res="-9.9000000000000000e+01" rms="0.0000000000000000e+00" purity="5.7246738672256470e-01" nType="0">
          <Node pos="l" depth="2" NCoef="0" IVar="-1" Cut="0.0000000000000000e+00" cType="1" res="-9.9000000000000000e+01" rms="0.0000000000000000e+00" purity="6.4560049772262573e-01" nType="1"/>
          <Node pos="r" depth="2" NCoef="0" IVar="-1" Cut="0.0000000000000000e+00" cType="1" res="-9.9000000000000000e+01" rms="0.0000000000000000e+00" purity="4.8249045014381409e-01" nType="-1"/>
        </Node>
        <Node pos="r" depth="1" NCoef="0" IVar="-1" Cut="1.7947208881378174e-01" cType="0" res="-9.9000000000000000e+01" rms="0.0000000000000000e+00" purity="4.3821296095848083e-01" nType="-1"/>
      </Node>
    </BinaryTree>
    <BinaryTree type="DecisionTree" boostWeight="7.2400808119088153e-02" itree="42">
      <Node pos="s" depth="0" NCoef="0" IVar="1" Cut="1.7250848388671875e+02" cType="1" res="-9.9000000000000000e+01" rms="0.0000000000000000e+00" purity="4.9447092413902283e-01" nType="0">
        <Node pos="l" depth="1" NCoef="0" IVar="11" Cut="5.3109069824218750e+01" cType="0" res="-9.9000000000000000e+01" rms="0.0000000000000000e+00" purity="5.3429692983627319e-01" nType="0">
          <Node pos="l" depth="2" NCoef="0" IVar="-1" Cut="0.0000000000000000e+00" cType="1" res="-9.9000000000000000e+01" rms="0.0000000000000000e+00" purity="5.7068938016891479e-01" nType="1"/>
          <Node pos="r" depth="2" NCoef="0" IVar="-1" Cut="0.0000000000000000e+00" cType="1" res="-9.9000000000000000e+01" rms="0.0000000000000000e+00" purity="3.5480064153671265e-01" nType="-1"/>
        </Node>
        <Node pos="r" depth="1" NCoef="0" IVar="-1" Cut="0.0000000000000000e+00" cType="1" res="-9.9000000000000000e+01" rms="0.0000000000000000e+00" purity="3.9476197957992554e-01" nType="-1"/>
      </Node>
    </BinaryTree>
    <BinaryTree type="DecisionTree" boostWeight="5.1461961703714365e-02" itree="43">
      <Node pos="s" depth="0" NCoef="0" IVar="34" Cut="9.6118187904357910e-01" cType="0" res="-9.9000000000000000e+01" rms="0.0000000000000000e+00" purity="4.9100685119628906e-01" nType="0">
        <Node pos="l" depth="1" NCoef="0" IVar="-1" Cut="0.0000000000000000e+00" cType="1" res="-9.9000000000000000e+01" rms="0.0000000000000000e+00" purity="6.7926192283630371e-01" nType="1"/>
        <Node pos="r" depth="1" NCoef="0" IVar="7" Cut="2.4238174438476562e+02" cType="1" res="-9.9000000000000000e+01" rms="0.0000000000000000e+00" purity="4.6933564543724060e-01" nType="0">
          <Node pos="l" depth="2" NCoef="0" IVar="-1" Cut="0.0000000000000000e+00" cType="1" res="-9.9000000000000000e+01" rms="0.0000000000000000e+00" purity="5.1412522792816162e-01" nType="1"/>
          <Node pos="r" depth="2" NCoef="0" IVar="-1" Cut="0.0000000000000000e+00" cType="1" res="-9.9000000000000000e+01" rms="0.0000000000000000e+00" purity="3.6002928018569946e-01" nType="-1"/>
        </Node>
      </Node>
    </BinaryTree>
    <BinaryTree type="DecisionTree" boostWeight="5.4770160408706463e-02" itree="44">
      <Node pos="s" depth="0" NCoef="0" IVar="26" Cut="1.9810934364795685e-01" cType="0" res="-9.9000000000000000e+01" rms="0.0000000000000000e+00" purity="4.8479959368705750e-01" nType="0">
        <Node pos="l" depth="1" NCoef="0" IVar="28" Cut="8.6905086040496826e-01" cType="0" res="-9.9000000000000000e+01" rms="0.0000000000000000e+00" purity="5.2679604291915894e-01" nType="0">
          <Node pos="l" depth="2" NCoef="0" IVar="-1" Cut="0.0000000000000000e+00" cType="1" res="-9.9000000000000000e+01" rms="0.0000000000000000e+00" purity="6.2302082777023315e-01" nType="1"/>
          <Node pos="r" depth="2" NCoef="0" IVar="-1" Cut="0.0000000000000000e+00" cType="1" res="-9.9000000000000000e+01" rms="0.0000000000000000e+00" purity="4.8306950926780701e-01" nType="-1"/>
        </Node>
        <Node pos="r" depth="1" NCoef="0" IVar="-1" Cut="8.3177632093429565e-01" cType="0" res="-9.9000000000000000e+01" rms="0.0000000000000000e+00" purity="3.9247968792915344e-01" nType="-1"/>
      </Node>
    </BinaryTree>
    <BinaryTree type="DecisionTree" boostWeight="6.8645593234654745e-02" itree="45">
      <Node pos="s" depth="0" NCoef="0" IVar="3" Cut="9.0698806762695312e+01" cType="0" res="-9.9000000000000000e+01" rms="0.0000000000000000e+00" purity="4.9258157610893250e-01" nType="0">
        <Node pos="l" depth="1" NCoef="0" IVar="25" Cut="2.1674661338329315e-01" cType="0" res="-9.9000000000000000e+01" rms="0.0000000000000000e+00" purity="5.2534419298171997e-01" nType="0">
          <Node pos="l" depth="2" NCoef="0" IVar="-1" Cut="0.0000000000000000e+00" cType="1" res="-9.9000000000000000e+01" rms="0.0000000000000000e+00" purity="5.7186931371688843e-01" nType="1"/>
          <Node pos="r" depth="2" NCoef="0" IVar="-1" Cut="0.0000000000000000e+00" cType="1" res="-9.9000000000000000e+01" rms="0.0000000000000000e+00" purity="4.2039886116981506e-01" nType="-1"/>
        </Node>
        <Node pos="r" depth="1" NCoef="0" IVar="-1" Cut="0.0000000000000000e+00" cType="1" res="-9.9000000000000000e+01" rms="0.0000000000000000e+00" purity="3.7725439667701721e-01" nType="-1"/>
      </Node>
    </BinaryTree>
    <BinaryTree type="DecisionTree" boostWeight="3.5098529520053809e-02" itree="46">
      <Node pos="s" depth="0" NCoef="0" IVar="34" Cut="9.6118187904357910e-01" cType="0" res="-9.9000000000000000e+01" rms="0.0000000000000000e+00" purity="4.9117273092269897e-01" nType="0">
        <Node pos="l" depth="1" NCoef="0" IVar="-1" Cut="0.0000000000000000e+00" cType="1" res="-9.9000000000000000e+01" rms="0.0000000000000000e+00" purity="6.6960012912750244e-01" nType="1"/>
        <Node pos="r" depth="1" NCoef="0" IVar="-1" Cut="2.5529411315917969e+01" cType="1" res="-9.9000000000000000e+01" rms="0.0000000000000000e+00" purity="4.7068703174591064e-01" nType="-1"/>
      </Node>
    </BinaryTree>
    <BinaryTree type="DecisionTree" boostWeight="6.1650933909718354e-02" itree="47">
      <Node pos="s" depth="0" NCoef="0" IVar="29" Cut="1.6083481907844543e-01" cType="0" res="-9.9000000000000000e+01" rms="0.0000000000000000e+00" purity="4.9813640117645264e-01" nType="0">
        <Node pos="l" depth="1" NCoef="0" IVar="10" Cut="4.1231006622314453e+01" cType="0" res="-9.9000000000000000e+01" rms="0.0000000000000000e+00" purity="5.2916669845581055e-01" nType="0">
          <Node pos="l" depth="2" NCoef="0" IVar="-1" Cut="0.0000000000000000e+00" cType="1" res="-9.9000000000000000e+01" rms="0.0000000000000000e+00" purity="5.8737266063690186e-01" nType="1"/>
          <Node pos="r" depth="2" NCoef="0" IVar="-1" Cut="0.0000000000000000e+00" cType="1" res="-9.9000000000000000e+01" rms="0.0000000000000000e+00" purity="4.5999017357826233e-01" nType="-1"/>
        </Node>
        <Node pos="r" depth="1" NCoef="0" IVar="-1" Cut="0.0000000000000000e+00" cType="1" res="-9.9000000000000000e+01" rms="0.0000000000000000e+00" purity="3.8412103056907654e-01" nType="-1"/>
      </Node>
    </BinaryTree>
    <BinaryTree type="DecisionTree" boostWeight="4.3618949775317870e-02" itree="48">
      <Node pos="s" depth="0" NCoef="0" IVar="26" Cut="1.9810934364795685e-01" cType="0" res="-9.9000000000000000e+01" rms="0.0000000000000000e+00" purity="5.0039142370223999e-01" nType="0">
        <Node pos="l" depth="1" NCoef="0" IVar="-1" Cut="8.5041362047195435e-01" cType="0" res="-9.9000000000000000e+01" rms="0.0000000000000000e+00" purity="5.3969198465347290e-01" nType="1"/>
        <Node pos="r" depth="1" NCoef="0" IVar="-1" Cut="8.3177632093429565e-01" cType="0" res="-9.9000000000000000e+01" rms="0.0000000000000000e+00" purity="4.1330063343048096e-01" nType="-1"/>
      </Node>
    </BinaryTree>
    <BinaryTree type="DecisionTree" boostWeight="6.2513639795009665e-02" itree="49">
      <Node pos="s" depth="0" NCoef="0" IVar="30" Cut="1.0492302477359772e-01" cType="0" res="-9.9000000000000000e+01" rms="0.0000000000000000e+00" purity="4.9626001715660095e-01" nType="0">
        <Node pos="l" depth="1" NCoef="0" IVar="27" Cut="1.6083481907844543e-01" cType="0" res="-9.9000000000000000e+01" rms="0.0000000000000000e+00" purity="5.2570366859436035e-01" nType="0">
          <Node pos="l" depth="2" NCoef="0" IVar="-1" Cut="0.0000000000000000e+00" cType="1" res="-9.9000000000000000e+01" rms="0.0000000000000000e+00" purity="5.5900663137435913e-01" nType="1"/>
          <Node pos="r" depth="2" NCoef="0" IVar="-1" Cut="0.0000000000000000e+00" cType="1" res="-9.9000000000000000e+01" rms="0.0000000000000000e+00" purity="4.0409600734710693e-01" nType="-1"/>
        </Node>
        <Node pos="r" depth="1" NCoef="0" IVar="-1" Cut="0.0000000000000000e+00" cType="1" res="-9.9000000000000000e+01" rms="0.0000000000000000e+00" purity="3.8115373253822327e-01" nType="-1"/>
      </Node>
    </BinaryTree>
    <BinaryTree type="DecisionTree" boostWeight="5.8210374306399193e-02" itree="50">
      <Node pos="s" depth="0" NCoef="0" IVar="17" Cut="1.6173312664031982e+00" cType="1" res="-9.9000000000000000e+01" rms="0.0000000000000000e+00" purity="4.9231329560279846e-01" nType="0">
        <Node pos="l" depth="1" NCoef="0" IVar="58" Cut="2.5529411315917969e+01" cType="1" res="-9.9000000000000000e+01" rms="0.0000000000000000e+00" purity="5.2106100320816040e-01" nType="0">
          <Node pos="l" depth="2" NCoef="0" IVar="-1" Cut="0.0000000000000000e+00" cType="1" res="-9.9000000000000000e+01" rms="0.0000000000000000e+00" purity="5.4839235544204712e-01" nType="1"/>
          <Node pos="r" depth="2" NCoef="0" IVar="-1" Cut="0.0000000000000000e+00" cType="1" res="-9.9000000000000000e+01" rms="0.0000000000000000e+00" purity="3.8489368557929993e-01" nType="-1"/>
        </Node>
        <Node pos="r" depth="1" NCoef="0" IVar="-1" Cut="0.0000000000000000e+00" cType="1" res="-9.9000000000000000e+01" rms="0.0000000000000000e+00" purity="3.7658348679542542e-01" nType="-1"/>
      </Node>
    </BinaryTree>
    <BinaryTree type="DecisionTree" boostWeight="6.1425859017770493e-02" itree="51">
      <Node pos="s" depth="0" NCoef="0" IVar="15" Cut="1.7153512239456177e+00" cType="1" res="-9.9000000000000000e+01" rms="0.0000000000000000e+00" purity="4.8739764094352722e-01" nType="0">
        <Node pos="l" depth="1" NCoef="0" IVar="13" Cut="9.3119144439697266e-01" cType="1" res="-9.9000000000000000e+01" rms="0.0000000000000000e+00" purity="5.1017946004867554e-01" nType="0">
          <Node pos="l" depth="2" NCoef="0" IVar="-1" Cut="0.0000000000000000e+00" cType="1" res="-9.9000000000000000e+01" rms="0.0000000000000000e+00" purity="5.6696891784667969e-01" nType="1"/>
          <Node pos="r" depth="2" NCoef="0" IVar="-1" Cut="0.0000000000000000e+00" cType="1" res="-9.9000000000000000e+01" rms="0.0000000000000000e+00" purity="4.3824824690818787e-01" nType="-1"/>
        </Node>
        <Node pos="r" depth="1" NCoef="0" IVar="-1" Cut="0.0000000000000000e+00" cType="1" res="-9.9000000000000000e+01" rms="0.0000000000000000e+00" purity="3.5880792140960693e-01" nType="-1"/>
      </Node>
    </BinaryTree>
    <BinaryTree type="DecisionTree" boostWeight="5.5561149367320567e-02" itree="52">
      <Node pos="s" depth="0" NCoef="0" IVar="28" Cut="1.0492302477359772e-01" cType="0" res="-9.9000000000000000e+01" rms="0.0000000000000000e+00" purity="4.8811843991279602e-01" nType="0">
        <Node pos="l" depth="1" NCoef="0" IVar="30" Cut="8.5041362047195435e-01" cType="0" res="-9.9000000000000000e+01" rms="0.0000000000000000e+00" purity="5.1397556066513062e-01" nType="0">
          <Node pos="l" depth="2" NCoef="0" IVar="-1" Cut="0.0000000000000000e+00" cType="1" res="-9.9000000000000000e+01" rms="0.0000000000000000e+00" purity="6.2266999483108521e-01" nType="1"/>
          <Node pos="r" depth="2" NCoef="0" IVar="-1" Cut="0.0000000000000000e+00" cType="1" res="-9.9000000000000000e+01" rms="0.0000000000000000e+00" purity="4.7005385160446167e-01" nType="-1"/>
        </Node>
        <Node pos="r" depth="1" NCoef="0" IVar="-1" Cut="0.0000000000000000e+00" cType="1" res="-9.9000000000000000e+01" rms="0.0000000000000000e+00" purity="3.7854129076004028e-01" nType="-1"/>
      </Node>
    </BinaryTree>
    <BinaryTree type="DecisionTree" boostWeight="3.8984557535490669e-02" itree="53">
      <Node pos="s" depth="0" NCoef="0" IVar="34" Cut="9.6118187904357910e-01" cType="0" res="-9.9000000000000000e+01" rms="0.0000000000000000e+00" purity="4.9552103877067566e-01" nType="0">
        <Node pos="l" depth="1" NCoef="0" IVar="-1" Cut="0.0000000000000000e+00" cType="1" res="-9.9000000000000000e+01" rms="0.0000000000000000e+00" purity="6.4988553524017334e-01" nType="1"/>
        <Node pos="r" depth="1" NCoef="0" IVar="7" Cut="2.9296936035156250e+02" cType="1" res="-9.9000000000000000e+01" rms="0.0000000000000000e+00" purity="4.7794207930564880e-01" nType="0">
          <Node pos="l" depth="2" NCoef="0" IVar="-1" Cut="0.0000000000000000e+00" cType="1" res="-9.9000000000000000e+01" rms="0.0000000000000000e+00" purity="5.0938582420349121e-01" nType="1"/>
          <Node pos="r" depth="2" NCoef="0" IVar="-1" Cut="0.0000000000000000e+00" cType="1" res="-9.9000000000000000e+01" rms="0.0000000000000000e+00" purity="3.5362741351127625e-01" nType="-1"/>
        </Node>
      </Node>
    </BinaryTree>
    <BinaryTree type="DecisionTree" boostWeight="3.9877652262708438e-02" itree="54">
      <Node pos="s" depth="0" NCoef="0" IVar="34" Cut="9.6118187904357910e-01" cType="0" res="-9.9000000000000000e+01" rms="0.0000000000000000e+00" purity="4.8928812146186829e-01" nType="0">
        <Node pos="l" depth="1" NCoef="0" IVar="-1" Cut="0.0000000000000000e+00" cType="1" res="-9.9000000000000000e+01" rms="0.0000000000000000e+00" purity="6.4096421003341675e-01" nType="1"/>
        <Node pos="r" depth="1" NCoef="0" IVar="7" Cut="2.4238174438476562e+02" cType="1" res="-9.9000000000000000e+01" rms="0.0000000000000000e+00" purity="4.7209137678146362e-01" nType="0">
          <Node pos="l" depth="2" NCoef="0" IVar="-1" Cut="0.0000000000000000e+00" cType="1" res="-9.9000000000000000e+01" rms="0.0000000000000000e+00" purity="5.0805050134658813e-01" nType="1"/>
          <Node pos="r" depth="2" NCoef="0" IVar="-1" Cut="0.0000000000000000e+00" cType="1" res="-9.9000000000000000e+01" rms="0.0000000000000000e+00" purity="3.8423880934715271e-01" nType="-1"/>
        </Node>
      </Node>
    </BinaryTree>
    <BinaryTree type="DecisionTree" boostWeight="3.7908809104326369e-02" itree="55">
      <Node pos="s" depth="0" NCoef="0" IVar="31" Cut="1.1723529052734375e+02" cType="0" res="-9.9000000000000000e+01" rms="0.0000000000000000e+00" purity="4.8448979854583740e-01" nType="0">
        <Node pos="l" depth="1" NCoef="0" IVar="-1" Cut="0.0000000000000000e+00" cType="1" res="-9.9000000000000000e+01" rms="0.0000000000000000e+00" purity="6.1708146333694458e-01" nType="1"/>
        <Node pos="r" depth="1" NCoef="0" IVar="54" Cut="2.8588235855102539e+01" cType="1" res="-9.9000000000000000e+01" rms="0.0000000000000000e+00" purity="4.6483251452445984e-01" nType="0">
          <Node pos="l" depth="2" NCoef="0" IVar="-1" Cut="0.0000000000000000e+00" cType="1" res="-9.9000000000000000e+01" rms="0.0000000000000000e+00" purity="5.0121980905532837e-01" nType="1"/>
          <Node pos="r" depth="2" NCoef="0" IVar="-1" Cut="0.0000000000000000e+00" cType="1" res="-9.9000000000000000e+01" rms="0.0000000000000000e+00" purity="3.7723380327224731e-01" nType="-1"/>
        </Node>
      </Node>
    </BinaryTree>
    <BinaryTree type="DecisionTree" boostWeight="5.8363414063353082e-02" itree="56">
      <Node pos="s" depth="0" NCoef="0" IVar="28" Cut="1.0492302477359772e-01" cType="0" res="-9.9000000000000000e+01" rms="0.0000000000000000e+00" purity="4.7982150316238403e-01" nType="0">
        <Node pos="l" depth="1" NCoef="0" IVar="29" Cut="7.5722730159759521e-01" cType="0" res="-9.9000000000000000e+01" rms="0.0000000000000000e+00" purity="5.0463724136352539e-01" nType="0">
          <Node pos="l" depth="2" NCoef="0" IVar="-1" Cut="0.0000000000000000e+00" cType="1" res="-9.9000000000000000e+01" rms="0.0000000000000000e+00" purity="5.6974709033966064e-01" nType="1"/>
          <Node pos="r" depth="2" NCoef="0" IVar="-1" Cut="0.0000000000000000e+00" cType="1" res="-9.9000000000000000e+01" rms="0.0000000000000000e+00" purity="4.4831904768943787e-01" nType="-1"/>
        </Node>
        <Node pos="r" depth="1" NCoef="0" IVar="-1" Cut="0.0000000000000000e+00" cType="1" res="-9.9000000000000000e+01" rms="0.0000000000000000e+00" purity="3.7552317976951599e-01" nType="-1"/>
      </Node>
    </BinaryTree>
    <BinaryTree type="DecisionTree" boostWeight="6.8209574925500158e-02" itree="57">
      <Node pos="s" depth="0" NCoef="0" IVar="5" Cut="2.1600055694580078e+00" cType="1" res="-9.9000000000000000e+01" rms="0.0000000000000000e+00" purity="4.8340809345245361e-01" nType="0">
        <Node pos="l" depth="1" NCoef="0" IVar="2" Cut="8.0923904418945312e+01" cType="0" res="-9.9000000000000000e+01" rms="0.0000000000000000e+00" purity="5.2072930335998535e-01" nType="0">
          <Node pos="l" depth="2" NCoef="0" IVar="-1" Cut="0.0000000000000000e+00" cType="1" res="-9.9000000000000000e+01" rms="0.0000000000000000e+00" purity="5.6571918725967407e-01" nType="1"/>
          <Node pos="r" depth="2" NCoef="0" IVar="-1" Cut="0.0000000000000000e+00" cType="1" res="-9.9000000000000000e+01" rms="0.0000000000000000e+00" purity="3.3806663751602173e-01" nType="-1"/>
        </Node>
        <Node pos="r" depth="1" NCoef="0" IVar="-1" Cut="1.2252526283264160e+00" cType="1" res="-9.9000000000000000e+01" rms="0.0000000000000000e+00" purity="4.1607540845870972e-01" nType="-1"/>
      </Node>
    </BinaryTree>
    <BinaryTree type="DecisionTree" boostWeight="4.8495312441871094e-02" itree="58">
      <Node pos="s" depth="0" NCoef="0" IVar="25" Cut="8.5041362047195435e-01" cType="0" res="-9.9000000000000000e+01" rms="0.0000000000000000e+00" purity="4.8275527358055115e-01" nType="0">
        <Node pos="l" depth="1" NCoef="0" IVar="29" Cut="8.8768815994262695e-01" cType="0" res="-9.9000000000000000e+01" rms="0.0000000000000000e+00" purity="5.4181420803070068e-01" nType="0">
          <Node pos="l" depth="2" NCoef="0" IVar="-1" Cut="0.0000000000000000e+00" cType="1" res="-9.9000000000000000e+01" rms="0.0000000000000000e+00" purity="6.5122365951538086e-01" nType="1"/>
          <Node pos="r" depth="2" NCoef="0" IVar="-1" Cut="0.0000000000000000e+00" cType="1" res="-9.9000000000000000e+01" rms="0.0000000000000000e+00" purity="4.8359766602516174e-01" nType="-1"/>
        </Node>
        <Node pos="r" depth="1" NCoef="0" IVar="-1" Cut="3.0466299057006836e+01" cType="0" res="-9.9000000000000000e+01" rms="0.0000000000000000e+00" purity="4.4169378280639648e-01" nType="-1"/>
      </Node>
    </BinaryTree>
    <BinaryTree type="DecisionTree" boostWeight="4.7958265168334457e-02" itree="59">
      <Node pos="s" depth="0" NCoef="0" IVar="26" Cut="2.5402113795280457e-01" cType="0" res="-9.9000000000000000e+01" rms="0.0000000000000000e+00" purity="4.9139854311943054e-01" nType="0">
        <Node pos="l" depth="1" NCoef="0" IVar="27" Cut="6.6404098272323608e-01" cType="0" res="-9.9000000000000000e+01" rms="0.0000000000000000e+00" purity="5.2755719423294067e-01" nType="0">
          <Node pos="l" depth="2" NCoef="0" IVar="-1" Cut="0.0000000000000000e+00" cType="1" res="-9.9000000000000000e+01" rms="0.0000000000000000e+00" purity="5.7769823074340820e-01" nType="1"/>
          <Node pos="r" depth="2" NCoef="0" IVar="-1" Cut="0.0000000000000000e+00" cType="1" res="-9.9000000000000000e+01" rms="0.0000000000000000e+00" purity="4.7509884834289551e-01" nType="-1"/>
        </Node>
        <Node pos="r" depth="1" NCoef="0" IVar="-1" Cut="3.8211090087890625e+01" cType="0" res="-9.9000000000000000e+01" rms="0.0000000000000000e+00" purity="4.2637088894844055e-01" nType="-1"/>
      </Node>
    </BinaryTree>
    <BinaryTree type="DecisionTree" boostWeight="5.1475524779317328e-02" itree="60">
      <Node pos="s" depth="0" NCoef="0" IVar="3" Cut="9.0698806762695312e+01" cType="0" res="-9.9000000000000000e+01" rms="0.0000000000000000e+00" purity="4.9549528956413269e-01" nType="0">
        <Node pos="l" depth="1" NCoef="0" IVar="1" Cut="1.4291786193847656e+02" cType="1" res="-9.9000000000000000e+01" rms="0.0000000000000000e+00" purity="5.2069705724716187e-01" nType="0">
          <Node pos="l" depth="2" NCoef="0" IVar="-1" Cut="0.0000000000000000e+00" cType="1" res="-9.9000000000000000e+01" rms="0.0000000000000000e+00" purity="5.7321095466613770e-01" nType="1"/>
          <Node pos="r" depth="2" NCoef="0" IVar="-1" Cut="0.0000000000000000e+00" cType="1" res="-9.9000000000000000e+01" rms="0.0000000000000000e+00" purity="4.6378186345100403e-01" nType="-1"/>
        </Node>
        <Node pos="r" depth="1" NCoef="0" IVar="-1" Cut="0.0000000000000000e+00" cType="1" res="-9.9000000000000000e+01" rms="0.0000000000000000e+00" purity="4.0555581450462341e-01" nType="-1"/>
      </Node>
    </BinaryTree>
    <BinaryTree type="DecisionTree" boostWeight="5.1355195747383155e-02" itree="61">
      <Node pos="s" depth="0" NCoef="0" IVar="12" Cut="4.0916973114013672e+01" cType="0" res="-9.9000000000000000e+01" rms="0.0000000000000000e+00" purity="4.9790024757385254e-01" nType="0">
        <Node pos="l" depth="1" NCoef="0" IVar="10" Cut="4.1231006622314453e+01" cType="0" res="-9.9000000000000000e+01" rms="0.0000000000000000e+00" purity="5.4605126380920410e-01" nType="0">
          <Node pos="l" depth="2" NCoef="0" IVar="-1" Cut="0.0000000000000000e+00" cType="1" res="-9.9000000000000000e+01" rms="0.0000000000000000e+00" purity="6.0048419237136841e-01" nType="1"/>
          <Node pos="r" depth="2" NCoef="0" IVar="-1" Cut="0.0000000000000000e+00" cType="1" res="-9.9000000000000000e+01" rms="0.0000000000000000e+00" purity="4.7652778029441833e-01" nType="-1"/>
        </Node>
        <Node pos="r" depth="1" NCoef="0" IVar="8" Cut="4.2897365570068359e+01" cType="0" res="-9.9000000000000000e+01" rms="0.0000000000000000e+00" purity="4.5165538787841797e-01" nType="0">
          <Node pos="l" depth="2" NCoef="0" IVar="-1" Cut="0.0000000000000000e+00" cType="1" res="-9.9000000000000000e+01" rms="0.0000000000000000e+00" purity="5.1175403594970703e-01" nType="1"/>
          <Node pos="r" depth="2" NCoef="0" IVar="-1" Cut="0.0000000000000000e+00" cType="1" res="-9.9000000000000000e+01" rms="0.0000000000000000e+00" purity="3.7995898723602295e-01" nType="-1"/>
        </Node>
      </Node>
    </BinaryTree>
    <BinaryTree type="DecisionTree" boostWeight="5.2342924321768493e-02" itree="62">
      <Node pos="s" depth="0" NCoef="0" IVar="12" Cut="4.0916973114013672e+01" cType="0" res="-9.9000000000000000e+01" rms="0.0000000000000000e+00" purity="4.9654719233512878e-01" nType="0">
        <Node pos="l" depth="1" NCoef="0" IVar="18" Cut="9.8020285367965698e-01" cType="1" res="-9.9000000000000000e+01" rms="0.0000000000000000e+00" purity="5.4464137554168701e-01" nType="0">
          <Node pos="l" depth="2" NCoef="0" IVar="-1" Cut="0.0000000000000000e+00" cType="1" res="-9.9000000000000000e+01" rms="0.0000000000000000e+00" purity="5.9471744298934937e-01" nType="1"/>
          <Node pos="r" depth="2" NCoef="0" IVar="-1" Cut="0.0000000000000000e+00" cType="1" res="-9.9000000000000000e+01" rms="0.0000000000000000e+00" purity="4.8574766516685486e-01" nType="-1"/>
        </Node>
        <Node pos="r" depth="1" NCoef="0" IVar="25" Cut="8.5041362047195435e-01" cType="0" res="-9.9000000000000000e+01" rms="0.0000000000000000e+00" purity="4.5037004351615906e-01" nType="0">
          <Node pos="l" depth="2" NCoef="0" IVar="-1" Cut="0.0000000000000000e+00" cType="1" res="-9.9000000000000000e+01" rms="0.0000000000000000e+00" purity="5.2657800912857056e-01" nType="1"/>
          <Node pos="r" depth="2" NCoef="0" IVar="-1" Cut="0.0000000000000000e+00" cType="1" res="-9.9000000000000000e+01" rms="0.0000000000000000e+00" purity="3.9463788270950317e-01" nType="-1"/>
        </Node>
      </Node>
    </BinaryTree>
    <BinaryTree type="DecisionTree" boostWeight="5.4164867099646199e-02" itree="63">
      <Node pos="s" depth="0" NCoef="0" IVar="30" Cut="2.5402113795280457e-01" cType="0" res="-9.9000000000000000e+01" rms="0.0000000000000000e+00" purity="4.9705436825752258e-01" nType="0">
        <Node pos="l" depth="1" NCoef="0" IVar="5" Cut="9.5745944976806641e-01" cType="0" res="-9.9000000000000000e+01" rms="0.0000000000000000e+00" purity="5.3428238630294800e-01" nType="0">
          <Node pos="l" depth="2" NCoef="0" IVar="-1" Cut="0.0000000000000000e+00" cType="1" res="-9.9000000000000000e+01" rms="0.0000000000000000e+00" purity="5.5948561429977417e-01" nType="1"/>
          <Node pos="r" depth="2" NCoef="0" IVar="-1" Cut="0.0000000000000000e+00" cType="1" res="-9.9000000000000000e+01" rms="0.0000000000000000e+00" purity="4.0706115961074829e-01" nType="-1"/>
        </Node>
        <Node pos="r" depth="1" NCoef="0" IVar="14" Cut="6.3713181018829346e-01" cType="1" res="-9.9000000000000000e+01" rms="0.0000000000000000e+00" purity="4.4020849466323853e-01" nType="0">
          <Node pos="l" depth="2" NCoef="0" IVar="-1" Cut="0.0000000000000000e+00" cType="1" res="-9.9000000000000000e+01" rms="0.0000000000000000e+00" purity="5.1595056056976318e-01" nType="1"/>
          <Node pos="r" depth="2" NCoef="0" IVar="-1" Cut="0.0000000000000000e+00" cType="1" res="-9.9000000000000000e+01" rms="0.0000000000000000e+00" purity="4.0044379234313965e-01" nType="-1"/>
        </Node>
      </Node>
    </BinaryTree>
    <BinaryTree type="DecisionTree" boostWeight="2.9376315780486353e-02" itree="64">
      <Node pos="s" depth="0" NCoef="0" IVar="58" Cut="2.5529411315917969e+01" cType="1" res="-9.9000000000000000e+01" rms="0.0000000000000000e+00" purity="4.9322316050529480e-01" nType="0">
        <Node pos="l" depth="1" NCoef="0" IVar="31" Cut="1.1152941131591797e+02" cType="0" res="-9.9000000000000000e+01" rms="0.0000000000000000e+00" purity="5.1363861560821533e-01" nType="0">
          <Node pos="l" depth="2" NCoef="0" IVar="-1" Cut="0.0000000000000000e+00" cType="1" res="-9.9000000000000000e+01" rms="0.0000000000000000e+00" purity="6.3226681947708130e-01" nType="1"/>
          <Node pos="r" depth="2" NCoef="0" IVar="-1" Cut="0.0000000000000000e+00" cType="1" res="-9.9000000000000000e+01" rms="0.0000000000000000e+00" purity="4.9505129456520081e-01" nType="-1"/>
        </Node>
        <Node pos="r" depth="1" NCoef="0" IVar="-1" Cut="0.0000000000000000e+00" cType="1" res="-9.9000000000000000e+01" rms="0.0000000000000000e+00" purity="3.9081558585166931e-01" nType="-1"/>
      </Node>
    </BinaryTree>
    <BinaryTree type="DecisionTree" boostWeight="4.6570012800362444e-02" itree="65">
      <Node pos="s" depth="0" NCoef="0" IVar="58" Cut="2.5529411315917969e+01" cType="1" res="-9.9000000000000000e+01" rms="0.0000000000000000e+00" purity="4.9890670180320740e-01" nType="0">
        <Node pos="l" depth="1" NCoef="0" IVar="29" Cut="1.9810934364795685e-01" cType="0" res="-9.9000000000000000e+01" rms="0.0000000000000000e+00" purity="5.1900506019592285e-01" nType="0">
          <Node pos="l" depth="2" NCoef="0" IVar="-1" Cut="0.0000000000000000e+00" cType="1" res="-9.9000000000000000e+01" rms="0.0000000000000000e+00" purity="5.4551851749420166e-01" nType="1"/>
          <Node pos="r" depth="2" NCoef="0" IVar="-1" Cut="0.0000000000000000e+00" cType="1" res="-9.9000000000000000e+01" rms="0.0000000000000000e+00" purity="4.3999454379081726e-01" nType="-1"/>
        </Node>
        <Node pos="r" depth="1" NCoef="0" IVar="-1" Cut="0.0000000000000000e+00" cType="1" res="-9.9000000000000000e+01" rms="0.0000000000000000e+00" purity="3.9783146977424622e-01" nType="-1"/>
      </Node>
    </BinaryTree>
    <BinaryTree type="DecisionTree" boostWeight="4.8263600307116537e-02" itree="66">
      <Node pos="s" depth="0" NCoef="0" IVar="28" Cut="9.6223717927932739e-01" cType="0" res="-9.9000000000000000e+01" rms="0.0000000000000000e+00" purity="4.9599617719650269e-01" nType="0">
        <Node pos="l" depth="1" NCoef="0" IVar="-1" Cut="1.2649676513671875e+02" cType="1" res="-9.9000000000000000e+01" rms="0.0000000000000000e+00" purity="5.7969272136688232e-01" nType="1"/>
        <Node pos="r" depth="1" NCoef="0" IVar="12" Cut="5.1073528289794922e+01" cType="0" res="-9.9000000000000000e+01" rms="0.0000000000000000e+00" purity="4.7247126698493958e-01" nType="0">
          <Node pos="l" depth="2" NCoef="0" IVar="-1" Cut="0.0000000000000000e+00" cType="1" res="-9.9000000000000000e+01" rms="0.0000000000000000e+00" purity="5.4413670301437378e-01" nType="1"/>
          <Node pos="r" depth="2" NCoef="0" IVar="-1" Cut="0.0000000000000000e+00" cType="1" res="-9.9000000000000000e+01" rms="0.0000000000000000e+00" purity="4.4091665744781494e-01" nType="-1"/>
        </Node>
      </Node>
    </BinaryTree>
    <BinaryTree type="DecisionTree" boostWeight="4.8435248014929072e-02" itree="67">
      <Node pos="s" depth="0" NCoef="0" IVar="15" Cut="1.7153512239456177e+00" cType="1" res="-9.9000000000000000e+01" rms="0.0000000000000000e+00" purity="4.9699997901916504e-01" nType="0">
        <Node pos="l" depth="1" NCoef="0" IVar="13" Cut="1.3722815513610840e+00" cType="1" res="-9.9000000000000000e+01" rms="0.0000000000000000e+00" purity="5.1541149616241455e-01" nType="0">
          <Node pos="l" depth="2" NCoef="0" IVar="-1" Cut="0.0000000000000000e+00" cType="1" res="-9.9000000000000000e+01" rms="0.0000000000000000e+00" purity="5.4444670677185059e-01" nType="1"/>
          <Node pos="r" depth="2" NCoef="0" IVar="-1" Cut="0.0000000000000000e+00" cType="1" res="-9.9000000000000000e+01" rms="0.0000000000000000e+00" purity="4.2540079355239868e-01" nType="-1"/>
        </Node>
        <Node pos="r" depth="1" NCoef="0" IVar="-1" Cut="0.0000000000000000e+00" cType="1" res="-9.9000000000000000e+01" rms="0.0000000000000000e+00" purity="3.9119750261306763e-01" nType="-1"/>
      </Node>
    </BinaryTree>
    <BinaryTree type="DecisionTree" boostWeight="4.0758081438717897e-02" itree="68">
      <Node pos="s" depth="0" NCoef="0" IVar="28" Cut="1.0492302477359772e-01" cType="0" res="-9.9000000000000000e+01" rms="0.0000000000000000e+00" purity="4.9349364638328552e-01" nType="0">
        <Node pos="l" depth="1" NCoef="0" IVar="30" Cut="8.5041362047195435e-01" cType="0" res="-9.9000000000000000e+01" rms="0.0000000000000000e+00" purity="5.1366329193115234e-01" nType="0">
          <Node pos="l" depth="2" NCoef="0" IVar="-1" Cut="0.0000000000000000e+00" cType="1" res="-9.9000000000000000e+01" rms="0.0000000000000000e+00" purity="5.9590303897857666e-01" nType="1"/>
          <Node pos="r" depth="2" NCoef="0" IVar="-1" Cut="0.0000000000000000e+00" cType="1" res="-9.9000000000000000e+01" rms="0.0000000000000000e+00" purity="4.8087310791015625e-01" nType="-1"/>
        </Node>
        <Node pos="r" depth="1" NCoef="0" IVar="-1" Cut="0.0000000000000000e+00" cType="1" res="-9.9000000000000000e+01" rms="0.0000000000000000e+00" purity="4.0772917866706848e-01" nType="-1"/>
      </Node>
    </BinaryTree>
    <BinaryTree type="DecisionTree" boostWeight="4.5718706687041040e-02" itree="69">
      <Node pos="s" depth="0" NCoef="0" IVar="54" Cut="3.5470588684082031e+01" cType="1" res="-9.9000000000000000e+01" rms="0.0000000000000000e+00" purity="4.9897712469100952e-01" nType="0">
        <Node pos="l" depth="1" NCoef="0" IVar="5" Cut="9.7200250625610352e-01" cType="0" res="-9.9000000000000000e+01" rms="0.0000000000000000e+00" purity="5.2369099855422974e-01" nType="0">
          <Node pos="l" depth="2" NCoef="0" IVar="-1" Cut="0.0000000000000000e+00" cType="1" res="-9.9000000000000000e+01" rms="0.0000000000000000e+00" purity="5.4579770565032959e-01" nType="1"/>
          <Node pos="r" depth="2" NCoef="0" IVar="-1" Cut="0.0000000000000000e+00" cType="1" res="-9.9000000000000000e+01" rms="0.0000000000000000e+00" purity="4.1643610596656799e-01" nType="-1"/>
        </Node>
        <Node pos="r" depth="1" NCoef="0" IVar="-1" Cut="3.8211090087890625e+01" cType="0" res="-9.9000000000000000e+01" rms="0.0000000000000000e+00" purity="4.3015140295028687e-01" nType="-1"/>
      </Node>
    </BinaryTree>
    <BinaryTree type="DecisionTree" boostWeight="3.2063413429703591e-02" itree="70">
      <Node pos="s" depth="0" NCoef="0" IVar="34" Cut="9.6118187904357910e-01" cType="0" res="-9.9000000000000000e+01" rms="0.0000000000000000e+00" purity="4.9645262956619263e-01" nType="0">
        <Node pos="l" depth="1" NCoef="0" IVar="-1" Cut="0.0000000000000000e+00" cType="1" res="-9.9000000000000000e+01" rms="0.0000000000000000e+00" purity="6.1800229549407959e-01" nType="1"/>
        <Node pos="r" depth="1" NCoef="0" IVar="7" Cut="2.9296936035156250e+02" cType="1" res="-9.9000000000000000e+01" rms="0.0000000000000000e+00" purity="4.8261612653732300e-01" nType="0">
          <Node pos="l" depth="2" NCoef="0" IVar="-1" Cut="0.0000000000000000e+00" cType="1" res="-9.9000000000000000e+01" rms="0.0000000000000000e+00" purity="5.0860649347305298e-01" nType="1"/>
          <Node pos="r" depth="2" NCoef="0" IVar="-1" Cut="0.0000000000000000e+00" cType="1" res="-9.9000000000000000e+01" rms="0.0000000000000000e+00" purity="3.8017129898071289e-01" nType="-1"/>
        </Node>
      </Node>
    </BinaryTree>
    <BinaryTree type="DecisionTree" boostWeight="3.9157636235176457e-02" itree="71">
      <Node pos="s" depth="0" NCoef="0" IVar="17" Cut="1.3722811937332153e+00" cType="1" res="-9.9000000000000000e+01" rms="0.0000000000000000e+00" purity="4.9133872985839844e-01" nType="0">
        <Node pos="l" depth="1" NCoef="0" IVar="25" Cut="9.6223717927932739e-01" cType="0" res="-9.9000000000000000e+01" rms="0.0000000000000000e+00" purity="5.1723617315292358e-01" nType="0">
          <Node pos="l" depth="2" NCoef="0" IVar="-1" Cut="0.0000000000000000e+00" cType="1" res="-9.9000000000000000e+01" rms="0.0000000000000000e+00" purity="5.9377539157867432e-01" nType="1"/>
          <Node pos="r" depth="2" NCoef="0" IVar="-1" Cut="0.0000000000000000e+00" cType="1" res="-9.9000000000000000e+01" rms="0.0000000000000000e+00" purity="4.8451372981071472e-01" nType="-1"/>
        </Node>
        <Node pos="r" depth="1" NCoef="0" IVar="-1" Cut="1.4315943717956543e+00" cType="1" res="-9.9000000000000000e+01" rms="0.0000000000000000e+00" purity="4.2654246091842651e-01" nType="-1"/>
      </Node>
    </BinaryTree>
    <BinaryTree type="DecisionTree" boostWeight="3.0960605521672686e-02" itree="72">
      <Node pos="s" depth="0" NCoef="0" IVar="27" Cut="1.6083481907844543e-01" cType="0" res="-9.9000000000000000e+01" rms="0.0000000000000000e+00" purity="4.9693229794502258e-01" nType="0">
        <Node pos="l" depth="1" NCoef="0" IVar="28" Cut="9.6223717927932739e-01" cType="0" res="-9.9000000000000000e+01" rms="0.0000000000000000e+00" purity="5.1798027753829956e-01" nType="0">
          <Node pos="l" depth="2" NCoef="0" IVar="-1" Cut="0.0000000000000000e+00" cType="1" res="-9.9000000000000000e+01" rms="0.0000000000000000e+00" purity="6.0639876127243042e-01" nType="1"/>
          <Node pos="r" depth="2" NCoef="0" IVar="-1" Cut="0.0000000000000000e+00" cType="1" res="-9.9000000000000000e+01" rms="0.0000000000000000e+00" purity="4.9428987503051758e-01" nType="-1"/>
        </Node>
        <Node pos="r" depth="1" NCoef="0" IVar="-1" Cut="0.0000000000000000e+00" cType="1" res="-9.9000000000000000e+01" rms="0.0000000000000000e+00" purity="4.1741469502449036e-01" nType="-1"/>
      </Node>
    </BinaryTree>
    <BinaryTree type="DecisionTree" boostWeight="3.1579986473744888e-02" itree="73">
      <Node pos="s" depth="0" NCoef="0" IVar="26" Cut="9.0632539987564087e-01" cType="0" res="-9.9000000000000000e+01" rms="0.0000000000000000e+00" purity="5.0208795070648193e-01" nType="0">
        <Node pos="l" depth="1" NCoef="0" IVar="-1" Cut="1.2692568206787109e+02" cType="1" res="-9.9000000000000000e+01" rms="0.0000000000000000e+00" purity="5.6549471616744995e-01" nType="1"/>
        <Node pos="r" depth="1" NCoef="0" IVar="3" Cut="8.8521774291992188e+01" cType="0" res="-9.9000000000000000e+01" rms="0.0000000000000000e+00" purity="4.7595888376235962e-01" nType="0">
