<?xml version="1.0"?>
<MethodSetup Method="BDT::BDT">
  <GeneralInfo>
    <Info name="TMVA Release" value="4.2.1 [262657]"/>
    <Info name="ROOT Release" value="6.24/07 [399367]"/>
    <Info name="Creator" value="mstamenk"/>
    <Info name="Date" value="Tue Jan  3 09:42:52 2023"/>
    <Info name="Host" value="Linux cmsbuild18.cern.ch 3.10.0-1160.45.1.el7.x86_64 #1 SMP Wed Oct 13 17:20:51 UTC 2021 x86_64 x86_64 x86_64 GNU/Linux"/>
    <Info name="Dir" value="/isilon/data/users/mstamenk/hhh-6b-producer/CMSSW_12_5_2/src/bdt-framework"/>
    <Info name="Training events" value="1003038"/>
    <Info name="TrainingTime" value="2.05733851e+02"/>
    <Info name="AnalysisType" value="Classification"/>
  </GeneralInfo>
  <Options>
    <Option name="V" modified="Yes">False</Option>
    <Option name="VerbosityLevel" modified="No">Default</Option>
    <Option name="VarTransform" modified="No">None</Option>
    <Option name="H" modified="Yes">False</Option>
    <Option name="CreateMVAPdfs" modified="No">False</Option>
    <Option name="IgnoreNegWeightsInTraining" modified="No">False</Option>
    <Option name="NTrees" modified="Yes">250</Option>
    <Option name="MaxDepth" modified="Yes">2</Option>
    <Option name="MinNodeSize" modified="Yes">9%</Option>
    <Option name="nCuts" modified="Yes">50</Option>
    <Option name="BoostType" modified="Yes">AdaBoost</Option>
    <Option name="AdaBoostR2Loss" modified="No">quadratic</Option>
    <Option name="UseBaggedBoost" modified="No">False</Option>
    <Option name="Shrinkage" modified="No">1.000000e+00</Option>
    <Option name="AdaBoostBeta" modified="Yes">2.000000e-01</Option>
    <Option name="UseRandomisedTrees" modified="No">False</Option>
    <Option name="UseNvars" modified="No">8</Option>
    <Option name="UsePoissonNvars" modified="No">True</Option>
    <Option name="BaggedSampleFraction" modified="No">6.000000e-01</Option>
    <Option name="UseYesNoLeaf" modified="No">True</Option>
    <Option name="NegWeightTreatment" modified="No">inverseboostnegweights</Option>
    <Option name="Css" modified="No">1.000000e+00</Option>
    <Option name="Cts_sb" modified="No">1.000000e+00</Option>
    <Option name="Ctb_ss" modified="No">1.000000e+00</Option>
    <Option name="Cbb" modified="No">1.000000e+00</Option>
    <Option name="NodePurityLimit" modified="No">5.000000e-01</Option>
    <Option name="SeparationType" modified="Yes">giniindex</Option>
    <Option name="RegressionLossFunctionBDTG" modified="No">huber</Option>
    <Option name="HuberQuantile" modified="No">7.000000e-01</Option>
    <Option name="DoBoostMonitor" modified="No">False</Option>
    <Option name="UseFisherCuts" modified="No">False</Option>
    <Option name="MinLinCorrForFisher" modified="No">8.000000e-01</Option>
    <Option name="UseExclusiveVars" modified="No">False</Option>
    <Option name="DoPreselection" modified="No">False</Option>
    <Option name="SigToBkgFraction" modified="No">1.000000e+00</Option>
    <Option name="PruneMethod" modified="Yes">nopruning</Option>
    <Option name="PruneStrength" modified="No">0.000000e+00</Option>
    <Option name="PruningValFraction" modified="No">5.000000e-01</Option>
    <Option name="SkipNormalization" modified="No">False</Option>
    <Option name="nEventsMin" modified="No">0</Option>
    <Option name="UseBaggedGrad" modified="No">False</Option>
    <Option name="GradBaggingFraction" modified="No">6.000000e-01</Option>
    <Option name="UseNTrainEvents" modified="No">0</Option>
    <Option name="NNodesMax" modified="No">0</Option>
  </Options>
  <Variables NVar="62">
    <Variable VarIndex="0" Expression="h_fit_mass" Label="h_fit_mass" Title="h_fit_mass" Unit="" Internal="h_fit_mass" Type="F" Min="2.66393776e+01" Max="1.49761621e+03"/>
    <Variable VarIndex="1" Expression="h1_t3_mass" Label="h1_t3_mass" Title="h1_t3_mass" Unit="" Internal="h1_t3_mass" Type="F" Min="2.34061604e+01" Max="2.05052197e+03"/>
    <Variable VarIndex="2" Expression="h2_t3_mass" Label="h2_t3_mass" Title="h2_t3_mass" Unit="" Internal="h2_t3_mass" Type="F" Min="1.85485802e+01" Max="1.65025952e+03"/>
    <Variable VarIndex="3" Expression="h3_t3_mass" Label="h3_t3_mass" Title="h3_t3_mass" Unit="" Internal="h3_t3_mass" Type="F" Min="1.87001896e+01" Max="1.39740015e+03"/>
    <Variable VarIndex="4" Expression="h1_t3_dRjets" Label="h1_t3_dRjets" Title="h1_t3_dRjets" Unit="" Internal="h1_t3_dRjets" Type="F" Min="3.74184430e-01" Max="5.50256348e+00"/>
    <Variable VarIndex="5" Expression="h2_t3_dRjets" Label="h2_t3_dRjets" Title="h2_t3_dRjets" Unit="" Internal="h2_t3_dRjets" Type="F" Min="0.00000000e+00" Max="5.51550627e+00"/>
    <Variable VarIndex="6" Expression="h3_t3_dRjets" Label="h3_t3_dRjets" Title="h3_t3_dRjets" Unit="" Internal="h3_t3_dRjets" Type="F" Min="3.96421611e-01" Max="5.67924547e+00"/>
    <Variable VarIndex="7" Expression="bcand1Pt" Label="bcand1Pt" Title="bcand1Pt" Unit="" Internal="bcand1Pt" Type="F" Min="4.00312500e+01" Max="2.79000000e+03"/>
    <Variable VarIndex="8" Expression="bcand2Pt" Label="bcand2Pt" Title="bcand2Pt" Unit="" Internal="bcand2Pt" Type="F" Min="2.00156250e+01" Max="9.64000000e+02"/>
    <Variable VarIndex="9" Expression="bcand3Pt" Label="bcand3Pt" Title="bcand3Pt" Unit="" Internal="bcand3Pt" Type="F" Min="4.00312500e+01" Max="2.05200000e+03"/>
    <Variable VarIndex="10" Expression="bcand4Pt" Label="bcand4Pt" Title="bcand4Pt" Unit="" Internal="bcand4Pt" Type="F" Min="2.00156250e+01" Max="9.43000000e+02"/>
    <Variable VarIndex="11" Expression="bcand5Pt" Label="bcand5Pt" Title="bcand5Pt" Unit="" Internal="bcand5Pt" Type="F" Min="4.00312500e+01" Max="1.13800000e+03"/>
    <Variable VarIndex="12" Expression="bcand6Pt" Label="bcand6Pt" Title="bcand6Pt" Unit="" Internal="bcand6Pt" Type="F" Min="2.00156250e+01" Max="6.53000000e+02"/>
    <Variable VarIndex="13" Expression="bcand1Eta" Label="bcand1Eta" Title="bcand1Eta" Unit="" Internal="bcand1Eta" Type="F" Min="1.85542740e-06" Max="2.49951172e+00"/>
    <Variable VarIndex="14" Expression="bcand2Eta" Label="bcand2Eta" Title="bcand2Eta" Unit="" Internal="bcand2Eta" Type="F" Min="4.31947410e-06" Max="2.49951172e+00"/>
    <Variable VarIndex="15" Expression="bcand3Eta" Label="bcand3Eta" Title="bcand3Eta" Unit="" Internal="bcand3Eta" Type="F" Min="6.49481080e-07" Max="2.49951172e+00"/>
    <Variable VarIndex="16" Expression="bcand4Eta" Label="bcand4Eta" Title="bcand4Eta" Unit="" Internal="bcand4Eta" Type="F" Min="1.35693699e-06" Max="2.49951172e+00"/>
    <Variable VarIndex="17" Expression="bcand5Eta" Label="bcand5Eta" Title="bcand5Eta" Unit="" Internal="bcand5Eta" Type="F" Min="2.46707350e-06" Max="2.49951172e+00"/>
    <Variable VarIndex="18" Expression="bcand6Eta" Label="bcand6Eta" Title="bcand6Eta" Unit="" Internal="bcand6Eta" Type="F" Min="5.64381480e-07" Max="2.49951172e+00"/>
    <Variable VarIndex="19" Expression="bcand1Phi" Label="bcand1Phi" Title="bcand1Phi" Unit="" Internal="bcand1Phi" Type="F" Min="-3.14158368e+00" Max="3.14158368e+00"/>
    <Variable VarIndex="20" Expression="bcand2Phi" Label="bcand2Phi" Title="bcand2Phi" Unit="" Internal="bcand2Phi" Type="F" Min="-3.14158368e+00" Max="3.14158368e+00"/>
    <Variable VarIndex="21" Expression="bcand3Phi" Label="bcand3Phi" Title="bcand3Phi" Unit="" Internal="bcand3Phi" Type="F" Min="-3.14158368e+00" Max="3.14158368e+00"/>
    <Variable VarIndex="22" Expression="bcand4Phi" Label="bcand4Phi" Title="bcand4Phi" Unit="" Internal="bcand4Phi" Type="F" Min="-3.14158368e+00" Max="3.14158368e+00"/>
    <Variable VarIndex="23" Expression="bcand5Phi" Label="bcand5Phi" Title="bcand5Phi" Unit="" Internal="bcand5Phi" Type="F" Min="-3.14158368e+00" Max="3.14158368e+00"/>
    <Variable VarIndex="24" Expression="bcand6Phi" Label="bcand6Phi" Title="bcand6Phi" Unit="" Internal="bcand6Phi" Type="F" Min="-3.14158368e+00" Max="3.14158368e+00"/>
    <Variable VarIndex="25" Expression="bcand1DeepFlavB" Label="bcand1DeepFlavB" Title="bcand1DeepFlavB" Unit="" Internal="bcand1DeepFlavB" Type="F" Min="5.32226562e-02" Max="9.99511719e-01"/>
    <Variable VarIndex="26" Expression="bcand2DeepFlavB" Label="bcand2DeepFlavB" Title="bcand2DeepFlavB" Unit="" Internal="bcand2DeepFlavB" Type="F" Min="5.32226562e-02" Max="9.99511719e-01"/>
    <Variable VarIndex="27" Expression="bcand3DeepFlavB" Label="bcand3DeepFlavB" Title="bcand3DeepFlavB" Unit="" Internal="bcand3DeepFlavB" Type="F" Min="5.32226562e-02" Max="9.99511719e-01"/>
    <Variable VarIndex="28" Expression="bcand4DeepFlavB" Label="bcand4DeepFlavB" Title="bcand4DeepFlavB" Unit="" Internal="bcand4DeepFlavB" Type="F" Min="5.32226562e-02" Max="9.99511719e-01"/>
    <Variable VarIndex="29" Expression="bcand5DeepFlavB" Label="bcand5DeepFlavB" Title="bcand5DeepFlavB" Unit="" Internal="bcand5DeepFlavB" Type="F" Min="5.32226562e-02" Max="9.99511719e-01"/>
    <Variable VarIndex="30" Expression="bcand6DeepFlavB" Label="bcand6DeepFlavB" Title="bcand6DeepFlavB" Unit="" Internal="bcand6DeepFlavB" Type="F" Min="5.32226562e-02" Max="9.99511719e-01"/>
    <Variable VarIndex="31" Expression="fatJet1Mass" Label="fatJet1Mass" Title="fatJet1Mass" Unit="" Internal="fatJet1Mass" Type="F" Min="0.00000000e+00" Max="9.86000000e+02"/>
    <Variable VarIndex="32" Expression="fatJet1Pt" Label="fatJet1Pt" Title="fatJet1Pt" Unit="" Internal="fatJet1Pt" Type="F" Min="0.00000000e+00" Max="2.52200000e+03"/>
    <Variable VarIndex="33" Expression="fatJet1Eta" Label="fatJet1Eta" Title="fatJet1Eta" Unit="" Internal="fatJet1Eta" Type="F" Min="-2.39648438e+00" Max="2.39990234e+00"/>
    <Variable VarIndex="34" Expression="fatJet1PNetXbb" Label="fatJet1PNetXbb" Title="fatJet1PNetXbb" Unit="" Internal="fatJet1PNetXbb" Type="F" Min="0.00000000e+00" Max="1.05242109e+00"/>
    <Variable VarIndex="35" Expression="fatJet2Mass" Label="fatJet2Mass" Title="fatJet2Mass" Unit="" Internal="fatJet2Mass" Type="F" Min="0.00000000e+00" Max="7.27000000e+02"/>
    <Variable VarIndex="36" Expression="fatJet2Pt" Label="fatJet2Pt" Title="fatJet2Pt" Unit="" Internal="fatJet2Pt" Type="F" Min="0.00000000e+00" Max="2.13000000e+03"/>
    <Variable VarIndex="37" Expression="fatJet2Eta" Label="fatJet2Eta" Title="fatJet2Eta" Unit="" Internal="fatJet2Eta" Type="F" Min="-2.39941406e+00" Max="2.38720703e+00"/>
    <Variable VarIndex="38" Expression="fatJet2PNetXbb" Label="fatJet2PNetXbb" Title="fatJet2PNetXbb" Unit="" Internal="fatJet2PNetXbb" Type="F" Min="0.00000000e+00" Max="9.99542534e-01"/>
    <Variable VarIndex="39" Expression="fatJet3Mass" Label="fatJet3Mass" Title="fatJet3Mass" Unit="" Internal="fatJet3Mass" Type="F" Min="0.00000000e+00" Max="4.94500000e+02"/>
    <Variable VarIndex="40" Expression="fatJet3Pt" Label="fatJet3Pt" Title="fatJet3Pt" Unit="" Internal="fatJet3Pt" Type="F" Min="0.00000000e+00" Max="1.43000000e+03"/>
    <Variable VarIndex="41" Expression="fatJet3Eta" Label="fatJet3Eta" Title="fatJet3Eta" Unit="" Internal="fatJet3Eta" Type="F" Min="-2.29150391e+00" Max="2.25390625e+00"/>
    <Variable VarIndex="42" Expression="fatJet3PNetXbb" Label="fatJet3PNetXbb" Title="fatJet3PNetXbb" Unit="" Internal="fatJet3PNetXbb" Type="F" Min="0.00000000e+00" Max="9.98047054e-01"/>
    <Variable VarIndex="43" Expression="fatJet1PNetQCD" Label="fatJet1PNetQCD" Title="fatJet1PNetQCD" Unit="" Internal="fatJet1PNetQCD" Type="F" Min="0.00000000e+00" Max="1.99829102e-01"/>
    <Variable VarIndex="44" Expression="fatJet2PNetQCD" Label="fatJet2PNetQCD" Title="fatJet2PNetQCD" Unit="" Internal="fatJet2PNetQCD" Type="F" Min="0.00000000e+00" Max="1.99829102e-01"/>
    <Variable VarIndex="45" Expression="fatJet3PNetQCD" Label="fatJet3PNetQCD" Title="fatJet3PNetQCD" Unit="" Internal="fatJet3PNetQCD" Type="F" Min="0.00000000e+00" Max="1.99096680e-01"/>
    <Variable VarIndex="46" Expression="jet7Pt" Label="jet7Pt" Title="jet7Pt" Unit="" Internal="jet7Pt" Type="F" Min="0.00000000e+00" Max="2.33000000e+03"/>
    <Variable VarIndex="47" Expression="jet7Eta" Label="jet7Eta" Title="jet7Eta" Unit="" Internal="jet7Eta" Type="F" Min="-2.49951172e+00" Max="2.49951172e+00"/>
    <Variable VarIndex="48" Expression="jet7Phi" Label="jet7Phi" Title="jet7Phi" Unit="" Internal="jet7Phi" Type="F" Min="-3.14160156e+00" Max="3.14160156e+00"/>
    <Variable VarIndex="49" Expression="jet7DeepFlavB" Label="jet7DeepFlavB" Title="jet7DeepFlavB" Unit="" Internal="jet7DeepFlavB" Type="F" Min="0.00000000e+00" Max="9.98535156e-01"/>
    <Variable VarIndex="50" Expression="jet8Pt" Label="jet8Pt" Title="jet8Pt" Unit="" Internal="jet8Pt" Type="F" Min="0.00000000e+00" Max="2.14800000e+03"/>
    <Variable VarIndex="51" Expression="jet8Eta" Label="jet8Eta" Title="jet8Eta" Unit="" Internal="jet8Eta" Type="F" Min="-2.49951172e+00" Max="2.49951172e+00"/>
    <Variable VarIndex="52" Expression="jet8Phi" Label="jet8Phi" Title="jet8Phi" Unit="" Internal="jet8Phi" Type="F" Min="-3.14160156e+00" Max="3.14160156e+00"/>
    <Variable VarIndex="53" Expression="jet8DeepFlavB" Label="jet8DeepFlavB" Title="jet8DeepFlavB" Unit="" Internal="jet8DeepFlavB" Type="F" Min="0.00000000e+00" Max="9.67773438e-01"/>
    <Variable VarIndex="54" Expression="jet9Pt" Label="jet9Pt" Title="jet9Pt" Unit="" Internal="jet9Pt" Type="F" Min="0.00000000e+00" Max="1.57500000e+03"/>
    <Variable VarIndex="55" Expression="jet9Eta" Label="jet9Eta" Title="jet9Eta" Unit="" Internal="jet9Eta" Type="F" Min="-2.49951172e+00" Max="2.49951172e+00"/>
    <Variable VarIndex="56" Expression="jet9Phi" Label="jet9Phi" Title="jet9Phi" Unit="" Internal="jet9Phi" Type="F" Min="-3.14160156e+00" Max="3.14160156e+00"/>
    <Variable VarIndex="57" Expression="jet9DeepFlavB" Label="jet9DeepFlavB" Title="jet9DeepFlavB" Unit="" Internal="jet9DeepFlavB" Type="F" Min="0.00000000e+00" Max="8.58886719e-01"/>
    <Variable VarIndex="58" Expression="jet10Pt" Label="jet10Pt" Title="jet10Pt" Unit="" Internal="jet10Pt" Type="F" Min="0.00000000e+00" Max="1.52800000e+03"/>
    <Variable VarIndex="59" Expression="jet10Eta" Label="jet10Eta" Title="jet10Eta" Unit="" Internal="jet10Eta" Type="F" Min="-2.49951172e+00" Max="2.49951172e+00"/>
    <Variable VarIndex="60" Expression="jet10Phi" Label="jet10Phi" Title="jet10Phi" Unit="" Internal="jet10Phi" Type="F" Min="-3.14160156e+00" Max="3.14160156e+00"/>
    <Variable VarIndex="61" Expression="jet10DeepFlavB" Label="jet10DeepFlavB" Title="jet10DeepFlavB" Unit="" Internal="jet10DeepFlavB" Type="F" Min="0.00000000e+00" Max="4.92431641e-01"/>
  </Variables>
  <Spectators NSpec="0"/>
  <Classes NClass="2">
    <Class Name="Signal" Index="0"/>
    <Class Name="Background" Index="1"/>
  </Classes>
  <Transformations NTransformations="0"/>
  <MVAPdfs/>
  <Weights NTrees="250" AnalysisType="0">
    <BinaryTree type="DecisionTree" boostWeight="2.1020591991417523e-01" itree="0">
      <Node pos="s" depth="0" NCoef="0" IVar="26" Cut="5.1708984375000000e-01" cType="0" res="-9.9000000000000000e+01" rms="0.0000000000000000e+00" purity="5.0000000000000000e-01" nType="0">
        <Node pos="l" depth="1" NCoef="0" IVar="-1" Cut="3.5009765625000000e-01" cType="0" res="-9.9000000000000000e+01" rms="0.0000000000000000e+00" purity="7.3648917675018311e-01" nType="1"/>
        <Node pos="r" depth="1" NCoef="0" IVar="28" Cut="5.3564453125000000e-01" cType="0" res="-9.9000000000000000e+01" rms="0.0000000000000000e+00" purity="2.7741736173629761e-01" nType="0">
          <Node pos="l" depth="2" NCoef="0" IVar="-1" Cut="0.0000000000000000e+00" cType="1" res="-9.9000000000000000e+01" rms="0.0000000000000000e+00" purity="5.3232759237289429e-01" nType="1"/>
          <Node pos="r" depth="2" NCoef="0" IVar="-1" Cut="0.0000000000000000e+00" cType="1" res="-9.9000000000000000e+01" rms="0.0000000000000000e+00" purity="1.4034138619899750e-01" nType="-1"/>
        </Node>
      </Node>
    </BinaryTree>
    <BinaryTree type="DecisionTree" boostWeight="1.9692460268039313e-01" itree="1">
      <Node pos="s" depth="0" NCoef="0" IVar="29" Cut="3.6865234375000000e-01" cType="0" res="-9.9000000000000000e+01" rms="0.0000000000000000e+00" purity="4.8180344700813293e-01" nType="0">
        <Node pos="l" depth="1" NCoef="0" IVar="30" Cut="4.2431640625000000e-01" cType="0" res="-9.9000000000000000e+01" rms="0.0000000000000000e+00" purity="6.4875608682632446e-01" nType="0">
          <Node pos="l" depth="2" NCoef="0" IVar="-1" Cut="0.0000000000000000e+00" cType="1" res="-9.9000000000000000e+01" rms="0.0000000000000000e+00" purity="8.0272054672241211e-01" nType="1"/>
          <Node pos="r" depth="2" NCoef="0" IVar="-1" Cut="0.0000000000000000e+00" cType="1" res="-9.9000000000000000e+01" rms="0.0000000000000000e+00" purity="4.4327503442764282e-01" nType="-1"/>
        </Node>
        <Node pos="r" depth="1" NCoef="0" IVar="-1" Cut="6.4697265625000000e-01" cType="0" res="-9.9000000000000000e+01" rms="0.0000000000000000e+00" purity="2.2474774718284607e-01" nType="-1"/>
      </Node>
    </BinaryTree>
    <BinaryTree type="DecisionTree" boostWeight="1.8623579449860658e-01" itree="2">
      <Node pos="s" depth="0" NCoef="0" IVar="26" Cut="5.1708984375000000e-01" cType="0" res="-9.9000000000000000e+01" rms="0.0000000000000000e+00" purity="4.9671480059623718e-01" nType="0">
        <Node pos="l" depth="1" NCoef="0" IVar="28" Cut="3.5009765625000000e-01" cType="0" res="-9.9000000000000000e+01" rms="0.0000000000000000e+00" purity="7.0396858453750610e-01" nType="0">
          <Node pos="l" depth="2" NCoef="0" IVar="-1" Cut="0.0000000000000000e+00" cType="1" res="-9.9000000000000000e+01" rms="0.0000000000000000e+00" purity="8.3672100305557251e-01" nType="1"/>
          <Node pos="r" depth="2" NCoef="0" IVar="-1" Cut="0.0000000000000000e+00" cType="1" res="-9.9000000000000000e+01" rms="0.0000000000000000e+00" purity="4.6329191327095032e-01" nType="-1"/>
        </Node>
        <Node pos="r" depth="1" NCoef="0" IVar="-1" Cut="4.6142578125000000e-01" cType="0" res="-9.9000000000000000e+01" rms="0.0000000000000000e+00" purity="2.9509234428405762e-01" nType="-1"/>
      </Node>
    </BinaryTree>
    <BinaryTree type="DecisionTree" boostWeight="2.0502108741028036e-01" itree="3">
      <Node pos="s" depth="0" NCoef="0" IVar="27" Cut="4.6142578125000000e-01" cType="0" res="-9.9000000000000000e+01" rms="0.0000000000000000e+00" purity="5.1420390605926514e-01" nType="0">
        <Node pos="l" depth="1" NCoef="0" IVar="25" Cut="2.7587890625000000e-01" cType="0" res="-9.9000000000000000e+01" rms="0.0000000000000000e+00" purity="6.7290145158767700e-01" nType="0">
          <Node pos="l" depth="2" NCoef="0" IVar="-1" Cut="0.0000000000000000e+00" cType="1" res="-9.9000000000000000e+01" rms="0.0000000000000000e+00" purity="7.8138166666030884e-01" nType="1"/>
          <Node pos="r" depth="2" NCoef="0" IVar="-1" Cut="0.0000000000000000e+00" cType="1" res="-9.9000000000000000e+01" rms="0.0000000000000000e+00" purity="3.8784649968147278e-01" nType="-1"/>
        </Node>
        <Node pos="r" depth="1" NCoef="0" IVar="28" Cut="6.6552734375000000e-01" cType="0" res="-9.9000000000000000e+01" rms="0.0000000000000000e+00" purity="2.7468538284301758e-01" nType="0">
          <Node pos="l" depth="2" NCoef="0" IVar="-1" Cut="0.0000000000000000e+00" cType="1" res="-9.9000000000000000e+01" rms="0.0000000000000000e+00" purity="5.2037173509597778e-01" nType="1"/>
          <Node pos="r" depth="2" NCoef="0" IVar="-1" Cut="0.0000000000000000e+00" cType="1" res="-9.9000000000000000e+01" rms="0.0000000000000000e+00" purity="1.6579745709896088e-01" nType="-1"/>
        </Node>
      </Node>
    </BinaryTree>
    <BinaryTree type="DecisionTree" boostWeight="1.8428732023184582e-01" itree="4">
      <Node pos="s" depth="0" NCoef="0" IVar="29" Cut="4.0576171875000000e-01" cType="0" res="-9.9000000000000000e+01" rms="0.0000000000000000e+00" purity="5.0869178771972656e-01" nType="0">
        <Node pos="l" depth="1" NCoef="0" IVar="27" Cut="4.7998046875000000e-01" cType="0" res="-9.9000000000000000e+01" rms="0.0000000000000000e+00" purity="6.6127038002014160e-01" nType="0">
          <Node pos="l" depth="2" NCoef="0" IVar="-1" Cut="0.0000000000000000e+00" cType="1" res="-9.9000000000000000e+01" rms="0.0000000000000000e+00" purity="7.8023719787597656e-01" nType="1"/>
          <Node pos="r" depth="2" NCoef="0" IVar="-1" Cut="0.0000000000000000e+00" cType="1" res="-9.9000000000000000e+01" rms="0.0000000000000000e+00" purity="4.3716245889663696e-01" nType="-1"/>
        </Node>
        <Node pos="r" depth="1" NCoef="0" IVar="26" Cut="5.7275390625000000e-01" cType="0" res="-9.9000000000000000e+01" rms="0.0000000000000000e+00" purity="2.7852562069892883e-01" nType="0">
          <Node pos="l" depth="2" NCoef="0" IVar="-1" Cut="0.0000000000000000e+00" cType="1" res="-9.9000000000000000e+01" rms="0.0000000000000000e+00" purity="5.1380527019500732e-01" nType="1"/>
          <Node pos="r" depth="2" NCoef="0" IVar="-1" Cut="0.0000000000000000e+00" cType="1" res="-9.9000000000000000e+01" rms="0.0000000000000000e+00" purity="1.5158239006996155e-01" nType="-1"/>
        </Node>
      </Node>
    </BinaryTree>
    <BinaryTree type="DecisionTree" boostWeight="1.6417340605335884e-01" itree="5">
      <Node pos="s" depth="0" NCoef="0" IVar="29" Cut="3.6865234375000000e-01" cType="0" res="-9.9000000000000000e+01" rms="0.0000000000000000e+00" purity="5.0593745708465576e-01" nType="0">
        <Node pos="l" depth="1" NCoef="0" IVar="25" Cut="6.2841796875000000e-01" cType="0" res="-9.9000000000000000e+01" rms="0.0000000000000000e+00" purity="6.4864015579223633e-01" nType="0">
          <Node pos="l" depth="2" NCoef="0" IVar="-1" Cut="0.0000000000000000e+00" cType="1" res="-9.9000000000000000e+01" rms="0.0000000000000000e+00" purity="7.8142678737640381e-01" nType="1"/>
          <Node pos="r" depth="2" NCoef="0" IVar="-1" Cut="0.0000000000000000e+00" cType="1" res="-9.9000000000000000e+01" rms="0.0000000000000000e+00" purity="4.6781510114669800e-01" nType="-1"/>
        </Node>
        <Node pos="r" depth="1" NCoef="0" IVar="-1" Cut="5.3564453125000000e-01" cType="0" res="-9.9000000000000000e+01" rms="0.0000000000000000e+00" purity="2.7568948268890381e-01" nType="-1"/>
      </Node>
    </BinaryTree>
    <BinaryTree type="DecisionTree" boostWeight="1.6742056922188558e-01" itree="6">
      <Node pos="s" depth="0" NCoef="0" IVar="30" Cut="2.0166015625000000e-01" cType="0" res="-9.9000000000000000e+01" rms="0.0000000000000000e+00" purity="5.1831746101379395e-01" nType="0">
        <Node pos="l" depth="1" NCoef="0" IVar="26" Cut="3.5009765625000000e-01" cType="0" res="-9.9000000000000000e+01" rms="0.0000000000000000e+00" purity="6.3943088054656982e-01" nType="0">
          <Node pos="l" depth="2" NCoef="0" IVar="-1" Cut="0.0000000000000000e+00" cType="1" res="-9.9000000000000000e+01" rms="0.0000000000000000e+00" purity="7.6317423582077026e-01" nType="1"/>
          <Node pos="r" depth="2" NCoef="0" IVar="-1" Cut="0.0000000000000000e+00" cType="1" res="-9.9000000000000000e+01" rms="0.0000000000000000e+00" purity="4.3340632319450378e-01" nType="-1"/>
        </Node>
        <Node pos="r" depth="1" NCoef="0" IVar="-1" Cut="6.6552734375000000e-01" cType="0" res="-9.9000000000000000e+01" rms="0.0000000000000000e+00" purity="2.8594005107879639e-01" nType="-1"/>
      </Node>
    </BinaryTree>
    <BinaryTree type="DecisionTree" boostWeight="1.4478838570691865e-01" itree="7">
      <Node pos="s" depth="0" NCoef="0" IVar="28" Cut="4.9853515625000000e-01" cType="0" res="-9.9000000000000000e+01" rms="0.0000000000000000e+00" purity="5.2665621042251587e-01" nType="0">
        <Node pos="l" depth="1" NCoef="0" IVar="25" Cut="3.6865234375000000e-01" cType="0" res="-9.9000000000000000e+01" rms="0.0000000000000000e+00" purity="6.9406247138977051e-01" nType="0">
          <Node pos="l" depth="2" NCoef="0" IVar="-1" Cut="0.0000000000000000e+00" cType="1" res="-9.9000000000000000e+01" rms="0.0000000000000000e+00" purity="7.9967987537384033e-01" nType="1"/>
          <Node pos="r" depth="2" NCoef="0" IVar="-1" Cut="0.0000000000000000e+00" cType="1" res="-9.9000000000000000e+01" rms="0.0000000000000000e+00" purity="4.8826754093170166e-01" nType="-1"/>
        </Node>
        <Node pos="r" depth="1" NCoef="0" IVar="29" Cut="4.2431640625000000e-01" cType="0" res="-9.9000000000000000e+01" rms="0.0000000000000000e+00" purity="3.6471858620643616e-01" nType="0">
          <Node pos="l" depth="2" NCoef="0" IVar="-1" Cut="0.0000000000000000e+00" cType="1" res="-9.9000000000000000e+01" rms="0.0000000000000000e+00" purity="5.0983804464340210e-01" nType="1"/>
          <Node pos="r" depth="2" NCoef="0" IVar="-1" Cut="0.0000000000000000e+00" cType="1" res="-9.9000000000000000e+01" rms="0.0000000000000000e+00" purity="1.9594691693782806e-01" nType="-1"/>
        </Node>
      </Node>
    </BinaryTree>
    <BinaryTree type="DecisionTree" boostWeight="1.4845826547692606e-01" itree="8">
      <Node pos="s" depth="0" NCoef="0" IVar="28" Cut="4.9853515625000000e-01" cType="0" res="-9.9000000000000000e+01" rms="0.0000000000000000e+00" purity="5.2005976438522339e-01" nType="0">
        <Node pos="l" depth="1" NCoef="0" IVar="27" Cut="2.9443359375000000e-01" cType="0" res="-9.9000000000000000e+01" rms="0.0000000000000000e+00" purity="6.8792593479156494e-01" nType="0">
          <Node pos="l" depth="2" NCoef="0" IVar="-1" Cut="0.0000000000000000e+00" cType="1" res="-9.9000000000000000e+01" rms="0.0000000000000000e+00" purity="7.7113020420074463e-01" nType="1"/>
          <Node pos="r" depth="2" NCoef="0" IVar="-1" Cut="0.0000000000000000e+00" cType="1" res="-9.9000000000000000e+01" rms="0.0000000000000000e+00" purity="4.4599559903144836e-01" nType="-1"/>
        </Node>
        <Node pos="r" depth="1" NCoef="0" IVar="-1" Cut="5.7275390625000000e-01" cType="0" res="-9.9000000000000000e+01" rms="0.0000000000000000e+00" purity="3.5902374982833862e-01" nType="-1"/>
      </Node>
    </BinaryTree>
    <BinaryTree type="DecisionTree" boostWeight="1.5572361607155571e-01" itree="9">
      <Node pos="s" depth="0" NCoef="0" IVar="30" Cut="3.1298828125000000e-01" cType="0" res="-9.9000000000000000e+01" rms="0.0000000000000000e+00" purity="5.3092610836029053e-01" nType="0">
        <Node pos="l" depth="1" NCoef="0" IVar="27" Cut="2.3876953125000000e-01" cType="0" res="-9.9000000000000000e+01" rms="0.0000000000000000e+00" purity="6.5747386217117310e-01" nType="0">
          <Node pos="l" depth="2" NCoef="0" IVar="-1" Cut="0.0000000000000000e+00" cType="1" res="-9.9000000000000000e+01" rms="0.0000000000000000e+00" purity="7.3499453067779541e-01" nType="1"/>
          <Node pos="r" depth="2" NCoef="0" IVar="-1" Cut="0.0000000000000000e+00" cType="1" res="-9.9000000000000000e+01" rms="0.0000000000000000e+00" purity="4.2206925153732300e-01" nType="-1"/>
        </Node>
        <Node pos="r" depth="1" NCoef="0" IVar="26" Cut="5.9130859375000000e-01" cType="0" res="-9.9000000000000000e+01" rms="0.0000000000000000e+00" purity="3.5528412461280823e-01" nType="0">
          <Node pos="l" depth="2" NCoef="0" IVar="-1" Cut="0.0000000000000000e+00" cType="1" res="-9.9000000000000000e+01" rms="0.0000000000000000e+00" purity="5.3103530406951904e-01" nType="1"/>
          <Node pos="r" depth="2" NCoef="0" IVar="-1" Cut="0.0000000000000000e+00" cType="1" res="-9.9000000000000000e+01" rms="0.0000000000000000e+00" purity="2.3017756640911102e-01" nType="-1"/>
        </Node>
      </Node>
    </BinaryTree>
    <BinaryTree type="DecisionTree" boostWeight="1.2833924870247435e-01" itree="10">
      <Node pos="s" depth="0" NCoef="0" IVar="30" Cut="6.8408203125000000e-01" cType="0" res="-9.9000000000000000e+01" rms="0.0000000000000000e+00" purity="5.2293187379837036e-01" nType="0">
        <Node pos="l" depth="1" NCoef="0" IVar="-1" Cut="1.8825311660766602e+00" cType="1" res="-9.9000000000000000e+01" rms="0.0000000000000000e+00" purity="6.9897514581680298e-01" nType="1"/>
        <Node pos="r" depth="1" NCoef="0" IVar="29" Cut="4.2431640625000000e-01" cType="0" res="-9.9000000000000000e+01" rms="0.0000000000000000e+00" purity="4.0539720654487610e-01" nType="0">
          <Node pos="l" depth="2" NCoef="0" IVar="-1" Cut="0.0000000000000000e+00" cType="1" res="-9.9000000000000000e+01" rms="0.0000000000000000e+00" purity="5.2695208787918091e-01" nType="1"/>
          <Node pos="r" depth="2" NCoef="0" IVar="-1" Cut="0.0000000000000000e+00" cType="1" res="-9.9000000000000000e+01" rms="0.0000000000000000e+00" purity="2.3752242326736450e-01" nType="-1"/>
        </Node>
      </Node>
    </BinaryTree>
    <BinaryTree type="DecisionTree" boostWeight="1.1488670285024778e-01" itree="11">
      <Node pos="s" depth="0" NCoef="0" IVar="28" Cut="5.7275390625000000e-01" cType="0" res="-9.9000000000000000e+01" rms="0.0000000000000000e+00" purity="5.0717204809188843e-01" nType="0">
        <Node pos="l" depth="1" NCoef="0" IVar="-1" Cut="6.6552734375000000e-01" cType="0" res="-9.9000000000000000e+01" rms="0.0000000000000000e+00" purity="6.6478937864303589e-01" nType="1"/>
        <Node pos="r" depth="1" NCoef="0" IVar="-1" Cut="2.5732421875000000e-01" cType="0" res="-9.9000000000000000e+01" rms="0.0000000000000000e+00" purity="3.8033533096313477e-01" nType="-1"/>
      </Node>
    </BinaryTree>
    <BinaryTree type="DecisionTree" boostWeight="1.2287313974324987e-01" itree="12">
      <Node pos="s" depth="0" NCoef="0" IVar="30" Cut="6.8408203125000000e-01" cType="0" res="-9.9000000000000000e+01" rms="0.0000000000000000e+00" purity="5.1044410467147827e-01" nType="0">
        <Node pos="l" depth="1" NCoef="0" IVar="4" Cut="1.8825311660766602e+00" cType="1" res="-9.9000000000000000e+01" rms="0.0000000000000000e+00" purity="6.7442512512207031e-01" nType="0">
          <Node pos="l" depth="2" NCoef="0" IVar="-1" Cut="0.0000000000000000e+00" cType="1" res="-9.9000000000000000e+01" rms="0.0000000000000000e+00" purity="7.7426934242248535e-01" nType="1"/>
          <Node pos="r" depth="2" NCoef="0" IVar="-1" Cut="0.0000000000000000e+00" cType="1" res="-9.9000000000000000e+01" rms="0.0000000000000000e+00" purity="4.8655623197555542e-01" nType="-1"/>
        </Node>
        <Node pos="r" depth="1" NCoef="0" IVar="27" Cut="5.5419921875000000e-01" cType="0" res="-9.9000000000000000e+01" rms="0.0000000000000000e+00" purity="4.0178257226943970e-01" nType="0">
          <Node pos="l" depth="2" NCoef="0" IVar="-1" Cut="0.0000000000000000e+00" cType="1" res="-9.9000000000000000e+01" rms="0.0000000000000000e+00" purity="5.2568894624710083e-01" nType="1"/>
          <Node pos="r" depth="2" NCoef="0" IVar="-1" Cut="0.0000000000000000e+00" cType="1" res="-9.9000000000000000e+01" rms="0.0000000000000000e+00" purity="2.5744757056236267e-01" nType="-1"/>
        </Node>
      </Node>
    </BinaryTree>
    <BinaryTree type="DecisionTree" boostWeight="1.2876805623615939e-01" itree="13">
      <Node pos="s" depth="0" NCoef="0" IVar="30" Cut="6.8408203125000000e-01" cType="0" res="-9.9000000000000000e+01" rms="0.0000000000000000e+00" purity="5.0539654493331909e-01" nType="0">
        <Node pos="l" depth="1" NCoef="0" IVar="-1" Cut="6.0986328125000000e-01" cType="0" res="-9.9000000000000000e+01" rms="0.0000000000000000e+00" purity="6.6884630918502808e-01" nType="1"/>
        <Node pos="r" depth="1" NCoef="0" IVar="26" Cut="6.6552734375000000e-01" cType="0" res="-9.9000000000000000e+01" rms="0.0000000000000000e+00" purity="3.9786860346794128e-01" nType="0">
          <Node pos="l" depth="2" NCoef="0" IVar="-1" Cut="0.0000000000000000e+00" cType="1" res="-9.9000000000000000e+01" rms="0.0000000000000000e+00" purity="5.5632036924362183e-01" nType="1"/>
          <Node pos="r" depth="2" NCoef="0" IVar="-1" Cut="0.0000000000000000e+00" cType="1" res="-9.9000000000000000e+01" rms="0.0000000000000000e+00" purity="2.9327371716499329e-01" nType="-1"/>
        </Node>
      </Node>
    </BinaryTree>
    <BinaryTree type="DecisionTree" boostWeight="1.0690811968813857e-01" itree="14">
      <Node pos="s" depth="0" NCoef="0" IVar="29" Cut="2.7587890625000000e-01" cType="0" res="-9.9000000000000000e+01" rms="0.0000000000000000e+00" purity="4.9654084444046021e-01" nType="0">
        <Node pos="l" depth="1" NCoef="0" IVar="30" Cut="6.8408203125000000e-01" cType="0" res="-9.9000000000000000e+01" rms="0.0000000000000000e+00" purity="5.8113324642181396e-01" nType="0">
          <Node pos="l" depth="2" NCoef="0" IVar="-1" Cut="0.0000000000000000e+00" cType="1" res="-9.9000000000000000e+01" rms="0.0000000000000000e+00" purity="7.2707980871200562e-01" nType="1"/>
          <Node pos="r" depth="2" NCoef="0" IVar="-1" Cut="0.0000000000000000e+00" cType="1" res="-9.9000000000000000e+01" rms="0.0000000000000000e+00" purity="4.8048132658004761e-01" nType="-1"/>
        </Node>
        <Node pos="r" depth="1" NCoef="0" IVar="-1" Cut="0.0000000000000000e+00" cType="1" res="-9.9000000000000000e+01" rms="0.0000000000000000e+00" purity="3.1210806965827942e-01" nType="-1"/>
      </Node>
    </BinaryTree>
    <BinaryTree type="DecisionTree" boostWeight="1.0360075498750428e-01" itree="15">
      <Node pos="s" depth="0" NCoef="0" IVar="25" Cut="6.6552734375000000e-01" cType="0" res="-9.9000000000000000e+01" rms="0.0000000000000000e+00" purity="5.0841659307479858e-01" nType="0">
        <Node pos="l" depth="1" NCoef="0" IVar="28" Cut="4.2431640625000000e-01" cType="0" res="-9.9000000000000000e+01" rms="0.0000000000000000e+00" purity="6.2855464220046997e-01" nType="0">
          <Node pos="l" depth="2" NCoef="0" IVar="-1" Cut="0.0000000000000000e+00" cType="1" res="-9.9000000000000000e+01" rms="0.0000000000000000e+00" purity="7.4985104799270630e-01" nType="1"/>
          <Node pos="r" depth="2" NCoef="0" IVar="-1" Cut="0.0000000000000000e+00" cType="1" res="-9.9000000000000000e+01" rms="0.0000000000000000e+00" purity="4.9760633707046509e-01" nType="-1"/>
        </Node>
        <Node pos="r" depth="1" NCoef="0" IVar="-1" Cut="5.5419921875000000e-01" cType="0" res="-9.9000000000000000e+01" rms="0.0000000000000000e+00" purity="3.7785729765892029e-01" nType="-1"/>
      </Node>
    </BinaryTree>
    <BinaryTree type="DecisionTree" boostWeight="9.8888756461627356e-02" itree="16">
      <Node pos="s" depth="0" NCoef="0" IVar="29" Cut="5.5419921875000000e-01" cType="0" res="-9.9000000000000000e+01" rms="0.0000000000000000e+00" purity="5.2057135105133057e-01" nType="0">
        <Node pos="l" depth="1" NCoef="0" IVar="-1" Cut="7.5830078125000000e-01" cType="0" res="-9.9000000000000000e+01" rms="0.0000000000000000e+00" purity="6.2312489748001099e-01" nType="1"/>
        <Node pos="r" depth="1" NCoef="0" IVar="27" Cut="6.4697265625000000e-01" cType="0" res="-9.9000000000000000e+01" rms="0.0000000000000000e+00" purity="3.8687664270401001e-01" nType="0">
          <Node pos="l" depth="2" NCoef="0" IVar="-1" Cut="0.0000000000000000e+00" cType="1" res="-9.9000000000000000e+01" rms="0.0000000000000000e+00" purity="5.0531393289566040e-01" nType="1"/>
          <Node pos="r" depth="2" NCoef="0" IVar="-1" Cut="0.0000000000000000e+00" cType="1" res="-9.9000000000000000e+01" rms="0.0000000000000000e+00" purity="2.6182308793067932e-01" nType="-1"/>
        </Node>
      </Node>
    </BinaryTree>
    <BinaryTree type="DecisionTree" boostWeight="9.3691609961628924e-02" itree="17">
      <Node pos="s" depth="0" NCoef="0" IVar="25" Cut="2.7587890625000000e-01" cType="0" res="-9.9000000000000000e+01" rms="0.0000000000000000e+00" purity="5.0637722015380859e-01" nType="0">
        <Node pos="l" depth="1" NCoef="0" IVar="26" Cut="7.2119140625000000e-01" cType="0" res="-9.9000000000000000e+01" rms="0.0000000000000000e+00" purity="5.8400315046310425e-01" nType="0">
          <Node pos="l" depth="2" NCoef="0" IVar="-1" Cut="0.0000000000000000e+00" cType="1" res="-9.9000000000000000e+01" rms="0.0000000000000000e+00" purity="7.0752221345901489e-01" nType="1"/>
          <Node pos="r" depth="2" NCoef="0" IVar="-1" Cut="0.0000000000000000e+00" cType="1" res="-9.9000000000000000e+01" rms="0.0000000000000000e+00" purity="4.9136886000633240e-01" nType="-1"/>
        </Node>
        <Node pos="r" depth="1" NCoef="0" IVar="-1" Cut="0.0000000000000000e+00" cType="1" res="-9.9000000000000000e+01" rms="0.0000000000000000e+00" purity="3.3951544761657715e-01" nType="-1"/>
      </Node>
    </BinaryTree>
    <BinaryTree type="DecisionTree" boostWeight="1.0205382879930630e-01" itree="18">
      <Node pos="s" depth="0" NCoef="0" IVar="30" Cut="2.0166015625000000e-01" cType="0" res="-9.9000000000000000e+01" rms="0.0000000000000000e+00" purity="5.1626628637313843e-01" nType="0">
        <Node pos="l" depth="1" NCoef="0" IVar="25" Cut="6.6552734375000000e-01" cType="0" res="-9.9000000000000000e+01" rms="0.0000000000000000e+00" purity="5.9562993049621582e-01" nType="0">
          <Node pos="l" depth="2" NCoef="0" IVar="-1" Cut="0.0000000000000000e+00" cType="1" res="-9.9000000000000000e+01" rms="0.0000000000000000e+00" purity="6.9673562049865723e-01" nType="1"/>
          <Node pos="r" depth="2" NCoef="0" IVar="-1" Cut="0.0000000000000000e+00" cType="1" res="-9.9000000000000000e+01" rms="0.0000000000000000e+00" purity="4.8152679204940796e-01" nType="-1"/>
        </Node>
        <Node pos="r" depth="1" NCoef="0" IVar="27" Cut="9.0673828125000000e-01" cType="0" res="-9.9000000000000000e+01" rms="0.0000000000000000e+00" purity="3.5893929004669189e-01" nType="0">
          <Node pos="l" depth="2" NCoef="0" IVar="-1" Cut="0.0000000000000000e+00" cType="1" res="-9.9000000000000000e+01" rms="0.0000000000000000e+00" purity="5.1034969091415405e-01" nType="1"/>
          <Node pos="r" depth="2" NCoef="0" IVar="-1" Cut="0.0000000000000000e+00" cType="1" res="-9.9000000000000000e+01" rms="0.0000000000000000e+00" purity="2.7533918619155884e-01" nType="-1"/>
        </Node>
      </Node>
    </BinaryTree>
    <BinaryTree type="DecisionTree" boostWeight="8.9497540935823308e-02" itree="19">
      <Node pos="s" depth="0" NCoef="0" IVar="30" Cut="2.0166015625000000e-01" cType="0" res="-9.9000000000000000e+01" rms="0.0000000000000000e+00" purity="5.1793766021728516e-01" nType="0">
        <Node pos="l" depth="1" NCoef="0" IVar="-1" Cut="7.7685546875000000e-01" cType="0" res="-9.9000000000000000e+01" rms="0.0000000000000000e+00" purity="5.9518706798553467e-01" nType="1"/>
        <Node pos="r" depth="1" NCoef="0" IVar="29" Cut="8.8818359375000000e-01" cType="0" res="-9.9000000000000000e+01" rms="0.0000000000000000e+00" purity="3.6423999071121216e-01" nType="0">
          <Node pos="l" depth="2" NCoef="0" IVar="-1" Cut="0.0000000000000000e+00" cType="1" res="-9.9000000000000000e+01" rms="0.0000000000000000e+00" purity="5.0515693426132202e-01" nType="1"/>
          <Node pos="r" depth="2" NCoef="0" IVar="-1" Cut="0.0000000000000000e+00" cType="1" res="-9.9000000000000000e+01" rms="0.0000000000000000e+00" purity="2.8075629472732544e-01" nType="-1"/>
        </Node>
      </Node>
    </BinaryTree>
    <BinaryTree type="DecisionTree" boostWeight="8.4999397898028919e-02" itree="20">
      <Node pos="s" depth="0" NCoef="0" IVar="28" Cut="7.7685546875000000e-01" cType="0" res="-9.9000000000000000e+01" rms="0.0000000000000000e+00" purity="5.0502079725265503e-01" nType="0">
        <Node pos="l" depth="1" NCoef="0" IVar="29" Cut="3.8720703125000000e-01" cType="0" res="-9.9000000000000000e+01" rms="0.0000000000000000e+00" purity="6.5116029977798462e-01" nType="0">
          <Node pos="l" depth="2" NCoef="0" IVar="-1" Cut="0.0000000000000000e+00" cType="1" res="-9.9000000000000000e+01" rms="0.0000000000000000e+00" purity="7.3201978206634521e-01" nType="1"/>
          <Node pos="r" depth="2" NCoef="0" IVar="-1" Cut="0.0000000000000000e+00" cType="1" res="-9.9000000000000000e+01" rms="0.0000000000000000e+00" purity="4.9377244710922241e-01" nType="-1"/>
        </Node>
        <Node pos="r" depth="1" NCoef="0" IVar="25" Cut="3.6865234375000000e-01" cType="0" res="-9.9000000000000000e+01" rms="0.0000000000000000e+00" purity="4.2639124393463135e-01" nType="0">
          <Node pos="l" depth="2" NCoef="0" IVar="-1" Cut="0.0000000000000000e+00" cType="1" res="-9.9000000000000000e+01" rms="0.0000000000000000e+00" purity="5.0297880172729492e-01" nType="1"/>
          <Node pos="r" depth="2" NCoef="0" IVar="-1" Cut="0.0000000000000000e+00" cType="1" res="-9.9000000000000000e+01" rms="0.0000000000000000e+00" purity="2.9287678003311157e-01" nType="-1"/>
        </Node>
      </Node>
    </BinaryTree>
    <BinaryTree type="DecisionTree" boostWeight="8.5372237712935228e-02" itree="21">
      <Node pos="s" depth="0" NCoef="0" IVar="28" Cut="7.7685546875000000e-01" cType="0" res="-9.9000000000000000e+01" rms="0.0000000000000000e+00" purity="4.9888324737548828e-01" nType="0">
        <Node pos="l" depth="1" NCoef="0" IVar="-1" Cut="6.4697265625000000e-01" cType="0" res="-9.9000000000000000e+01" rms="0.0000000000000000e+00" purity="6.4626944065093994e-01" nType="1"/>
        <Node pos="r" depth="1" NCoef="0" IVar="27" Cut="4.2431640625000000e-01" cType="0" res="-9.9000000000000000e+01" rms="0.0000000000000000e+00" purity="4.2011183500289917e-01" nType="0">
          <Node pos="l" depth="2" NCoef="0" IVar="-1" Cut="0.0000000000000000e+00" cType="1" res="-9.9000000000000000e+01" rms="0.0000000000000000e+00" purity="5.0270366668701172e-01" nType="1"/>
          <Node pos="r" depth="2" NCoef="0" IVar="-1" Cut="0.0000000000000000e+00" cType="1" res="-9.9000000000000000e+01" rms="0.0000000000000000e+00" purity="2.9613578319549561e-01" nType="-1"/>
        </Node>
      </Node>
    </BinaryTree>
    <BinaryTree type="DecisionTree" boostWeight="9.0825371025526125e-02" itree="22">
      <Node pos="s" depth="0" NCoef="0" IVar="26" Cut="2.2021484375000000e-01" cType="0" res="-9.9000000000000000e+01" rms="0.0000000000000000e+00" purity="4.8856645822525024e-01" nType="0">
        <Node pos="l" depth="1" NCoef="0" IVar="30" Cut="7.3974609375000000e-01" cType="0" res="-9.9000000000000000e+01" rms="0.0000000000000000e+00" purity="5.5788838863372803e-01" nType="0">
          <Node pos="l" depth="2" NCoef="0" IVar="-1" Cut="0.0000000000000000e+00" cType="1" res="-9.9000000000000000e+01" rms="0.0000000000000000e+00" purity="6.9943159818649292e-01" nType="1"/>
          <Node pos="r" depth="2" NCoef="0" IVar="-1" Cut="0.0000000000000000e+00" cType="1" res="-9.9000000000000000e+01" rms="0.0000000000000000e+00" purity="4.7608637809753418e-01" nType="-1"/>
        </Node>
        <Node pos="r" depth="1" NCoef="0" IVar="-1" Cut="0.0000000000000000e+00" cType="1" res="-9.9000000000000000e+01" rms="0.0000000000000000e+00" purity="3.3725845813751221e-01" nType="-1"/>
      </Node>
    </BinaryTree>
    <BinaryTree type="DecisionTree" boostWeight="7.8169121475631806e-02" itree="23">
      <Node pos="s" depth="0" NCoef="0" IVar="28" Cut="7.5830078125000000e-01" cType="0" res="-9.9000000000000000e+01" rms="0.0000000000000000e+00" purity="4.9985679984092712e-01" nType="0">
        <Node pos="l" depth="1" NCoef="0" IVar="-1" Cut="6.2841796875000000e-01" cType="0" res="-9.9000000000000000e+01" rms="0.0000000000000000e+00" purity="6.3440740108489990e-01" nType="1"/>
        <Node pos="r" depth="1" NCoef="0" IVar="-1" Cut="3.5009765625000000e-01" cType="0" res="-9.9000000000000000e+01" rms="0.0000000000000000e+00" purity="4.2469662427902222e-01" nType="-1"/>
      </Node>
    </BinaryTree>
    <BinaryTree type="DecisionTree" boostWeight="8.3129886511560405e-02" itree="24">
      <Node pos="s" depth="0" NCoef="0" IVar="31" Cut="9.6666664123535156e+01" cType="0" res="-9.9000000000000000e+01" rms="0.0000000000000000e+00" purity="5.0542932748794556e-01" nType="0">
        <Node pos="l" depth="1" NCoef="0" IVar="-1" Cut="0.0000000000000000e+00" cType="1" res="-9.9000000000000000e+01" rms="0.0000000000000000e+00" purity="7.4388062953948975e-01" nType="1"/>
        <Node pos="r" depth="1" NCoef="0" IVar="29" Cut="2.7587890625000000e-01" cType="0" res="-9.9000000000000000e+01" rms="0.0000000000000000e+00" purity="4.6475702524185181e-01" nType="0">
          <Node pos="l" depth="2" NCoef="0" IVar="-1" Cut="0.0000000000000000e+00" cType="1" res="-9.9000000000000000e+01" rms="0.0000000000000000e+00" purity="5.3154003620147705e-01" nType="1"/>
          <Node pos="r" depth="2" NCoef="0" IVar="-1" Cut="0.0000000000000000e+00" cType="1" res="-9.9000000000000000e+01" rms="0.0000000000000000e+00" purity="3.2097357511520386e-01" nType="-1"/>
        </Node>
      </Node>
    </BinaryTree>
    <BinaryTree type="DecisionTree" boostWeight="7.6247234168473565e-02" itree="25">
      <Node pos="s" depth="0" NCoef="0" IVar="34" Cut="9.4924253225326538e-01" cType="0" res="-9.9000000000000000e+01" rms="0.0000000000000000e+00" purity="4.9587905406951904e-01" nType="0">
        <Node pos="l" depth="1" NCoef="0" IVar="-1" Cut="0.0000000000000000e+00" cType="1" res="-9.9000000000000000e+01" rms="0.0000000000000000e+00" purity="7.6808053255081177e-01" nType="1"/>
        <Node pos="r" depth="1" NCoef="0" IVar="26" Cut="2.2021484375000000e-01" cType="0" res="-9.9000000000000000e+01" rms="0.0000000000000000e+00" purity="4.6241867542266846e-01" nType="0">
          <Node pos="l" depth="2" NCoef="0" IVar="-1" Cut="0.0000000000000000e+00" cType="1" res="-9.9000000000000000e+01" rms="0.0000000000000000e+00" purity="5.2606499195098877e-01" nType="1"/>
          <Node pos="r" depth="2" NCoef="0" IVar="-1" Cut="0.0000000000000000e+00" cType="1" res="-9.9000000000000000e+01" rms="0.0000000000000000e+00" purity="3.2994818687438965e-01" nType="-1"/>
        </Node>
      </Node>
    </BinaryTree>
    <BinaryTree type="DecisionTree" boostWeight="8.8764450647004570e-02" itree="26">
      <Node pos="s" depth="0" NCoef="0" IVar="31" Cut="9.6666664123535156e+01" cType="0" res="-9.9000000000000000e+01" rms="0.0000000000000000e+00" purity="4.8775121569633484e-01" nType="0">
        <Node pos="l" depth="1" NCoef="0" IVar="-1" Cut="0.0000000000000000e+00" cType="1" res="-9.9000000000000000e+01" rms="0.0000000000000000e+00" purity="7.1604806184768677e-01" nType="1"/>
        <Node pos="r" depth="1" NCoef="0" IVar="25" Cut="6.6552734375000000e-01" cType="0" res="-9.9000000000000000e+01" rms="0.0000000000000000e+00" purity="4.4980499148368835e-01" nType="0">
          <Node pos="l" depth="2" NCoef="0" IVar="-1" Cut="0.0000000000000000e+00" cType="1" res="-9.9000000000000000e+01" rms="0.0000000000000000e+00" purity="5.4079931974411011e-01" nType="1"/>
          <Node pos="r" depth="2" NCoef="0" IVar="-1" Cut="0.0000000000000000e+00" cType="1" res="-9.9000000000000000e+01" rms="0.0000000000000000e+00" purity="3.5696184635162354e-01" nType="-1"/>
        </Node>
      </Node>
    </BinaryTree>
    <BinaryTree type="DecisionTree" boostWeight="9.6691952019719307e-02" itree="27">
      <Node pos="s" depth="0" NCoef="0" IVar="28" Cut="2.2021484375000000e-01" cType="0" res="-9.9000000000000000e+01" rms="0.0000000000000000e+00" purity="4.8424670100212097e-01" nType="0">
        <Node pos="l" depth="1" NCoef="0" IVar="27" Cut="4.2431640625000000e-01" cType="0" res="-9.9000000000000000e+01" rms="0.0000000000000000e+00" purity="5.4837447404861450e-01" nType="0">
          <Node pos="l" depth="2" NCoef="0" IVar="-1" Cut="0.0000000000000000e+00" cType="1" res="-9.9000000000000000e+01" rms="0.0000000000000000e+00" purity="6.2141370773315430e-01" nType="1"/>
          <Node pos="r" depth="2" NCoef="0" IVar="-1" Cut="0.0000000000000000e+00" cType="1" res="-9.9000000000000000e+01" rms="0.0000000000000000e+00" purity="4.2063421010971069e-01" nType="-1"/>
        </Node>
        <Node pos="r" depth="1" NCoef="0" IVar="-1" Cut="9.0673828125000000e-01" cType="0" res="-9.9000000000000000e+01" rms="0.0000000000000000e+00" purity="3.5667422413825989e-01" nType="-1"/>
      </Node>
    </BinaryTree>
    <BinaryTree type="DecisionTree" boostWeight="9.7343510160529806e-02" itree="28">
      <Node pos="s" depth="0" NCoef="0" IVar="30" Cut="2.0166015625000000e-01" cType="0" res="-9.9000000000000000e+01" rms="0.0000000000000000e+00" purity="4.8780781030654907e-01" nType="0">
        <Node pos="l" depth="1" NCoef="0" IVar="5" Cut="2.2396137714385986e+00" cType="1" res="-9.9000000000000000e+01" rms="0.0000000000000000e+00" purity="5.5053746700286865e-01" nType="0">
          <Node pos="l" depth="2" NCoef="0" IVar="-1" Cut="0.0000000000000000e+00" cType="1" res="-9.9000000000000000e+01" rms="0.0000000000000000e+00" purity="6.2439066171646118e-01" nType="1"/>
          <Node pos="r" depth="2" NCoef="0" IVar="-1" Cut="0.0000000000000000e+00" cType="1" res="-9.9000000000000000e+01" rms="0.0000000000000000e+00" purity="4.1424405574798584e-01" nType="-1"/>
        </Node>
        <Node pos="r" depth="1" NCoef="0" IVar="-1" Cut="6.8614178895950317e-01" cType="1" res="-9.9000000000000000e+01" rms="0.0000000000000000e+00" purity="3.6382842063903809e-01" nType="-1"/>
      </Node>
    </BinaryTree>
    <BinaryTree type="DecisionTree" boostWeight="7.5690826782256901e-02" itree="29">
      <Node pos="s" depth="0" NCoef="0" IVar="34" Cut="9.4924253225326538e-01" cType="0" res="-9.9000000000000000e+01" rms="0.0000000000000000e+00" purity="4.9107638001441956e-01" nType="0">
        <Node pos="l" depth="1" NCoef="0" IVar="-1" Cut="0.0000000000000000e+00" cType="1" res="-9.9000000000000000e+01" rms="0.0000000000000000e+00" purity="7.3729848861694336e-01" nType="1"/>
        <Node pos="r" depth="1" NCoef="0" IVar="29" Cut="5.7275390625000000e-01" cType="0" res="-9.9000000000000000e+01" rms="0.0000000000000000e+00" purity="4.6144744753837585e-01" nType="0">
          <Node pos="l" depth="2" NCoef="0" IVar="-1" Cut="0.0000000000000000e+00" cType="1" res="-9.9000000000000000e+01" rms="0.0000000000000000e+00" purity="5.3407919406890869e-01" nType="1"/>
          <Node pos="r" depth="2" NCoef="0" IVar="-1" Cut="0.0000000000000000e+00" cType="1" res="-9.9000000000000000e+01" rms="0.0000000000000000e+00" purity="3.7184679508209229e-01" nType="-1"/>
        </Node>
      </Node>
    </BinaryTree>
    <BinaryTree type="DecisionTree" boostWeight="5.3070131654686360e-02" itree="30">
      <Node pos="s" depth="0" NCoef="0" IVar="31" Cut="1.1600000000000000e+02" cType="0" res="-9.9000000000000000e+01" rms="0.0000000000000000e+00" purity="4.8718845844268799e-01" nType="0">
        <Node pos="l" depth="1" NCoef="0" IVar="-1" Cut="0.0000000000000000e+00" cType="1" res="-9.9000000000000000e+01" rms="0.0000000000000000e+00" purity="7.1912062168121338e-01" nType="1"/>
        <Node pos="r" depth="1" NCoef="0" IVar="1" Cut="1.7280143737792969e+02" cType="1" res="-9.9000000000000000e+01" rms="0.0000000000000000e+00" purity="4.5773336291313171e-01" nType="0">
          <Node pos="l" depth="2" NCoef="0" IVar="-1" Cut="0.0000000000000000e+00" cType="1" res="-9.9000000000000000e+01" rms="0.0000000000000000e+00" purity="5.0277441740036011e-01" nType="1"/>
          <Node pos="r" depth="2" NCoef="0" IVar="-1" Cut="0.0000000000000000e+00" cType="1" res="-9.9000000000000000e+01" rms="0.0000000000000000e+00" purity="3.1296044588088989e-01" nType="-1"/>
        </Node>
      </Node>
    </BinaryTree>
    <BinaryTree type="DecisionTree" boostWeight="8.6718002600889674e-02" itree="31">
      <Node pos="s" depth="0" NCoef="0" IVar="31" Cut="1.1600000000000000e+02" cType="0" res="-9.9000000000000000e+01" rms="0.0000000000000000e+00" purity="4.7943773865699768e-01" nType="0">
        <Node pos="l" depth="1" NCoef="0" IVar="-1" Cut="0.0000000000000000e+00" cType="1" res="-9.9000000000000000e+01" rms="0.0000000000000000e+00" purity="7.0827770233154297e-01" nType="1"/>
        <Node pos="r" depth="1" NCoef="0" IVar="26" Cut="9.2529296875000000e-01" cType="0" res="-9.9000000000000000e+01" rms="0.0000000000000000e+00" purity="4.5064219832420349e-01" nType="0">
          <Node pos="l" depth="2" NCoef="0" IVar="-1" Cut="0.0000000000000000e+00" cType="1" res="-9.9000000000000000e+01" rms="0.0000000000000000e+00" purity="5.8292949199676514e-01" nType="1"/>
          <Node pos="r" depth="2" NCoef="0" IVar="-1" Cut="0.0000000000000000e+00" cType="1" res="-9.9000000000000000e+01" rms="0.0000000000000000e+00" purity="4.0199360251426697e-01" nType="-1"/>
        </Node>
      </Node>
    </BinaryTree>
    <BinaryTree type="DecisionTree" boostWeight="8.5156061853091131e-02" itree="32">
      <Node pos="s" depth="0" NCoef="0" IVar="13" Cut="1.1762417554855347e+00" cType="1" res="-9.9000000000000000e+01" rms="0.0000000000000000e+00" purity="4.8578047752380371e-01" nType="0">
        <Node pos="l" depth="1" NCoef="0" IVar="4" Cut="1.5947483777999878e+00" cType="1" res="-9.9000000000000000e+01" rms="0.0000000000000000e+00" purity="5.3835827112197876e-01" nType="0">
          <Node pos="l" depth="2" NCoef="0" IVar="-1" Cut="0.0000000000000000e+00" cType="1" res="-9.9000000000000000e+01" rms="0.0000000000000000e+00" purity="6.1776751279830933e-01" nType="1"/>
          <Node pos="r" depth="2" NCoef="0" IVar="-1" Cut="0.0000000000000000e+00" cType="1" res="-9.9000000000000000e+01" rms="0.0000000000000000e+00" purity="4.3615317344665527e-01" nType="-1"/>
        </Node>
        <Node pos="r" depth="1" NCoef="0" IVar="-1" Cut="6.6552734375000000e-01" cType="0" res="-9.9000000000000000e+01" rms="0.0000000000000000e+00" purity="3.7204334139823914e-01" nType="-1"/>
      </Node>
    </BinaryTree>
    <BinaryTree type="DecisionTree" boostWeight="6.1156125863068837e-02" itree="33">
      <Node pos="s" depth="0" NCoef="0" IVar="30" Cut="7.7685546875000000e-01" cType="0" res="-9.9000000000000000e+01" rms="0.0000000000000000e+00" purity="4.9059638381004333e-01" nType="0">
        <Node pos="l" depth="1" NCoef="0" IVar="-1" Cut="7.7685546875000000e-01" cType="0" res="-9.9000000000000000e+01" rms="0.0000000000000000e+00" purity="5.9774684906005859e-01" nType="1"/>
        <Node pos="r" depth="1" NCoef="0" IVar="-1" Cut="1.8310546875000000e-01" cType="0" res="-9.9000000000000000e+01" rms="0.0000000000000000e+00" purity="4.3541830778121948e-01" nType="-1"/>
      </Node>
    </BinaryTree>
    <BinaryTree type="DecisionTree" boostWeight="7.8167449768657041e-02" itree="34">
      <Node pos="s" depth="0" NCoef="0" IVar="27" Cut="1.8310546875000000e-01" cType="0" res="-9.9000000000000000e+01" rms="0.0000000000000000e+00" purity="4.9546888470649719e-01" nType="0">
        <Node pos="l" depth="1" NCoef="0" IVar="14" Cut="1.6173325777053833e+00" cType="1" res="-9.9000000000000000e+01" rms="0.0000000000000000e+00" purity="5.3613418340682983e-01" nType="0">
          <Node pos="l" depth="2" NCoef="0" IVar="-1" Cut="0.0000000000000000e+00" cType="1" res="-9.9000000000000000e+01" rms="0.0000000000000000e+00" purity="5.7262837886810303e-01" nType="1"/>
          <Node pos="r" depth="2" NCoef="0" IVar="-1" Cut="0.0000000000000000e+00" cType="1" res="-9.9000000000000000e+01" rms="0.0000000000000000e+00" purity="3.7652829289436340e-01" nType="-1"/>
        </Node>
        <Node pos="r" depth="1" NCoef="0" IVar="-1" Cut="0.0000000000000000e+00" cType="1" res="-9.9000000000000000e+01" rms="0.0000000000000000e+00" purity="3.5313507914543152e-01" nType="-1"/>
      </Node>
    </BinaryTree>
    <BinaryTree type="DecisionTree" boostWeight="7.4249143639415802e-02" itree="35">
      <Node pos="s" depth="0" NCoef="0" IVar="28" Cut="1.0888671875000000e-01" cType="0" res="-9.9000000000000000e+01" rms="0.0000000000000000e+00" purity="4.9019798636436462e-01" nType="0">
        <Node pos="l" depth="1" NCoef="0" IVar="1" Cut="8.9319458007812500e+01" cType="0" res="-9.9000000000000000e+01" rms="0.0000000000000000e+00" purity="5.2531892061233521e-01" nType="0">
          <Node pos="l" depth="2" NCoef="0" IVar="-1" Cut="0.0000000000000000e+00" cType="1" res="-9.9000000000000000e+01" rms="0.0000000000000000e+00" purity="5.6005853414535522e-01" nType="1"/>
          <Node pos="r" depth="2" NCoef="0" IVar="-1" Cut="0.0000000000000000e+00" cType="1" res="-9.9000000000000000e+01" rms="0.0000000000000000e+00" purity="3.4791901707649231e-01" nType="-1"/>
        </Node>
        <Node pos="r" depth="1" NCoef="0" IVar="-1" Cut="0.0000000000000000e+00" cType="1" res="-9.9000000000000000e+01" rms="0.0000000000000000e+00" purity="3.3451396226882935e-01" nType="-1"/>
      </Node>
    </BinaryTree>
    <BinaryTree type="DecisionTree" boostWeight="4.5099041442707460e-02" itree="36">
      <Node pos="s" depth="0" NCoef="0" IVar="34" Cut="9.4924253225326538e-01" cType="0" res="-9.9000000000000000e+01" rms="0.0000000000000000e+00" purity="4.8331907391548157e-01" nType="0">
        <Node pos="l" depth="1" NCoef="0" IVar="-1" Cut="0.0000000000000000e+00" cType="1" res="-9.9000000000000000e+01" rms="0.0000000000000000e+00" purity="6.8938732147216797e-01" nType="1"/>
        <Node pos="r" depth="1" NCoef="0" IVar="25" Cut="1.8310546875000000e-01" cType="0" res="-9.9000000000000000e+01" rms="0.0000000000000000e+00" purity="4.5937046408653259e-01" nType="0">
          <Node pos="l" depth="2" NCoef="0" IVar="-1" Cut="0.0000000000000000e+00" cType="1" res="-9.9000000000000000e+01" rms="0.0000000000000000e+00" purity="5.0001358985900879e-01" nType="1"/>
          <Node pos="r" depth="2" NCoef="0" IVar="-1" Cut="0.0000000000000000e+00" cType="1" res="-9.9000000000000000e+01" rms="0.0000000000000000e+00" purity="3.3486089110374451e-01" nType="-1"/>
        </Node>
      </Node>
    </BinaryTree>
    <BinaryTree type="DecisionTree" boostWeight="7.5273235079617140e-02" itree="37">
      <Node pos="s" depth="0" NCoef="0" IVar="29" Cut="9.4384765625000000e-01" cType="0" res="-9.9000000000000000e+01" rms="0.0000000000000000e+00" purity="4.7695860266685486e-01" nType="0">
        <Node pos="l" depth="1" NCoef="0" IVar="27" Cut="7.9541015625000000e-01" cType="0" res="-9.9000000000000000e+01" rms="0.0000000000000000e+00" purity="5.7204335927963257e-01" nType="0">
          <Node pos="l" depth="2" NCoef="0" IVar="-1" Cut="0.0000000000000000e+00" cType="1" res="-9.9000000000000000e+01" rms="0.0000000000000000e+00" purity="6.8515372276306152e-01" nType="1"/>
          <Node pos="r" depth="2" NCoef="0" IVar="-1" Cut="0.0000000000000000e+00" cType="1" res="-9.9000000000000000e+01" rms="0.0000000000000000e+00" purity="4.7840258479118347e-01" nType="-1"/>
        </Node>
        <Node pos="r" depth="1" NCoef="0" IVar="26" Cut="7.5830078125000000e-01" cType="0" res="-9.9000000000000000e+01" rms="0.0000000000000000e+00" purity="4.2625516653060913e-01" nType="0">
          <Node pos="l" depth="2" NCoef="0" IVar="-1" Cut="0.0000000000000000e+00" cType="1" res="-9.9000000000000000e+01" rms="0.0000000000000000e+00" purity="5.2502095699310303e-01" nType="1"/>
          <Node pos="r" depth="2" NCoef="0" IVar="-1" Cut="0.0000000000000000e+00" cType="1" res="-9.9000000000000000e+01" rms="0.0000000000000000e+00" purity="3.7161764502525330e-01" nType="-1"/>
        </Node>
      </Node>
    </BinaryTree>
    <BinaryTree type="DecisionTree" boostWeight="6.8181365146497169e-02" itree="38">
      <Node pos="s" depth="0" NCoef="0" IVar="10" Cut="5.6211090087890625e+01" cType="0" res="-9.9000000000000000e+01" rms="0.0000000000000000e+00" purity="4.8097044229507446e-01" nType="0">
        <Node pos="l" depth="1" NCoef="0" IVar="1" Cut="1.4761451721191406e+02" cType="1" res="-9.9000000000000000e+01" rms="0.0000000000000000e+00" purity="5.8369034528732300e-01" nType="0">
          <Node pos="l" depth="2" NCoef="0" IVar="-1" Cut="0.0000000000000000e+00" cType="1" res="-9.9000000000000000e+01" rms="0.0000000000000000e+00" purity="6.6825628280639648e-01" nType="1"/>
          <Node pos="r" depth="2" NCoef="0" IVar="-1" Cut="0.0000000000000000e+00" cType="1" res="-9.9000000000000000e+01" rms="0.0000000000000000e+00" purity="4.8802199959754944e-01" nType="-1"/>
        </Node>
        <Node pos="r" depth="1" NCoef="0" IVar="13" Cut="8.3317178487777710e-01" cType="1" res="-9.9000000000000000e+01" rms="0.0000000000000000e+00" purity="4.3422904610633850e-01" nType="0">
          <Node pos="l" depth="2" NCoef="0" IVar="-1" Cut="0.0000000000000000e+00" cType="1" res="-9.9000000000000000e+01" rms="0.0000000000000000e+00" purity="5.1415723562240601e-01" nType="1"/>
          <Node pos="r" depth="2" NCoef="0" IVar="-1" Cut="0.0000000000000000e+00" cType="1" res="-9.9000000000000000e+01" rms="0.0000000000000000e+00" purity="3.5766392946243286e-01" nType="-1"/>
        </Node>
      </Node>
    </BinaryTree>
    <BinaryTree type="DecisionTree" boostWeight="5.7353559686692417e-02" itree="39">
      <Node pos="s" depth="0" NCoef="0" IVar="10" Cut="5.6211090087890625e+01" cType="0" res="-9.9000000000000000e+01" rms="0.0000000000000000e+00" purity="4.8078328371047974e-01" nType="0">
        <Node pos="l" depth="1" NCoef="0" IVar="-1" Cut="8.5107421875000000e-01" cType="0" res="-9.9000000000000000e+01" rms="0.0000000000000000e+00" purity="5.8317887783050537e-01" nType="1"/>
        <Node pos="r" depth="1" NCoef="0" IVar="-1" Cut="2.6398897171020508e+01" cType="0" res="-9.9000000000000000e+01" rms="0.0000000000000000e+00" purity="4.3423834443092346e-01" nType="-1"/>
      </Node>
    </BinaryTree>
    <BinaryTree type="DecisionTree" boostWeight="7.1772246796724504e-02" itree="40">
      <Node pos="s" depth="0" NCoef="0" IVar="29" Cut="1.4599609375000000e-01" cType="0" res="-9.9000000000000000e+01" rms="0.0000000000000000e+00" purity="4.8610177636146545e-01" nType="0">
        <Node pos="l" depth="1" NCoef="0" IVar="4" Cut="1.5827896595001221e+00" cType="1" res="-9.9000000000000000e+01" rms="0.0000000000000000e+00" purity="5.1905363798141479e-01" nType="0">
          <Node pos="l" depth="2" NCoef="0" IVar="-1" Cut="0.0000000000000000e+00" cType="1" res="-9.9000000000000000e+01" rms="0.0000000000000000e+00" purity="5.8590757846832275e-01" nType="1"/>
          <Node pos="r" depth="2" NCoef="0" IVar="-1" Cut="0.0000000000000000e+00" cType="1" res="-9.9000000000000000e+01" rms="0.0000000000000000e+00" purity="4.4181945919990540e-01" nType="-1"/>
        </Node>
        <Node pos="r" depth="1" NCoef="0" IVar="-1" Cut="0.0000000000000000e+00" cType="1" res="-9.9000000000000000e+01" rms="0.0000000000000000e+00" purity="3.4292086958885193e-01" nType="-1"/>
      </Node>
    </BinaryTree>
    <BinaryTree type="DecisionTree" boostWeight="7.2969887186295213e-02" itree="41">
      <Node pos="s" depth="0" NCoef="0" IVar="30" Cut="2.5732421875000000e-01" cType="0" res="-9.9000000000000000e+01" rms="0.0000000000000000e+00" purity="4.8833256959915161e-01" nType="0">
        <Node pos="l" depth="1" NCoef="0" IVar="17" Cut="1.4703030586242676e+00" cType="1" res="-9.9000000000000000e+01" rms="0.0000000000000000e+00" purity="5.4137021303176880e-01" nType="0">
          <Node pos="l" depth="2" NCoef="0" IVar="-1" Cut="0.0000000000000000e+00" cType="1" res="-9.9000000000000000e+01" rms="0.0000000000000000e+00" purity="5.8396786451339722e-01" nType="1"/>
          <Node pos="r" depth="2" NCoef="0" IVar="-1" Cut="0.0000000000000000e+00" cType="1" res="-9.9000000000000000e+01" rms="0.0000000000000000e+00" purity="4.0872508287429810e-01" nType="-1"/>
        </Node>
        <Node pos="r" depth="1" NCoef="0" IVar="-1" Cut="8.3251953125000000e-01" cType="0" res="-9.9000000000000000e+01" rms="0.0000000000000000e+00" purity="4.0255740284919739e-01" nType="-1"/>
      </Node>
    </BinaryTree>
    <BinaryTree type="DecisionTree" boostWeight="5.2737739510042882e-02" itree="42">
      <Node pos="s" depth="0" NCoef="0" IVar="29" Cut="9.4384765625000000e-01" cType="0" res="-9.9000000000000000e+01" rms="0.0000000000000000e+00" purity="4.8944038152694702e-01" nType="0">
        <Node pos="l" depth="1" NCoef="0" IVar="-1" Cut="7.7685546875000000e-01" cType="0" res="-9.9000000000000000e+01" rms="0.0000000000000000e+00" purity="5.7905584573745728e-01" nType="1"/>
        <Node pos="r" depth="1" NCoef="0" IVar="-1" Cut="1.8310546875000000e-01" cType="0" res="-9.9000000000000000e+01" rms="0.0000000000000000e+00" purity="4.4166168570518494e-01" nType="-1"/>
      </Node>
    </BinaryTree>
    <BinaryTree type="DecisionTree" boostWeight="5.1224525638623786e-02" itree="43">
      <Node pos="s" depth="0" NCoef="0" IVar="28" Cut="7.9541015625000000e-01" cType="0" res="-9.9000000000000000e+01" rms="0.0000000000000000e+00" purity="4.9343144893646240e-01" nType="0">
        <Node pos="l" depth="1" NCoef="0" IVar="-1" Cut="5.7034618377685547e+01" cType="0" res="-9.9000000000000000e+01" rms="0.0000000000000000e+00" purity="5.8498275279998779e-01" nType="1"/>
        <Node pos="r" depth="1" NCoef="0" IVar="-1" Cut="3.2427082061767578e+01" cType="0" res="-9.9000000000000000e+01" rms="0.0000000000000000e+00" purity="4.4709703326225281e-01" nType="-1"/>
      </Node>
    </BinaryTree>
    <BinaryTree type="DecisionTree" boostWeight="6.4956741327792195e-02" itree="44">
      <Node pos="s" depth="0" NCoef="0" IVar="26" Cut="1.2744140625000000e-01" cType="0" res="-9.9000000000000000e+01" rms="0.0000000000000000e+00" purity="4.9762228131294250e-01" nType="0">
        <Node pos="l" depth="1" NCoef="0" IVar="27" Cut="6.8408203125000000e-01" cType="0" res="-9.9000000000000000e+01" rms="0.0000000000000000e+00" purity="5.2957111597061157e-01" nType="0">
          <Node pos="l" depth="2" NCoef="0" IVar="-1" Cut="0.0000000000000000e+00" cType="1" res="-9.9000000000000000e+01" rms="0.0000000000000000e+00" purity="5.9301567077636719e-01" nType="1"/>
          <Node pos="r" depth="2" NCoef="0" IVar="-1" Cut="0.0000000000000000e+00" cType="1" res="-9.9000000000000000e+01" rms="0.0000000000000000e+00" purity="4.5966652035713196e-01" nType="-1"/>
        </Node>
        <Node pos="r" depth="1" NCoef="0" IVar="-1" Cut="0.0000000000000000e+00" cType="1" res="-9.9000000000000000e+01" rms="0.0000000000000000e+00" purity="3.6904895305633545e-01" nType="-1"/>
      </Node>
    </BinaryTree>
    <BinaryTree type="DecisionTree" boostWeight="4.9978872256522255e-02" itree="45">
      <Node pos="s" depth="0" NCoef="0" IVar="34" Cut="9.4924253225326538e-01" cType="0" res="-9.9000000000000000e+01" rms="0.0000000000000000e+00" purity="5.0022453069686890e-01" nType="0">
        <Node pos="l" depth="1" NCoef="0" IVar="-1" Cut="0.0000000000000000e+00" cType="1" res="-9.9000000000000000e+01" rms="0.0000000000000000e+00" purity="6.7952316999435425e-01" nType="1"/>
        <Node pos="r" depth="1" NCoef="0" IVar="54" Cut="3.0882352828979492e+01" cType="1" res="-9.9000000000000000e+01" rms="0.0000000000000000e+00" purity="4.7913876175880432e-01" nType="0">
          <Node pos="l" depth="2" NCoef="0" IVar="-1" Cut="0.0000000000000000e+00" cType="1" res="-9.9000000000000000e+01" rms="0.0000000000000000e+00" purity="5.1912188529968262e-01" nType="1"/>
          <Node pos="r" depth="2" NCoef="0" IVar="-1" Cut="0.0000000000000000e+00" cType="1" res="-9.9000000000000000e+01" rms="0.0000000000000000e+00" purity="3.7698051333427429e-01" nType="-1"/>
        </Node>
      </Node>
    </BinaryTree>
    <BinaryTree type="DecisionTree" boostWeight="6.0670035302862892e-02" itree="46">
      <Node pos="s" depth="0" NCoef="0" IVar="12" Cut="3.2427082061767578e+01" cType="0" res="-9.9000000000000000e+01" rms="0.0000000000000000e+00" purity="4.9400213360786438e-01" nType="0">
        <Node pos="l" depth="1" NCoef="0" IVar="25" Cut="8.3251953125000000e-01" cType="0" res="-9.9000000000000000e+01" rms="0.0000000000000000e+00" purity="5.3809976577758789e-01" nType="0">
          <Node pos="l" depth="2" NCoef="0" IVar="-1" Cut="0.0000000000000000e+00" cType="1" res="-9.9000000000000000e+01" rms="0.0000000000000000e+00" purity="6.1779266595840454e-01" nType="1"/>
          <Node pos="r" depth="2" NCoef="0" IVar="-1" Cut="0.0000000000000000e+00" cType="1" res="-9.9000000000000000e+01" rms="0.0000000000000000e+00" purity="4.7768071293830872e-01" nType="-1"/>
        </Node>
        <Node pos="r" depth="1" NCoef="0" IVar="13" Cut="5.8812332153320312e-01" cType="1" res="-9.9000000000000000e+01" rms="0.0000000000000000e+00" purity="4.1198727488517761e-01" nType="0">
          <Node pos="l" depth="2" NCoef="0" IVar="-1" Cut="0.0000000000000000e+00" cType="1" res="-9.9000000000000000e+01" rms="0.0000000000000000e+00" purity="5.1355093717575073e-01" nType="1"/>
          <Node pos="r" depth="2" NCoef="0" IVar="-1" Cut="0.0000000000000000e+00" cType="1" res="-9.9000000000000000e+01" rms="0.0000000000000000e+00" purity="3.6028304696083069e-01" nType="-1"/>
        </Node>
      </Node>
    </BinaryTree>
    <BinaryTree type="DecisionTree" boostWeight="5.2702605877820691e-02" itree="47">
      <Node pos="s" depth="0" NCoef="0" IVar="31" Cut="1.1600000000000000e+02" cType="0" res="-9.9000000000000000e+01" rms="0.0000000000000000e+00" purity="4.9706998467445374e-01" nType="0">
        <Node pos="l" depth="1" NCoef="0" IVar="-1" Cut="0.0000000000000000e+00" cType="1" res="-9.9000000000000000e+01" rms="0.0000000000000000e+00" purity="6.6434830427169800e-01" nType="1"/>
        <Node pos="r" depth="1" NCoef="0" IVar="10" Cut="3.3093750000000000e+01" cType="0" res="-9.9000000000000000e+01" rms="0.0000000000000000e+00" purity="4.7599601745605469e-01" nType="0">
          <Node pos="l" depth="2" NCoef="0" IVar="-1" Cut="0.0000000000000000e+00" cType="1" res="-9.9000000000000000e+01" rms="0.0000000000000000e+00" purity="5.2237212657928467e-01" nType="1"/>
          <Node pos="r" depth="2" NCoef="0" IVar="-1" Cut="0.0000000000000000e+00" cType="1" res="-9.9000000000000000e+01" rms="0.0000000000000000e+00" purity="3.9021608233451843e-01" nType="-1"/>
        </Node>
      </Node>
    </BinaryTree>
    <BinaryTree type="DecisionTree" boostWeight="6.5385443634126503e-02" itree="48">
      <Node pos="s" depth="0" NCoef="0" IVar="12" Cut="3.2427082061767578e+01" cType="0" res="-9.9000000000000000e+01" rms="0.0000000000000000e+00" purity="4.9208071827888489e-01" nType="0">
        <Node pos="l" depth="1" NCoef="0" IVar="8" Cut="3.8525123596191406e+01" cType="0" res="-9.9000000000000000e+01" rms="0.0000000000000000e+00" purity="5.3480434417724609e-01" nType="0">
          <Node pos="l" depth="2" NCoef="0" IVar="-1" Cut="0.0000000000000000e+00" cType="1" res="-9.9000000000000000e+01" rms="0.0000000000000000e+00" purity="5.9153169393539429e-01" nType="1"/>
          <Node pos="r" depth="2" NCoef="0" IVar="-1" Cut="0.0000000000000000e+00" cType="1" res="-9.9000000000000000e+01" rms="0.0000000000000000e+00" purity="4.5114412903785706e-01" nType="-1"/>
        </Node>
        <Node pos="r" depth="1" NCoef="0" IVar="28" Cut="7.5830078125000000e-01" cType="0" res="-9.9000000000000000e+01" rms="0.0000000000000000e+00" purity="4.1251122951507568e-01" nType="0">
          <Node pos="l" depth="2" NCoef="0" IVar="-1" Cut="0.0000000000000000e+00" cType="1" res="-9.9000000000000000e+01" rms="0.0000000000000000e+00" purity="5.0921934843063354e-01" nType="1"/>
          <Node pos="r" depth="2" NCoef="0" IVar="-1" Cut="0.0000000000000000e+00" cType="1" res="-9.9000000000000000e+01" rms="0.0000000000000000e+00" purity="3.6533093452453613e-01" nType="-1"/>
        </Node>
      </Node>
    </BinaryTree>
    <BinaryTree type="DecisionTree" boostWeight="6.4873556288074632e-02" itree="49">
      <Node pos="s" depth="0" NCoef="0" IVar="26" Cut="1.2744140625000000e-01" cType="0" res="-9.9000000000000000e+01" rms="0.0000000000000000e+00" purity="4.9196341633796692e-01" nType="0">
        <Node pos="l" depth="1" NCoef="0" IVar="1" Cut="1.5523275756835938e+02" cType="1" res="-9.9000000000000000e+01" rms="0.0000000000000000e+00" purity="5.2035248279571533e-01" nType="0">
          <Node pos="l" depth="2" NCoef="0" IVar="-1" Cut="0.0000000000000000e+00" cType="1" res="-9.9000000000000000e+01" rms="0.0000000000000000e+00" purity="5.6687873601913452e-01" nType="1"/>
          <Node pos="r" depth="2" NCoef="0" IVar="-1" Cut="0.0000000000000000e+00" cType="1" res="-9.9000000000000000e+01" rms="0.0000000000000000e+00" purity="4.2332750558853149e-01" nType="-1"/>
        </Node>
        <Node pos="r" depth="1" NCoef="0" IVar="-1" Cut="0.0000000000000000e+00" cType="1" res="-9.9000000000000000e+01" rms="0.0000000000000000e+00" purity="3.7819179892539978e-01" nType="-1"/>
      </Node>
    </BinaryTree>
    <BinaryTree type="DecisionTree" boostWeight="5.7970641971437614e-02" itree="50">
      <Node pos="s" depth="0" NCoef="0" IVar="30" Cut="7.7685546875000000e-01" cType="0" res="-9.9000000000000000e+01" rms="0.0000000000000000e+00" purity="4.9058759212493896e-01" nType="0">
        <Node pos="l" depth="1" NCoef="0" IVar="-1" Cut="7.7685546875000000e-01" cType="0" res="-9.9000000000000000e+01" rms="0.0000000000000000e+00" purity="5.6998884677886963e-01" nType="1"/>
        <Node pos="r" depth="1" NCoef="0" IVar="29" Cut="9.2529296875000000e-01" cType="0" res="-9.9000000000000000e+01" rms="0.0000000000000000e+00" purity="4.5023840665817261e-01" nType="0">
          <Node pos="l" depth="2" NCoef="0" IVar="-1" Cut="0.0000000000000000e+00" cType="1" res="-9.9000000000000000e+01" rms="0.0000000000000000e+00" purity="5.3269720077514648e-01" nType="1"/>
          <Node pos="r" depth="2" NCoef="0" IVar="-1" Cut="0.0000000000000000e+00" cType="1" res="-9.9000000000000000e+01" rms="0.0000000000000000e+00" purity="4.0489846467971802e-01" nType="-1"/>
        </Node>
      </Node>
    </BinaryTree>
    <BinaryTree type="DecisionTree" boostWeight="4.1546804006180230e-02" itree="51">
      <Node pos="s" depth="0" NCoef="0" IVar="31" Cut="1.1600000000000000e+02" cType="0" res="-9.9000000000000000e+01" rms="0.0000000000000000e+00" purity="4.8844784498214722e-01" nType="0">
        <Node pos="l" depth="1" NCoef="0" IVar="-1" Cut="0.0000000000000000e+00" cType="1" res="-9.9000000000000000e+01" rms="0.0000000000000000e+00" purity="6.4645355939865112e-01" nType="1"/>
        <Node pos="r" depth="1" NCoef="0" IVar="25" Cut="2.7587890625000000e-01" cType="0" res="-9.9000000000000000e+01" rms="0.0000000000000000e+00" purity="4.6864145994186401e-01" nType="0">
          <Node pos="l" depth="2" NCoef="0" IVar="-1" Cut="0.0000000000000000e+00" cType="1" res="-9.9000000000000000e+01" rms="0.0000000000000000e+00" purity="5.0617086887359619e-01" nType="1"/>
          <Node pos="r" depth="2" NCoef="0" IVar="-1" Cut="0.0000000000000000e+00" cType="1" res="-9.9000000000000000e+01" rms="0.0000000000000000e+00" purity="3.8505801558494568e-01" nType="-1"/>
        </Node>
      </Node>
    </BinaryTree>
    <BinaryTree type="DecisionTree" boostWeight="6.6934397712166638e-02" itree="52">
      <Node pos="s" depth="0" NCoef="0" IVar="2" Cut="8.2537246704101562e+01" cType="0" res="-9.9000000000000000e+01" rms="0.0000000000000000e+00" purity="4.8374694585800171e-01" nType="0">
        <Node pos="l" depth="1" NCoef="0" IVar="5" Cut="2.1629436016082764e+00" cType="1" res="-9.9000000000000000e+01" rms="0.0000000000000000e+00" purity="5.0566565990447998e-01" nType="0">
          <Node pos="l" depth="2" NCoef="0" IVar="-1" Cut="0.0000000000000000e+00" cType="1" res="-9.9000000000000000e+01" rms="0.0000000000000000e+00" purity="5.6743818521499634e-01" nType="1"/>
          <Node pos="r" depth="2" NCoef="0" IVar="-1" Cut="0.0000000000000000e+00" cType="1" res="-9.9000000000000000e+01" rms="0.0000000000000000e+00" purity="4.2301940917968750e-01" nType="-1"/>
        </Node>
        <Node pos="r" depth="1" NCoef="0" IVar="-1" Cut="0.0000000000000000e+00" cType="1" res="-9.9000000000000000e+01" rms="0.0000000000000000e+00" purity="3.4519496560096741e-01" nType="-1"/>
      </Node>
    </BinaryTree>
    <BinaryTree type="DecisionTree" boostWeight="5.3003027121919503e-02" itree="53">
      <Node pos="s" depth="0" NCoef="0" IVar="12" Cut="3.2427082061767578e+01" cType="0" res="-9.9000000000000000e+01" rms="0.0000000000000000e+00" purity="4.8385471105575562e-01" nType="0">
        <Node pos="l" depth="1" NCoef="0" IVar="27" Cut="9.6240234375000000e-01" cType="0" res="-9.9000000000000000e+01" rms="0.0000000000000000e+00" purity="5.2387988567352295e-01" nType="0">
          <Node pos="l" depth="2" NCoef="0" IVar="-1" Cut="0.0000000000000000e+00" cType="1" res="-9.9000000000000000e+01" rms="0.0000000000000000e+00" purity="6.1940646171569824e-01" nType="1"/>
          <Node pos="r" depth="2" NCoef="0" IVar="-1" Cut="0.0000000000000000e+00" cType="1" res="-9.9000000000000000e+01" rms="0.0000000000000000e+00" purity="4.7898930311203003e-01" nType="-1"/>
        </Node>
        <Node pos="r" depth="1" NCoef="0" IVar="-1" Cut="9.8020303249359131e-01" cType="1" res="-9.9000000000000000e+01" rms="0.0000000000000000e+00" purity="4.0910223126411438e-01" nType="-1"/>
      </Node>
    </BinaryTree>
    <BinaryTree type="DecisionTree" boostWeight="5.5576700567732389e-02" itree="54">
      <Node pos="s" depth="0" NCoef="0" IVar="18" Cut="1.5683213472366333e+00" cType="1" res="-9.9000000000000000e+01" rms="0.0000000000000000e+00" purity="4.9155628681182861e-01" nType="0">
        <Node pos="l" depth="1" NCoef="0" IVar="1" Cut="8.9319458007812500e+01" cType="0" res="-9.9000000000000000e+01" rms="0.0000000000000000e+00" purity="5.2190464735031128e-01" nType="0">
          <Node pos="l" depth="2" NCoef="0" IVar="-1" Cut="0.0000000000000000e+00" cType="1" res="-9.9000000000000000e+01" rms="0.0000000000000000e+00" purity="5.4783421754837036e-01" nType="1"/>
          <Node pos="r" depth="2" NCoef="0" IVar="-1" Cut="0.0000000000000000e+00" cType="1" res="-9.9000000000000000e+01" rms="0.0000000000000000e+00" purity="3.8495644927024841e-01" nType="-1"/>
        </Node>
        <Node pos="r" depth="1" NCoef="0" IVar="-1" Cut="9.2529296875000000e-01" cType="0" res="-9.9000000000000000e+01" rms="0.0000000000000000e+00" purity="3.9895361661911011e-01" nType="-1"/>
      </Node>
    </BinaryTree>
    <BinaryTree type="DecisionTree" boostWeight="5.3570616452923450e-02" itree="55">
      <Node pos="s" depth="0" NCoef="0" IVar="29" Cut="1.4599609375000000e-01" cType="0" res="-9.9000000000000000e+01" rms="0.0000000000000000e+00" purity="4.8780721426010132e-01" nType="0">
        <Node pos="l" depth="1" NCoef="0" IVar="8" Cut="3.7936885833740234e+01" cType="0" res="-9.9000000000000000e+01" rms="0.0000000000000000e+00" purity="5.1225286722183228e-01" nType="0">
          <Node pos="l" depth="2" NCoef="0" IVar="-1" Cut="0.0000000000000000e+00" cType="1" res="-9.9000000000000000e+01" rms="0.0000000000000000e+00" purity="5.5418705940246582e-01" nType="1"/>
          <Node pos="r" depth="2" NCoef="0" IVar="-1" Cut="0.0000000000000000e+00" cType="1" res="-9.9000000000000000e+01" rms="0.0000000000000000e+00" purity="4.4547787308692932e-01" nType="-1"/>
        </Node>
        <Node pos="r" depth="1" NCoef="0" IVar="-1" Cut="0.0000000000000000e+00" cType="1" res="-9.9000000000000000e+01" rms="0.0000000000000000e+00" purity="3.7882393598556519e-01" nType="-1"/>
      </Node>
    </BinaryTree>
    <BinaryTree type="DecisionTree" boostWeight="5.3498039825342514e-02" itree="56">
      <Node pos="s" depth="0" NCoef="0" IVar="13" Cut="1.5683218240737915e+00" cType="1" res="-9.9000000000000000e+01" rms="0.0000000000000000e+00" purity="4.8771750926971436e-01" nType="0">
        <Node pos="l" depth="1" NCoef="0" IVar="15" Cut="1.4212912321090698e+00" cType="1" res="-9.9000000000000000e+01" rms="0.0000000000000000e+00" purity="5.1065266132354736e-01" nType="0">
          <Node pos="l" depth="2" NCoef="0" IVar="-1" Cut="0.0000000000000000e+00" cType="1" res="-9.9000000000000000e+01" rms="0.0000000000000000e+00" purity="5.4137635231018066e-01" nType="1"/>
          <Node pos="r" depth="2" NCoef="0" IVar="-1" Cut="0.0000000000000000e+00" cType="1" res="-9.9000000000000000e+01" rms="0.0000000000000000e+00" purity="3.9808103442192078e-01" nType="-1"/>
        </Node>
        <Node pos="r" depth="1" NCoef="0" IVar="-1" Cut="0.0000000000000000e+00" cType="1" res="-9.9000000000000000e+01" rms="0.0000000000000000e+00" purity="3.7279620766639709e-01" nType="-1"/>
      </Node>
    </BinaryTree>
    <BinaryTree type="DecisionTree" boostWeight="4.9380910226850087e-02" itree="57">
      <Node pos="s" depth="0" NCoef="0" IVar="27" Cut="1.4599609375000000e-01" cType="0" res="-9.9000000000000000e+01" rms="0.0000000000000000e+00" purity="4.8351663351058960e-01" nType="0">
        <Node pos="l" depth="1" NCoef="0" IVar="30" Cut="8.5107421875000000e-01" cType="0" res="-9.9000000000000000e+01" rms="0.0000000000000000e+00" purity="5.0692862272262573e-01" nType="0">
          <Node pos="l" depth="2" NCoef="0" IVar="-1" Cut="0.0000000000000000e+00" cType="1" res="-9.9000000000000000e+01" rms="0.0000000000000000e+00" purity="5.9460473060607910e-01" nType="1"/>
          <Node pos="r" depth="2" NCoef="0" IVar="-1" Cut="0.0000000000000000e+00" cType="1" res="-9.9000000000000000e+01" rms="0.0000000000000000e+00" purity="4.7113212943077087e-01" nType="-1"/>
        </Node>
        <Node pos="r" depth="1" NCoef="0" IVar="-1" Cut="0.0000000000000000e+00" cType="1" res="-9.9000000000000000e+01" rms="0.0000000000000000e+00" purity="3.7751227617263794e-01" nType="-1"/>
      </Node>
    </BinaryTree>
    <BinaryTree type="DecisionTree" boostWeight="5.3942191307645604e-02" itree="58">
      <Node pos="s" depth="0" NCoef="0" IVar="17" Cut="1.3232721090316772e+00" cType="1" res="-9.9000000000000000e+01" rms="0.0000000000000000e+00" purity="4.8996695876121521e-01" nType="0">
        <Node pos="l" depth="1" NCoef="0" IVar="11" Cut="6.1560047149658203e+01" cType="0" res="-9.9000000000000000e+01" rms="0.0000000000000000e+00" purity="5.2158600091934204e-01" nType="0">
          <Node pos="l" depth="2" NCoef="0" IVar="-1" Cut="0.0000000000000000e+00" cType="1" res="-9.9000000000000000e+01" rms="0.0000000000000000e+00" purity="5.5260652303695679e-01" nType="1"/>
          <Node pos="r" depth="2" NCoef="0" IVar="-1" Cut="0.0000000000000000e+00" cType="1" res="-9.9000000000000000e+01" rms="0.0000000000000000e+00" purity="4.2160785198211670e-01" nType="-1"/>
        </Node>
        <Node pos="r" depth="1" NCoef="0" IVar="-1" Cut="2.5757083892822266e+00" cType="1" res="-9.9000000000000000e+01" rms="0.0000000000000000e+00" purity="4.1266274452209473e-01" nType="-1"/>
      </Node>
    </BinaryTree>
    <BinaryTree type="DecisionTree" boostWeight="4.7633147139246650e-02" itree="59">
      <Node pos="s" depth="0" NCoef="0" IVar="58" Cut="2.9960784912109375e+01" cType="1" res="-9.9000000000000000e+01" rms="0.0000000000000000e+00" purity="4.8880335688591003e-01" nType="0">
        <Node pos="l" depth="1" NCoef="0" IVar="1" Cut="1.8377226257324219e+02" cType="1" res="-9.9000000000000000e+01" rms="0.0000000000000000e+00" purity="5.0929838418960571e-01" nType="0">
          <Node pos="l" depth="2" NCoef="0" IVar="-1" Cut="0.0000000000000000e+00" cType="1" res="-9.9000000000000000e+01" rms="0.0000000000000000e+00" purity="5.3642803430557251e-01" nType="1"/>
          <Node pos="r" depth="2" NCoef="0" IVar="-1" Cut="0.0000000000000000e+00" cType="1" res="-9.9000000000000000e+01" rms="0.0000000000000000e+00" purity="4.1560441255569458e-01" nType="-1"/>
        </Node>
        <Node pos="r" depth="1" NCoef="0" IVar="-1" Cut="0.0000000000000000e+00" cType="1" res="-9.9000000000000000e+01" rms="0.0000000000000000e+00" purity="3.7197646498680115e-01" nType="-1"/>
      </Node>
    </BinaryTree>
    <BinaryTree type="DecisionTree" boostWeight="3.4264373181522062e-02" itree="60">
      <Node pos="s" depth="0" NCoef="0" IVar="31" Cut="1.1600000000000000e+02" cType="0" res="-9.9000000000000000e+01" rms="0.0000000000000000e+00" purity="4.8495751619338989e-01" nType="0">
        <Node pos="l" depth="1" NCoef="0" IVar="-1" Cut="0.0000000000000000e+00" cType="1" res="-9.9000000000000000e+01" rms="0.0000000000000000e+00" purity="6.2479245662689209e-01" nType="1"/>
        <Node pos="r" depth="1" NCoef="0" IVar="-1" Cut="2.5571507263183594e+02" cType="1" res="-9.9000000000000000e+01" rms="0.0000000000000000e+00" purity="4.6751230955123901e-01" nType="-1"/>
      </Node>
    </BinaryTree>
    <BinaryTree type="DecisionTree" boostWeight="5.2616788948060503e-02" itree="61">
      <Node pos="s" depth="0" NCoef="0" IVar="12" Cut="3.2427082061767578e+01" cType="0" res="-9.9000000000000000e+01" rms="0.0000000000000000e+00" purity="4.9161040782928467e-01" nType="0">
        <Node pos="l" depth="1" NCoef="0" IVar="3" Cut="1.5492417907714844e+02" cType="1" res="-9.9000000000000000e+01" rms="0.0000000000000000e+00" purity="5.2638512849807739e-01" nType="0">
          <Node pos="l" depth="2" NCoef="0" IVar="-1" Cut="0.0000000000000000e+00" cType="1" res="-9.9000000000000000e+01" rms="0.0000000000000000e+00" purity="5.6676548719406128e-01" nType="1"/>
          <Node pos="r" depth="2" NCoef="0" IVar="-1" Cut="0.0000000000000000e+00" cType="1" res="-9.9000000000000000e+01" rms="0.0000000000000000e+00" purity="4.4973570108413696e-01" nType="-1"/>
        </Node>
        <Node pos="r" depth="1" NCoef="0" IVar="-1" Cut="9.8020303249359131e-01" cType="1" res="-9.9000000000000000e+01" rms="0.0000000000000000e+00" purity="4.2651450634002686e-01" nType="-1"/>
      </Node>
    </BinaryTree>
    <BinaryTree type="DecisionTree" boostWeight="3.9426778685891326e-02" itree="62">
      <Node pos="s" depth="0" NCoef="0" IVar="27" Cut="1.4599609375000000e-01" cType="0" res="-9.9000000000000000e+01" rms="0.0000000000000000e+00" purity="4.9351072311401367e-01" nType="0">
        <Node pos="l" depth="1" NCoef="0" IVar="26" Cut="9.2529296875000000e-01" cType="0" res="-9.9000000000000000e+01" rms="0.0000000000000000e+00" purity="5.1581084728240967e-01" nType="0">
          <Node pos="l" depth="2" NCoef="0" IVar="-1" Cut="0.0000000000000000e+00" cType="1" res="-9.9000000000000000e+01" rms="0.0000000000000000e+00" purity="5.9626591205596924e-01" nType="1"/>
          <Node pos="r" depth="2" NCoef="0" IVar="-1" Cut="0.0000000000000000e+00" cType="1" res="-9.9000000000000000e+01" rms="0.0000000000000000e+00" purity="4.8602652549743652e-01" nType="-1"/>
        </Node>
        <Node pos="r" depth="1" NCoef="0" IVar="-1" Cut="0.0000000000000000e+00" cType="1" res="-9.9000000000000000e+01" rms="0.0000000000000000e+00" purity="3.9217939972877502e-01" nType="-1"/>
      </Node>
    </BinaryTree>
    <BinaryTree type="DecisionTree" boostWeight="5.3022624039896583e-02" itree="63">
      <Node pos="s" depth="0" NCoef="0" IVar="4" Cut="6.7585378885269165e-01" cType="0" res="-9.9000000000000000e+01" rms="0.0000000000000000e+00" purity="4.9899932742118835e-01" nType="0">
        <Node pos="l" depth="1" NCoef="0" IVar="1" Cut="1.4767213439941406e+02" cType="1" res="-9.9000000000000000e+01" rms="0.0000000000000000e+00" purity="5.1610314846038818e-01" nType="0">
          <Node pos="l" depth="2" NCoef="0" IVar="-1" Cut="0.0000000000000000e+00" cType="1" res="-9.9000000000000000e+01" rms="0.0000000000000000e+00" purity="5.6121581792831421e-01" nType="1"/>
          <Node pos="r" depth="2" NCoef="0" IVar="-1" Cut="0.0000000000000000e+00" cType="1" res="-9.9000000000000000e+01" rms="0.0000000000000000e+00" purity="4.4867658615112305e-01" nType="-1"/>
        </Node>
        <Node pos="r" depth="1" NCoef="0" IVar="-1" Cut="0.0000000000000000e+00" cType="1" res="-9.9000000000000000e+01" rms="0.0000000000000000e+00" purity="3.6782604455947876e-01" nType="-1"/>
      </Node>
    </BinaryTree>
    <BinaryTree type="DecisionTree" boostWeight="4.2469951144318507e-02" itree="64">
      <Node pos="s" depth="0" NCoef="0" IVar="34" Cut="9.4924253225326538e-01" cType="0" res="-9.9000000000000000e+01" rms="0.0000000000000000e+00" purity="4.9819716811180115e-01" nType="0">
        <Node pos="l" depth="1" NCoef="0" IVar="-1" Cut="0.0000000000000000e+00" cType="1" res="-9.9000000000000000e+01" rms="0.0000000000000000e+00" purity="6.4084148406982422e-01" nType="1"/>
        <Node pos="r" depth="1" NCoef="0" IVar="10" Cut="3.3093750000000000e+01" cType="0" res="-9.9000000000000000e+01" rms="0.0000000000000000e+00" purity="4.8151490092277527e-01" nType="0">
          <Node pos="l" depth="2" NCoef="0" IVar="-1" Cut="0.0000000000000000e+00" cType="1" res="-9.9000000000000000e+01" rms="0.0000000000000000e+00" purity="5.1851820945739746e-01" nType="1"/>
          <Node pos="r" depth="2" NCoef="0" IVar="-1" Cut="0.0000000000000000e+00" cType="1" res="-9.9000000000000000e+01" rms="0.0000000000000000e+00" purity="4.1243404150009155e-01" nType="-1"/>
        </Node>
      </Node>
    </BinaryTree>
    <BinaryTree type="DecisionTree" boostWeight="3.0517740120925126e-02" itree="65">
      <Node pos="s" depth="0" NCoef="0" IVar="34" Cut="9.4924253225326538e-01" cType="0" res="-9.9000000000000000e+01" rms="0.0000000000000000e+00" purity="4.9419867992401123e-01" nType="0">
        <Node pos="l" depth="1" NCoef="0" IVar="-1" Cut="0.0000000000000000e+00" cType="1" res="-9.9000000000000000e+01" rms="0.0000000000000000e+00" purity="6.3100910186767578e-01" nType="1"/>
        <Node pos="r" depth="1" NCoef="0" IVar="7" Cut="2.5571507263183594e+02" cType="1" res="-9.9000000000000000e+01" rms="0.0000000000000000e+00" purity="4.7826555371284485e-01" nType="0">
          <Node pos="l" depth="2" NCoef="0" IVar="-1" Cut="0.0000000000000000e+00" cType="1" res="-9.9000000000000000e+01" rms="0.0000000000000000e+00" purity="5.0348138809204102e-01" nType="1"/>
          <Node pos="r" depth="2" NCoef="0" IVar="-1" Cut="0.0000000000000000e+00" cType="1" res="-9.9000000000000000e+01" rms="0.0000000000000000e+00" purity="3.8216856122016907e-01" nType="-1"/>
        </Node>
      </Node>
    </BinaryTree>
    <BinaryTree type="DecisionTree" boostWeight="3.1803786911344341e-02" itree="66">
      <Node pos="s" depth="0" NCoef="0" IVar="31" Cut="1.1600000000000000e+02" cType="0" res="-9.9000000000000000e+01" rms="0.0000000000000000e+00" purity="4.8939812183380127e-01" nType="0">
        <Node pos="l" depth="1" NCoef="0" IVar="-1" Cut="0.0000000000000000e+00" cType="1" res="-9.9000000000000000e+01" rms="0.0000000000000000e+00" purity="6.1981290578842163e-01" nType="1"/>
        <Node pos="r" depth="1" NCoef="0" IVar="54" Cut="3.0882352828979492e+01" cType="1" res="-9.9000000000000000e+01" rms="0.0000000000000000e+00" purity="4.7309052944183350e-01" nType="0">
          <Node pos="l" depth="2" NCoef="0" IVar="-1" Cut="0.0000000000000000e+00" cType="1" res="-9.9000000000000000e+01" rms="0.0000000000000000e+00" purity="5.0188767910003662e-01" nType="1"/>
          <Node pos="r" depth="2" NCoef="0" IVar="-1" Cut="0.0000000000000000e+00" cType="1" res="-9.9000000000000000e+01" rms="0.0000000000000000e+00" purity="3.9683285355567932e-01" nType="-1"/>
        </Node>
      </Node>
    </BinaryTree>
    <BinaryTree type="DecisionTree" boostWeight="4.4685109576309209e-02" itree="67">
      <Node pos="s" depth="0" NCoef="0" IVar="2" Cut="8.2537246704101562e+01" cType="0" res="-9.9000000000000000e+01" rms="0.0000000000000000e+00" purity="4.8530346155166626e-01" nType="0">
        <Node pos="l" depth="1" NCoef="0" IVar="29" Cut="9.8095703125000000e-01" cType="0" res="-9.9000000000000000e+01" rms="0.0000000000000000e+00" purity="5.0341445207595825e-01" nType="0">
          <Node pos="l" depth="2" NCoef="0" IVar="-1" Cut="0.0000000000000000e+00" cType="1" res="-9.9000000000000000e+01" rms="0.0000000000000000e+00" purity="5.8904916048049927e-01" nType="1"/>
          <Node pos="r" depth="2" NCoef="0" IVar="-1" Cut="0.0000000000000000e+00" cType="1" res="-9.9000000000000000e+01" rms="0.0000000000000000e+00" purity="4.7236588597297668e-01" nType="-1"/>
        </Node>
        <Node pos="r" depth="1" NCoef="0" IVar="-1" Cut="0.0000000000000000e+00" cType="1" res="-9.9000000000000000e+01" rms="0.0000000000000000e+00" purity="3.7059319019317627e-01" nType="-1"/>
      </Node>
    </BinaryTree>
    <BinaryTree type="DecisionTree" boostWeight="4.9257644574895731e-02" itree="68">
      <Node pos="s" depth="0" NCoef="0" IVar="28" Cut="1.0888671875000000e-01" cType="0" res="-9.9000000000000000e+01" rms="0.0000000000000000e+00" purity="4.9131762981414795e-01" nType="0">
        <Node pos="l" depth="1" NCoef="0" IVar="1" Cut="8.9319458007812500e+01" cType="0" res="-9.9000000000000000e+01" rms="0.0000000000000000e+00" purity="5.1234912872314453e-01" nType="0">
          <Node pos="l" depth="2" NCoef="0" IVar="-1" Cut="0.0000000000000000e+00" cType="1" res="-9.9000000000000000e+01" rms="0.0000000000000000e+00" purity="5.3819328546524048e-01" nType="1"/>
          <Node pos="r" depth="2" NCoef="0" IVar="-1" Cut="0.0000000000000000e+00" cType="1" res="-9.9000000000000000e+01" rms="0.0000000000000000e+00" purity="3.8134744763374329e-01" nType="-1"/>
        </Node>
        <Node pos="r" depth="1" NCoef="0" IVar="-1" Cut="0.0000000000000000e+00" cType="1" res="-9.9000000000000000e+01" rms="0.0000000000000000e+00" purity="3.9275524020195007e-01" nType="-1"/>
      </Node>
    </BinaryTree>
    <BinaryTree type="DecisionTree" boostWeight="4.3604935616342100e-02" itree="69">
      <Node pos="s" depth="0" NCoef="0" IVar="27" Cut="1.4599609375000000e-01" cType="0" res="-9.9000000000000000e+01" rms="0.0000000000000000e+00" purity="4.8663952946662903e-01" nType="0">
        <Node pos="l" depth="1" NCoef="0" IVar="30" Cut="6.4697265625000000e-01" cType="0" res="-9.9000000000000000e+01" rms="0.0000000000000000e+00" purity="5.0761395692825317e-01" nType="0">
          <Node pos="l" depth="2" NCoef="0" IVar="-1" Cut="0.0000000000000000e+00" cType="1" res="-9.9000000000000000e+01" rms="0.0000000000000000e+00" purity="5.6381046772003174e-01" nType="1"/>
          <Node pos="r" depth="2" NCoef="0" IVar="-1" Cut="0.0000000000000000e+00" cType="1" res="-9.9000000000000000e+01" rms="0.0000000000000000e+00" purity="4.7148650884628296e-01" nType="-1"/>
        </Node>
        <Node pos="r" depth="1" NCoef="0" IVar="-1" Cut="0.0000000000000000e+00" cType="1" res="-9.9000000000000000e+01" rms="0.0000000000000000e+00" purity="3.9134341478347778e-01" nType="-1"/>
      </Node>
    </BinaryTree>
    <BinaryTree type="DecisionTree" boostWeight="4.2264670533794339e-02" itree="70">
      <Node pos="s" depth="0" NCoef="0" IVar="26" Cut="1.2744140625000000e-01" cType="0" res="-9.9000000000000000e+01" rms="0.0000000000000000e+00" purity="4.9052518606185913e-01" nType="0">
        <Node pos="l" depth="1" NCoef="0" IVar="2" Cut="8.4160987854003906e+01" cType="0" res="-9.9000000000000000e+01" rms="0.0000000000000000e+00" purity="5.1239114999771118e-01" nType="0">
          <Node pos="l" depth="2" NCoef="0" IVar="-1" Cut="0.0000000000000000e+00" cType="1" res="-9.9000000000000000e+01" rms="0.0000000000000000e+00" purity="5.3166830539703369e-01" nType="1"/>
          <Node pos="r" depth="2" NCoef="0" IVar="-1" Cut="0.0000000000000000e+00" cType="1" res="-9.9000000000000000e+01" rms="0.0000000000000000e+00" purity="4.0219187736511230e-01" nType="-1"/>
        </Node>
        <Node pos="r" depth="1" NCoef="0" IVar="-1" Cut="0.0000000000000000e+00" cType="1" res="-9.9000000000000000e+01" rms="0.0000000000000000e+00" purity="4.0270590782165527e-01" nType="-1"/>
      </Node>
    </BinaryTree>
    <BinaryTree type="DecisionTree" boostWeight="4.3479836160459216e-02" itree="71">
      <Node pos="s" depth="0" NCoef="0" IVar="25" Cut="1.8310546875000000e-01" cType="0" res="-9.9000000000000000e+01" rms="0.0000000000000000e+00" purity="4.8666176199913025e-01" nType="0">
        <Node pos="l" depth="1" NCoef="0" IVar="1" Cut="8.7058837890625000e+01" cType="0" res="-9.9000000000000000e+01" rms="0.0000000000000000e+00" purity="5.1030761003494263e-01" nType="0">
          <Node pos="l" depth="2" NCoef="0" IVar="-1" Cut="0.0000000000000000e+00" cType="1" res="-9.9000000000000000e+01" rms="0.0000000000000000e+00" purity="5.3133618831634521e-01" nType="1"/>
          <Node pos="r" depth="2" NCoef="0" IVar="-1" Cut="0.0000000000000000e+00" cType="1" res="-9.9000000000000000e+01" rms="0.0000000000000000e+00" purity="3.9387938380241394e-01" nType="-1"/>
        </Node>
        <Node pos="r" depth="1" NCoef="0" IVar="-1" Cut="0.0000000000000000e+00" cType="1" res="-9.9000000000000000e+01" rms="0.0000000000000000e+00" purity="4.0814092755317688e-01" nType="-1"/>
      </Node>
    </BinaryTree>
    <BinaryTree type="DecisionTree" boostWeight="3.4316944190288495e-02" itree="72">
      <Node pos="s" depth="0" NCoef="0" IVar="31" Cut="1.1600000000000000e+02" cType="0" res="-9.9000000000000000e+01" rms="0.0000000000000000e+00" purity="4.8334079980850220e-01" nType="0">
        <Node pos="l" depth="1" NCoef="0" IVar="-1" Cut="0.0000000000000000e+00" cType="1" res="-9.9000000000000000e+01" rms="0.0000000000000000e+00" purity="6.0245132446289062e-01" nType="1"/>
        <Node pos="r" depth="1" NCoef="0" IVar="7" Cut="2.0179411315917969e+02" cType="1" res="-9.9000000000000000e+01" rms="0.0000000000000000e+00" purity="4.6849551796913147e-01" nType="0">
          <Node pos="l" depth="2" NCoef="0" IVar="-1" Cut="0.0000000000000000e+00" cType="1" res="-9.9000000000000000e+01" rms="0.0000000000000000e+00" purity="5.0294137001037598e-01" nType="1"/>
          <Node pos="r" depth="2" NCoef="0" IVar="-1" Cut="0.0000000000000000e+00" cType="1" res="-9.9000000000000000e+01" rms="0.0000000000000000e+00" purity="4.0320324897766113e-01" nType="-1"/>
        </Node>
      </Node>
    </BinaryTree>
    <BinaryTree type="DecisionTree" boostWeight="3.7541862469866655e-02" itree="73">
      <Node pos="s" depth="0" NCoef="0" IVar="10" Cut="5.6211090087890625e+01" cType="0" res="-9.9000000000000000e+01" rms="0.0000000000000000e+00" purity="4.8000168800354004e-01" nType="0">
        <Node pos="l" depth="1" NCoef="0" IVar="-1" Cut="8.8818359375000000e-01" cType="0" res="-9.9000000000000000e+01" rms="0.0000000000000000e+00" purity="5.4274404048919678e-01" nType="1"/>
        <Node pos="r" depth="1" NCoef="0" IVar="-1" Cut="2.6398897171020508e+01" cType="0" res="-9.9000000000000000e+01" rms="0.0000000000000000e+00" purity="4.5136317610740662e-01" nType="-1"/>
      </Node>
    </BinaryTree>
    <BinaryTree type="DecisionTree" boostWeight="4.3811873678905711e-02" itree="74">
      <Node pos="s" depth="0" NCoef="0" IVar="6" Cut="3.0896258354187012e+00" cType="1" res="-9.9000000000000000e+01" rms="0.0000000000000000e+00" purity="4.8347496986389160e-01" nType="0">
        <Node pos="l" depth="1" NCoef="0" IVar="18" Cut="1.5683213472366333e+00" cType="1" res="-9.9000000000000000e+01" rms="0.0000000000000000e+00" purity="5.0343388319015503e-01" nType="0">
          <Node pos="l" depth="2" NCoef="0" IVar="-1" Cut="0.0000000000000000e+00" cType="1" res="-9.9000000000000000e+01" rms="0.0000000000000000e+00" purity="5.3059059381484985e-01" nType="1"/>
          <Node pos="r" depth="2" NCoef="0" IVar="-1" Cut="0.0000000000000000e+00" cType="1" res="-9.9000000000000000e+01" rms="0.0000000000000000e+00" purity="4.1588845849037170e-01" nType="-1"/>
        </Node>
        <Node pos="r" depth="1" NCoef="0" IVar="-1" Cut="0.0000000000000000e+00" cType="1" res="-9.9000000000000000e+01" rms="0.0000000000000000e+00" purity="3.9598777890205383e-01" nType="-1"/>
      </Node>
    </BinaryTree>
    <BinaryTree type="DecisionTree" boostWeight="4.3508090981671577e-02" itree="75">
      <Node pos="s" depth="0" NCoef="0" IVar="27" Cut="1.6455078125000000e-01" cType="0" res="-9.9000000000000000e+01" rms="0.0000000000000000e+00" purity="4.8076868057250977e-01" nType="0">
        <Node pos="l" depth="1" NCoef="0" IVar="1" Cut="1.4264826965332031e+02" cType="1" res="-9.9000000000000000e+01" rms="0.0000000000000000e+00" purity="5.0147187709808350e-01" nType="0">
          <Node pos="l" depth="2" NCoef="0" IVar="-1" Cut="0.0000000000000000e+00" cType="1" res="-9.9000000000000000e+01" rms="0.0000000000000000e+00" purity="5.3584563732147217e-01" nType="1"/>
          <Node pos="r" depth="2" NCoef="0" IVar="-1" Cut="0.0000000000000000e+00" cType="1" res="-9.9000000000000000e+01" rms="0.0000000000000000e+00" purity="4.4771429896354675e-01" nType="-1"/>
        </Node>
        <Node pos="r" depth="1" NCoef="0" IVar="-1" Cut="0.0000000000000000e+00" cType="1" res="-9.9000000000000000e+01" rms="0.0000000000000000e+00" purity="3.9846673607826233e-01" nType="-1"/>
      </Node>
    </BinaryTree>
    <BinaryTree type="DecisionTree" boostWeight="4.1867417428840190e-02" itree="76">
